the 1.616027 -0.796661 -1.650749 -1.891230 0.311541 0.333725 -1.307221 -0.945220 -1.048546 1.417865 -0.370370 0.021204 -1.639757 1.013902 0.856061 0.610887 -0.342769 0.658244 0.349620 0.480716 0.240160 -0.803131 -0.798570 -1.297150 1.034220 0.062450 1.631091 0.576533 -0.168901 0.352560 1.960252 -0.121995 -0.547499 -1.076744 -0.202365 -0.027603 0.162248 -0.254727 -0.524069 1.868626 0.549535 -0.657537 0.510908 0.588888 0.631557 -0.582881 -0.134838 1.277135 1.799335 1.524025
and -0.232651 -1.199687 -1.223547 0.520041 -0.015990 0.584210 -0.496377 -0.561442 -0.021331 0.761033 -0.261026 -0.959125 -0.116918 0.887176 0.561275 -0.758984 -0.165601 -0.572842 -0.599178 -0.337691 0.087771 -0.670888 -0.212757 -0.138196 1.222965 1.208248 1.954598 0.770458 0.309942 0.616450 0.747562 1.883775 -1.989640 -0.110381 -1.094706 0.177333 -1.029250 0.790747 0.730765 1.063401 0.498187 0.008605 0.555492 0.785993 -0.177823 0.355585 1.008274 1.139260 0.186062 -0.329896
i 0.177290 -2.424296 0.099173 -0.023944 0.969878 0.157844 -0.470223 -0.559655 -1.424465 1.039622 -0.299084 -1.134167 -0.686087 -0.306623 0.303555 0.587301 -0.706926 -0.719085 0.934991 -0.326699 0.679282 -0.098677 1.057371 -1.572254 -0.303681 0.150222 1.347812 0.290351 -0.800392 0.823973 0.556922 1.346932 -1.215184 -1.376778 -1.016352 -0.535006 0.024310 0.711811 1.275635 0.021068 -0.761887 -0.501792 0.423470 -0.704987 0.193522 1.129464 -0.214024 0.723328 -0.261498 -0.161300
to 1.825167 -0.566401 -1.443883 -0.634397 0.140527 -1.205593 0.452374 -1.043645 -0.065771 0.314380 -0.838050 -0.837225 -0.095279 0.323370 0.402837 1.230348 -0.416786 -0.564371 1.148707 -0.685595 0.282847 -1.486523 -0.287934 -0.391400 -0.004891 0.939732 1.234039 -0.692885 0.699589 1.314077 -0.262676 1.676179 -0.736507 -1.120109 -0.018102 -0.413043 -0.848044 1.171469 -0.574991 -0.726440 0.481697 -0.134836 0.964804 -0.023711 1.233099 1.022401 1.408331 1.007982 0.365272 0.216469
of 1.308456 -0.937199 -1.541534 -0.830811 0.176244 0.996162 -0.779022 -0.612450 1.138179 0.190433 0.687662 -0.167111 -0.204314 1.019331 0.259570 -0.166394 -0.165951 -1.239855 0.704797 0.642448 1.586264 -0.565484 1.014691 -0.458342 1.354075 -0.521785 0.410330 -0.150412 0.719017 1.334399 0.698857 0.606338 -1.077122 -0.428257 -1.817971 0.651799 -1.496262 0.329340 -0.547315 0.513987 0.806963 0.137385 1.532085 -0.087260 -0.059672 0.115730 -1.442907 0.588068 -0.208310 0.896438
you -0.449414 -1.114486 -0.228947 -0.001183 0.375159 0.286559 -0.797642 -0.414524 -0.123177 1.637751 0.362474 -1.076661 0.159733 -0.321801 0.578566 1.612459 -0.399004 -0.653042 0.885042 -0.900185 -0.161475 -0.474680 0.861441 -1.214138 -0.328806 -0.209111 0.779061 0.421015 1.479796 1.755081 0.604851 1.824586 -0.734527 -1.248414 0.106582 0.331896 -0.564292 1.081926 -0.306895 0.391727 -0.072276 -0.602524 0.064074 -0.378898 -0.301990 -0.252097 -0.075936 0.797675 -0.677689 0.021678
my 0.749889 -1.180706 -0.960709 -0.383300 0.658582 -0.146554 -0.306296 0.978373 -0.825722 1.270671 -0.342987 -1.342328 0.335706 0.394645 -0.583478 0.909594 1.543370 -0.969819 0.319293 -1.311685 0.791540 -1.418379 0.577131 -1.167148 -0.226693 -0.104965 1.319895 0.400314 0.014251 0.696002 -0.049430 0.382593 -0.171782 -0.711591 -0.842836 -0.201511 -1.125056 -0.203084 1.263129 0.384095 -0.155630 -0.127464 0.927716 0.124728 -0.554818 1.983634 -0.980305 0.841110 0.339353 0.489360
a 1.475588 -0.246588 0.285012 -0.345360 -1.016306 1.556299 -0.111275 -1.232605 0.228321 1.278082 0.741522 -1.357287 0.073897 -1.524123 0.149533 0.664493 -1.029988 0.004821 0.691795 0.972724 0.500053 -1.672409 0.064811 -0.916461 1.499818 1.807585 1.324335 1.127497 1.053487 -0.061991 0.462919 -0.059074 -0.463542 -1.628007 0.052345 0.382322 -0.178981 1.761437 0.514998 0.263146 0.161611 -0.130023 0.832607 -0.297335 0.187949 1.412788 -1.681446 0.441711 0.922153 -1.790263
that 0.660811 -0.814499 -0.435870 -0.299580 0.413949 0.484292 -0.948809 -1.112521 -0.155084 0.732033 0.547254 0.070819 -0.446616 -1.136344 0.041088 0.144403 -0.813755 -0.967974 0.636752 -0.885983 0.417857 -0.915995 -0.524613 -1.149875 0.561894 0.064166 1.237925 0.275657 0.393588 0.360019 1.401801 1.232996 -0.870344 -0.793121 -0.629844 0.468000 -0.529559 -0.543948 -0.480579 -0.088258 -0.888549 0.484579 0.372977 -0.174041 -0.322608 0.430817 -0.247102 0.648597 0.468476 0.674111
in 1.107057 -0.344949 -1.436618 -0.101247 0.347455 0.639092 -0.353558 -0.554730 0.953779 0.391576 0.013236 -0.347106 -0.754139 -0.780047 0.652751 0.033420 0.527616 -0.553358 0.076292 -0.688798 -0.084512 -0.971478 -0.059091 -0.733949 0.505975 0.871673 0.749701 1.322022 0.522269 0.375647 -0.045013 0.648141 -1.309132 -0.716614 -0.756835 0.387783 -0.715766 0.825328 -0.042604 1.016754 -0.662094 -0.618941 1.216577 0.089637 0.334224 -0.087937 -0.606495 0.309362 -0.124140 0.350112
not 0.565667 -0.910810 -0.626576 -0.247043 0.980920 -0.013069 -0.179120 -0.894291 0.182287 0.814857 0.875457 -1.466708 -0.612245 -0.414208 -0.140222 0.305245 -0.486854 -0.578512 0.863844 -0.417143 0.372376 -0.623980 -0.431889 -1.285854 0.431515 -0.248255 0.158496 0.860430 0.561052 0.225201 0.100245 0.898282 -0.580491 -1.143826 -1.296905 -0.222401 -0.740525 0.284653 0.485793 -0.988537 -0.498254 -0.394533 0.350700 -1.234533 -0.093579 0.197133 -0.155611 0.934175 0.459679 0.649892
is 0.747499 -1.044055 -1.247211 -0.562659 -0.186378 0.261867 0.145143 -1.400850 0.018742 1.815022 -0.141644 -1.672772 0.255528 -0.557961 1.297469 -0.569830 -0.524417 -0.300897 1.070966 -0.211735 0.255378 -0.751141 -0.619252 -0.357990 0.296493 0.062291 0.286327 0.345656 0.542047 1.021273 0.291224 0.105191 -0.528184 0.052727 -1.203599 -0.411027 -1.017856 0.042458 -0.393142 -0.279348 -1.636815 -0.108764 0.897872 -0.064802 -0.953138 1.012966 -0.077993 0.226238 0.977920 -0.041438
me 0.062513 -0.270261 -0.884653 -0.246898 -0.683013 0.194618 -0.931114 -1.113089 -0.221668 1.052574 0.664088 -1.266865 0.261956 -0.848620 -1.056166 0.805918 -0.645354 -0.597166 1.232536 -1.312312 0.440536 -0.497797 -0.738825 -1.171880 -0.747498 0.272059 0.670105 -0.290246 0.591503 0.041677 0.106774 1.324432 -0.337366 -1.822046 -0.603784 -0.068414 -0.934709 1.098598 0.548166 0.192177 -0.582567 -0.650355 -0.230595 0.719566 -0.167786 0.578799 -0.471454 1.639286 -0.486542 1.283355
your 0.122050 -0.596990 -1.123590 -0.391703 1.284085 0.274977 -1.223553 0.450886 -1.011579 1.476390 0.522510 0.031781 0.163663 -0.909785 1.181637 0.553258 0.035196 -0.632836 0.454811 -1.393511 0.320703 -1.338651 0.542430 -0.582294 -0.314342 0.878353 0.534815 0.513879 0.488912 2.387981 -1.068953 1.144906 -1.185145 -0.927739 -0.667970 -0.140606 0.098076 0.719651 -0.575857 -0.254883 0.974270 -0.213610 -0.602457 0.640706 -0.333185 0.171381 -0.689796 -0.283388 -0.013903 0.459040
with 0.587539 -0.768523 -0.563870 -0.189475 -0.590620 0.920919 -0.415659 0.181637 0.511180 0.413097 0.151620 -0.120990 -0.267722 0.052564 0.590226 -0.212952 0.721668 -0.982927 0.112796 -0.918404 0.693827 -1.206296 -0.614169 -0.966329 0.589894 0.997352 1.336235 1.105231 0.683334 -0.285275 0.593116 1.034697 -1.343633 -1.344157 -0.059569 0.473300 -0.957474 -0.011976 -0.268885 0.812291 -0.055248 -0.045250 -0.044058 -0.104007 -0.825881 0.647887 0.609746 0.872786 -0.948931 0.242020
it 0.202355 -0.920579 -0.207161 -0.597791 -0.710011 -0.257787 -0.077969 -1.116512 -0.280762 1.526555 0.669773 -0.862472 0.422256 0.037146 0.573262 -0.227096 -0.121114 0.511781 0.912286 -0.795546 -0.631568 -1.390566 -0.062143 -1.225096 0.755451 -0.322968 0.582637 0.577486 0.050334 1.086863 0.815082 0.404975 -0.566193 -0.855142 -0.672766 0.150070 -0.749149 1.036022 -0.433719 -0.542679 -1.601471 -0.525671 0.127917 -0.686856 0.742388 0.794761 0.307951 0.490689 0.494838 0.873822
for 0.370807 -0.761411 -0.188497 0.093383 1.092277 0.717048 -0.114723 -0.799501 -0.548952 0.738283 0.172178 -1.064128 -0.207870 -0.563089 0.026198 0.481803 -0.597382 -0.975054 -0.316322 -0.829409 0.262319 -0.640224 -1.172514 -1.039609 -0.358612 0.610367 1.516196 0.639565 1.488146 0.585621 -0.408089 0.782619 -1.272374 -0.000609 -1.364419 0.261406 -0.371114 0.122511 -0.138296 -0.135848 -0.086304 -0.139330 1.126853 -0.609641 0.435415 0.406053 0.067368 0.403315 0.124796 0.443027
be 1.425680 -0.378305 -0.580831 -0.232345 0.035761 0.535635 -1.491854 -0.912432 -0.291022 0.779965 1.202564 -1.557908 0.711367 -0.395398 1.342329 -0.003355 0.151133 -0.311020 -0.030568 -0.607987 -0.069845 -0.819531 0.060655 0.078412 -0.090334 0.122953 0.787916 0.673966 -0.105041 0.100603 0.653463 0.810638 -0.970499 -1.488677 -1.068790 -0.678579 -0.872390 0.291505 0.254592 0.291171 -0.499328 -1.291447 1.211206 -1.239439 -0.288526 -0.031802 0.598846 0.267683 -0.235533 -0.622221
this 1.322325 -0.333872 -1.000607 0.599027 -0.841864 0.704325 -1.236583 -0.552703 0.036779 1.416477 0.484105 -1.251046 -1.038667 -1.061599 0.465081 0.343792 -0.430174 -0.341438 0.835646 0.030898 0.383128 0.386561 0.422490 -0.931686 0.652077 -0.263778 0.559082 0.205223 0.326344 1.529025 0.018573 0.671602 -0.614201 -0.447844 -0.683472 0.585642 0.304402 -0.284300 -0.433276 0.074873 -0.715852 -0.195635 0.873096 0.482169 0.990354 1.272876 -0.977645 0.477554 0.395463 0.175092
but 0.635818 -0.890839 -0.516504 -0.446748 0.489311 -0.193905 0.194948 -0.689782 0.186216 0.786024 0.041796 -1.087263 -0.614533 -0.201297 0.252838 0.245643 -0.545690 -0.558298 0.312330 -0.568624 0.297835 -0.667261 -0.061615 -0.842584 0.371785 -0.139324 0.403132 0.378640 0.325992 0.339803 0.342046 0.969300 -1.199386 -1.068170 -0.773362 0.125291 -0.782115 0.205216 0.134364 -0.194338 -0.720706 -0.367030 0.688062 -0.515844 -0.475267 0.557355 -0.176474 0.833352 0.098765 0.650191
his 0.804788 -0.973739 -0.951358 -1.502155 -0.318501 0.177499 0.252333 1.262137 0.196181 1.194122 0.404400 0.858578 -0.100480 -0.923176 -0.108945 -0.228131 0.241700 -0.254311 0.417821 -1.044331 -0.160455 -1.717147 -0.498852 -0.322728 0.617747 0.520528 0.716039 1.222848 -0.536607 1.070847 0.234485 1.061643 -1.527728 -0.818033 -0.787893 1.102018 -0.254437 0.593325 0.933926 -0.050312 0.333511 -0.084107 1.183821 0.833263 -0.085307 0.024681 -0.006328 -0.537997 0.346297 0.328160
have 0.673376 -1.087318 0.168370 -0.307088 0.163365 1.104057 -0.713751 -0.782408 -0.575550 0.336864 0.702756 -0.228628 -0.196596 0.439280 1.085776 0.769090 0.379241 -0.497875 1.222333 -1.157939 -1.002024 0.105247 -0.117883 -1.152134 0.068061 0.070490 0.741154 0.427484 0.203096 0.740911 0.004435 2.179515 -0.315948 -1.062400 -0.140345 -0.782575 -1.092410 -0.505960 1.479604 0.847887 -0.191931 -0.296494 0.902455 -1.136130 0.082580 0.826577 -0.377693 -0.223176 0.208856 -0.528694
thou 1.061908 -1.355749 -0.975487 0.031769 -0.766545 0.331901 -1.776711 -1.961900 0.744382 -0.081701 0.773817 -1.510426 -1.453724 0.628707 -0.798807 0.541937 0.268708 -0.625008 0.452281 -0.550603 0.971301 -1.075411 -1.278243 0.305783 -1.243158 0.321314 -0.720843 1.278185 -0.698734 -0.884781 0.328260 1.298064 -1.226988 -0.817122 -0.348770 -0.433867 -0.124860 -0.103881 0.333541 -1.015358 0.175178 0.165203 1.851053 -0.505059 0.529042 0.738549 -0.160244 1.217137 0.949486 -0.045098
as 1.527332 -1.497960 -0.438620 -0.914272 -0.165801 -0.569921 0.567819 -0.508627 0.729582 1.557432 0.373503 -1.068163 -0.849835 0.104714 0.043907 -0.229806 0.526713 0.059146 -0.127906 -0.888997 -0.979208 -1.078240 -0.078096 -0.219529 0.547494 0.187933 1.138753 0.507856 0.833057 -0.905505 0.101332 0.820474 -0.979073 -0.322326 -1.380754 -0.260298 0.024150 -0.177125 -0.430307 0.073855 0.191845 -2.433004 0.775584 0.114630 0.139685 -0.147556 -0.861059 0.442064 -0.359303 -0.583106
he -0.115387 -0.251569 -0.037227 0.040477 -1.109763 -0.152570 0.481770 0.059090 -0.230371 2.029779 0.662791 -0.053445 0.015022 -0.742060 -0.020291 -0.213919 -0.170388 -0.412222 0.529076 -0.638711 -0.775443 -1.424978 -0.706269 -0.721769 1.485595 -0.501670 0.810140 0.176021 -0.117373 0.414359 0.562481 1.619888 -1.177134 -1.231891 -0.971880 0.161027 -0.025531 0.740466 0.598550 -0.046604 -1.429159 0.104333 0.772155 0.126209 -1.358432 -0.126845 0.585125 0.957590 0.488156 0.692305
so 0.314777 -0.894111 -0.782531 0.100773 -0.150186 0.132533 0.066222 -0.204023 0.382601 0.728425 0.960984 -1.413708 -1.039297 0.329715 0.141955 -0.575917 0.925953 -0.953752 0.417458 -1.389969 -1.102723 -1.296086 -0.538635 -0.864656 0.648000 0.329939 0.625678 0.546551 0.361823 0.212625 1.222140 1.271235 -0.944720 -0.532975 -0.781106 -0.882935 -0.594518 0.821382 -0.171767 -0.147761 -0.401123 -1.191214 0.147444 -0.530430 -0.523153 0.214300 -0.091763 0.529966 -0.327576 -0.221789
what -0.212793 -0.161384 -1.525116 0.621267 -0.010394 1.235196 -0.411109 -1.547840 0.286090 1.683023 -0.121572 -0.506730 -1.141346 -0.381511 0.418398 0.966989 0.367484 -0.841440 0.968188 -0.665400 0.907252 -1.270818 -0.283237 -0.074956 0.638012 -0.906141 0.203614 0.526770 -0.030334 0.466113 0.125770 1.379858 -0.195061 -0.788578 -0.483691 0.012256 0.061667 -0.031958 0.804874 -1.001046 -0.457447 0.192531 0.566877 -0.508112 -0.401948 0.141535 -0.472084 0.487012 0.632414 -0.383386
him 0.221394 -0.425783 0.338316 -0.868258 -0.241569 -0.510454 -0.303052 -0.194568 -0.245858 1.164008 1.132071 -0.361428 0.021536 -0.106598 0.020824 -0.314668 -0.429238 -0.023894 1.019016 -0.647705 0.932521 -0.495778 -1.347374 -1.212948 -0.020076 0.522508 1.317428 0.556615 0.561810 0.725338 0.451645 2.320239 -0.599514 -0.738481 -0.216293 0.118627 -0.625455 0.987780 1.461188 -0.492678 -0.139715 0.297397 0.161065 -0.403686 -0.177879 -0.084237 0.001189 1.338948 0.248280 1.175657
all 0.795344 -1.027067 -1.022837 -0.156160 -0.181783 0.197283 -0.437768 -0.285898 0.026360 0.705987 -0.136468 0.078964 -1.011835 -0.002149 -0.037043 0.877202 0.242281 -0.596898 -0.011062 -1.125911 0.438700 -0.080591 0.044748 -0.377691 0.132425 0.408248 1.639847 -0.166183 0.753524 0.681438 -0.051658 0.226289 -0.887455 -0.864453 -0.392651 0.491814 -1.232808 -0.034001 -0.344269 0.544449 -0.559640 0.123417 0.805092 -0.585446 -0.598836 0.450982 0.550433 0.440520 -0.006368 0.661015
will 0.298092 -0.972910 -0.513065 -0.436032 0.086865 -0.476381 -0.411870 -0.223696 -0.644274 1.411737 -0.277796 -1.009115 -0.050226 -0.148263 0.352529 0.365949 -0.042133 0.240445 0.449154 -0.088565 0.548581 -0.663784 0.014922 -0.664283 0.218991 0.237504 0.884581 1.091940 0.106965 0.657461 0.056877 1.607638 -0.777485 -1.103353 -0.701001 0.613162 -0.500818 0.429498 0.478876 -0.164261 0.031796 -0.430591 -0.053152 -0.761613 0.689785 0.264391 0.640690 1.105960 -0.433532 -0.299002
do -0.165668 -1.669482 -0.823564 -0.275231 0.654089 -0.403410 -0.130158 -1.000205 -0.628328 0.908475 -0.125125 -0.404285 -0.822254 -0.216052 -0.547972 0.923973 -0.257508 -0.569643 0.609559 -0.566637 0.283394 -0.786061 -0.125592 -1.194803 -0.041952 -0.341975 0.826068 0.496411 0.467263 0.435658 0.061950 0.786579 -0.652809 -1.305905 -0.916745 0.531905 -0.312608 0.350980 0.374783 -0.990315 -0.246900 -0.752542 -0.471443 -0.551842 0.442417 0.013977 -0.119375 0.775062 -0.809693 -0.328462
thy 1.095591 -1.357536 -0.715770 -0.621379 -0.880751 -0.615154 -1.217367 -0.481509 -0.610114 0.159429 0.002627 -0.286984 -0.182475 -0.045835 -0.712679 -0.040235 1.036992 -0.736397 -0.187268 -1.025566 1.242262 -0.958961 -0.768427 -0.034139 -0.214862 0.699798 0.676039 1.042096 -0.924850 0.006705 -0.445254 0.090071 -0.745714 -0.536647 -1.047627 0.290540 -0.317462 -0.327796 0.113438 -0.304817 0.145795 0.148259 1.003958 0.623991 -0.018402 1.684704 -0.546285 0.353013 -0.041390 -0.176712
her 0.132379 -1.011027 0.707537 0.070913 0.567989 -0.559624 -0.621356 -0.269279 0.673448 -0.154728 -0.103642 -0.616106 0.916789 -0.884339 0.124605 0.414409 1.040910 -1.047513 0.319394 -0.947238 0.856066 -1.568312 0.011997 -0.514543 1.063119 0.945636 0.225895 1.241750 0.899885 0.828306 0.159756 0.851239 -0.249554 -0.859402 -1.358448 -0.328472 -0.022391 -0.318392 -0.639006 0.739974 0.183749 0.286250 -0.221421 0.647105 -0.028910 0.533049 0.483241 1.319559 -0.226949 0.506599
by 0.830894 -0.988646 -0.196283 -0.541134 -0.174846 -0.245424 -1.093247 -0.649783 -0.607839 0.364524 0.160651 -0.493740 -0.397084 -0.631086 0.460177 -0.065867 -0.127483 -0.401087 0.416126 0.296018 -0.396940 -0.353684 -0.045263 -0.733891 0.546830 0.221795 0.490688 0.179131 0.286904 0.699029 -0.403345 0.921357 -0.632339 -0.988762 -1.025149 0.348455 -0.108563 -0.995985 -0.348234 0.241460 -0.147386 -0.121037 0.802588 -0.334148 -0.493346 1.057420 0.041092 -0.101356 -0.207445 0.650871
no 0.740803 0.236440 -0.869005 -0.572569 0.403435 0.606026 0.322596 -0.853137 -0.524691 1.068127 -1.622777 -0.929824 0.119278 0.740053 0.039954 0.422806 -0.575369 -0.630253 0.718022 -0.425820 0.807360 -0.609742 -0.515696 -1.157806 0.172256 0.161660 -0.431742 1.510967 0.293820 1.040182 0.205025 -0.135201 -0.856100 -1.361873 -0.976316 0.938148 -0.184609 -0.073264 0.790400 0.076892 -0.749556 -0.280120 0.602206 -1.296534 -0.196419 0.120653 -0.397253 0.176620 -0.431232 0.024758
if 0.393948 -0.758587 -0.364871 -0.137427 0.531813 -0.108234 -0.900143 -0.454338 -0.071386 0.954793 0.685066 -0.775232 0.017949 -0.216723 0.230872 0.960921 0.006148 -0.062994 0.401565 -0.545268 -0.051126 -1.280737 0.424400 -0.151427 -0.062702 -0.130042 0.008973 0.746908 0.257927 0.094003 -0.169358 1.253617 -0.929028 -1.443253 -0.738727 -0.032947 -0.096638 -0.069847 -0.323710 -0.413851 0.177156 -0.635864 0.984935 -1.009259 -0.195566 0.117431 -0.157148 0.837616 0.050785 0.217624
thee 0.588046 -1.690056 0.309153 -0.238563 -0.568656 0.177196 -0.760592 -1.749988 -0.338158 0.143005 0.137301 -1.059155 0.011290 -0.232797 -0.733843 0.534998 -0.499890 -0.270658 0.756562 -0.403004 0.821988 -0.490290 -0.737962 -0.649295 -0.882516 0.049091 0.520919 0.442794 0.325254 -0.302429 0.078418 1.592703 -0.353257 -0.294702 -0.960748 0.567017 -0.555854 0.569371 0.769157 0.259123 -0.207129 -0.010438 0.582322 -0.172570 0.836211 0.825408 1.107437 1.004636 -0.629030 0.080213
are 0.116521 -1.438931 -1.636433 -0.646976 0.280577 -0.013910 -0.183713 -0.795714 0.479181 0.593663 -0.480532 0.184369 -0.585848 -0.318734 0.486414 0.586571 -0.068391 -0.397179 -0.122629 -1.380038 -0.379052 -0.033996 0.486093 -0.459792 -0.600326 0.850488 0.744924 0.257831 0.800127 0.289964 0.234746 0.494846 -0.473489 -0.219917 -0.853669 0.257984 -1.697451 -0.379195 -0.152837 0.169859 0.041651 -0.421377 0.098415 -0.940222 -1.660687 -0.439368 0.054736 -0.191511 -0.067222 -0.297239
on -0.002947 -0.953564 -0.213464 -0.371230 -0.013871 -0.060849 -0.987945 -1.301738 -0.029761 0.449168 0.106694 -0.163329 -0.395012 -0.398736 0.052850 -0.290410 1.294368 0.793949 0.674903 0.300837 -0.486021 -0.780031 0.142534 -1.444718 0.470961 0.672325 0.632938 0.777545 0.075158 0.436819 -0.922528 1.298829 0.068659 -0.778296 -0.455387 0.287849 -0.008657 -0.111109 -0.003878 0.758273 0.186738 -0.594579 0.944371 0.332387 -0.676700 0.748310 0.172146 -0.051738 0.135374 0.876474
shall 1.027346 -0.348417 -0.299728 0.094651 -0.046708 -0.933092 -0.616987 -0.330834 -0.254778 0.528237 0.133054 -0.366759 -0.197589 0.082939 0.941198 -0.003983 0.472961 -0.376741 0.224824 -0.224452 0.644826 -0.145522 0.323761 -0.850057 0.144363 0.313939 0.773076 0.679591 -0.134136 0.985458 0.029035 1.404518 -0.834395 -0.956857 -0.962369 0.169618 -0.265315 0.526265 0.067267 0.001087 -0.549902 -0.457865 -0.224276 -0.152514 0.361047 -0.045449 0.024479 1.135505 -0.785143 -0.723832
o -0.101897 -0.765139 -1.503806 -0.014808 -0.560226 -0.077956 -0.501508 -1.382783 -0.727716 1.171090 -0.116877 -0.913306 -0.446207 -0.345206 -0.737894 -0.095263 0.104168 0.668884 -0.123304 -0.729953 0.855840 -0.377440 0.280567 -0.260660 -0.039153 0.176697 0.008759 0.175015 0.154518 0.372437 0.854368 1.135026 0.163049 0.302123 -1.041627 -0.488474 -0.444741 -0.203269 0.154737 1.320869 0.344465 -0.139661 1.186032 -0.445138 -0.436558 0.413140 -1.246184 0.730246 0.271474 0.426100
we 0.504020 -0.913544 -0.462680 0.062949 -0.389691 -0.861786 -0.945394 -0.414952 0.314187 0.871504 0.289997 0.569266 -0.940230 0.005649 1.140195 0.886974 0.533696 -0.334796 0.520248 -0.000460 -0.355428 0.216584 -0.412123 -1.082324 -0.238135 -0.037663 0.421697 0.680546 0.712357 1.248942 -0.330032 1.385094 -0.309885 -0.826886 -0.888022 0.368928 -0.722168 -0.386758 0.271136 -0.256425 -0.461229 -0.309738 0.538719 -1.526354 -0.180553 -0.364790 0.453304 0.781288 -0.230976 -0.919293
our 1.594632 -0.071089 -1.387285 0.168027 -0.021260 -0.425688 -1.012836 1.302661 0.472837 0.675139 0.510209 0.994408 -0.821068 0.699975 1.028073 1.094445 0.519981 -0.848412 -0.104646 -0.265314 -0.135743 -0.359999 -0.271494 -0.918766 0.306216 0.633095 0.430299 -0.084141 1.075579 1.296362 -1.061879 0.270237 -0.805151 -0.207092 -1.744526 0.623739 -0.523607 -0.420406 -0.022582 0.114544 0.237724 -0.037323 0.453839 -0.146584 -0.479219 0.254370 0.424835 0.814453 0.310113 -0.147369
from 1.625677 -0.842695 0.023187 -0.384991 -0.645717 -0.590170 -0.434418 -0.436755 0.450178 0.308549 0.574608 0.835650 0.001658 0.592543 0.258413 0.459337 0.888311 -0.303453 0.423260 -1.230344 0.260687 -1.300718 0.357807 -1.256581 -0.271883 -0.089806 0.954635 0.644767 0.179022 0.602257 0.407587 0.754180 -0.329637 -0.017144 -0.602701 0.323403 -0.342009 0.629415 -0.220541 0.480637 -0.252172 0.050889 0.359979 0.512608 0.305850 0.172473 -0.135949 0.692439 0.264762 0.271838
now 0.419741 -1.158049 -0.742724 0.127778 -0.660991 0.431716 -0.393681 -0.751311 -0.346910 0.955753 -0.217451 -0.734874 -1.057054 -0.563381 0.455942 0.660643 0.014765 -0.663421 0.327838 -0.818338 -0.002631 -0.708880 0.198343 -0.444398 -0.064891 0.202632 0.105408 -0.221097 0.047294 0.286497 -0.071412 0.923219 -0.562904 -0.455668 -0.801642 -0.114909 -0.094429 -0.158077 -0.206715 0.450372 -0.391561 -0.063228 -0.151489 -0.032327 -0.604148 0.738609 0.997434 0.435770 -0.009859 0.119484
lord 0.314205 -0.736234 -0.456913 0.120272 -0.258759 0.001079 0.231006 0.425253 -0.532049 1.543539 0.200286 -0.730766 -0.287585 0.497608 0.405705 0.504277 0.989461 -0.873980 0.114523 -0.516266 0.598039 -1.600537 0.565137 -1.088026 -0.171557 -0.520759 0.219115 -0.230313 0.503177 0.890219 0.802236 1.117801 0.322672 -0.071697 -0.590987 -0.180343 -0.190057 0.006062 0.592251 -0.012926 0.114698 -0.140446 0.150890 -0.766308 -1.051422 0.606232 -0.660757 0.886659 -0.035854 0.223392
good 0.889660 -0.538397 -1.029114 -0.494279 -0.643002 0.675931 -0.271097 0.090250 -1.461243 1.214432 0.252225 -1.305059 -0.504915 -0.425277 0.683282 0.904652 0.092398 -0.629379 0.055866 -0.354987 0.793883 -0.976209 -0.229382 -0.545464 -0.679810 0.351212 0.329522 -0.011152 0.714642 0.870300 0.252808 1.131375 0.665121 -0.204116 -0.067076 0.485943 -0.297389 0.259971 -0.326181 -0.056933 0.057899 0.418992 0.073131 -1.016525 -0.914367 0.985359 -0.425426 0.432238 -1.093893 0.077669
which 1.147439 -0.810797 -0.590686 -0.171555 0.162985 -0.238920 -0.586005 -0.544699 0.108901 0.232627 0.172606 0.748846 -0.237013 -0.837222 0.165681 0.630292 -0.376982 -0.866487 0.350218 -0.905378 -0.342709 -0.546546 -0.043922 -0.521065 0.641340 0.026330 0.837625 0.284532 0.123549 0.767632 0.313079 0.295399 -0.973116 -0.773757 -1.256065 0.446566 -0.431327 -0.611317 -0.262833 -0.225112 -0.600322 0.058572 0.755927 0.125668 -0.051408 0.480582 -0.379407 0.205723 0.429142 0.421723
am 0.308683 -1.801947 -0.056169 -0.417403 0.930336 0.508365 0.241025 -0.555154 -0.562429 0.300356 -0.186018 -1.570665 -0.592572 -0.262986 0.267539 -0.138548 -0.912201 -1.353080 0.937897 -0.250933 0.308110 -0.151136 0.542650 -0.866858 -0.570243 0.589387 0.453993 -0.601075 -0.043086 0.400176 0.467514 0.366497 -1.173200 -1.019041 -0.653748 -1.171456 -0.844733 1.056064 0.497472 -0.053497 -0.428789 -0.421421 0.384657 -0.547126 -0.951763 0.641512 0.498032 -0.258121 -0.072892 -0.037783
would 0.505253 -0.945447 0.102600 -0.285404 0.363685 -0.186909 -0.012978 -0.895194 -0.390294 0.692389 0.381849 -0.228400 -0.126129 -0.417622 -0.551170 1.304978 -0.207170 0.290176 0.787846 -0.809403 -0.141770 -1.065215 0.686050 -0.625100 0.608678 0.026693 0.912711 0.104013 0.305314 0.118177 0.184978 1.479475 -0.216586 -1.269884 -0.534270 -0.050598 0.027230 0.176142 0.331235 -0.400227 0.116312 -0.448329 0.470263 -0.816249 0.302743 0.326756 -0.155693 0.539724 0.349559 0.504542
she 0.365138 -0.250291 0.522559 0.702613 0.284339 -0.182024 0.139673 -0.886555 0.127993 0.667634 0.132766 -1.076016 0.346099 -0.729328 0.675880 0.151259 0.642784 -0.882687 0.028323 -0.771760 -0.184930 -1.167409 0.282263 -0.289483 1.331807 0.390162 0.154168 0.243285 0.548192 0.647097 1.121882 1.508926 -0.042882 -0.533934 -1.364457 -0.854131 0.637919 -0.361881 -0.966468 0.243034 -1.088893 0.000219 0.169930 0.044378 -1.017257 -0.116009 0.460600 1.276857 0.440899 -0.259712
more 0.771760 0.096870 -0.653449 -0.592025 -0.182157 0.644758 0.133032 -1.088019 -0.101332 0.478523 -0.674907 -0.835502 -0.200075 1.141899 -0.112180 0.092470 -0.411265 -0.505222 0.850443 -0.935588 0.324190 -0.027175 -0.266729 -0.303174 0.082576 1.078146 0.203456 0.826692 0.317853 0.694649 -0.095571 0.466043 -0.890811 -1.366034 -0.911762 0.120260 -0.134527 0.651650 -0.181379 0.262346 -0.704473 -0.269565 0.534410 -0.814157 -0.787647 -0.260487 -0.515225 0.066977 -0.523080 0.013712
then 0.217673 -0.788634 -0.460135 -0.021182 -0.077161 -0.052333 -0.773272 -0.832088 0.105788 0.989977 0.143906 -0.562686 -0.419921 -0.388419 0.515036 0.441130 0.159606 0.057715 -0.016518 -0.203484 0.476943 -0.884394 0.134299 -0.056396 0.318647 0.242741 0.372168 0.501390 -0.003210 0.275016 0.377108 0.968919 -0.645786 -0.945324 -0.827666 -0.338132 -0.474390 0.278111 0.142868 0.225869 -0.250479 -0.453468 0.265596 -0.454154 -0.332630 0.035704 0.358668 1.021332 0.369091 0.772787
love 0.263190 -0.964470 -0.538285 -0.307049 0.372559 -0.370746 -0.248865 -0.415937 -0.306433 0.588046 0.687109 -0.946214 -0.140056 -0.446103 -0.118195 0.281716 0.195677 -0.799429 -0.244433 -1.088945 0.521324 -0.845200 -0.465713 -0.486438 0.335554 0.175069 0.732575 0.503948 0.570376 0.048507 0.217797 0.916598 -0.475586 -0.241278 -1.157032 -0.242864 -0.455017 0.330593 -0.133212 -0.149460 -0.086528 -0.277991 -0.031636 0.059322 -0.255717 0.120000 -0.730666 0.848759 -0.490639 0.062429
at 1.142966 -0.086188 -0.644989 -0.349774 0.344494 -0.096981 -0.098578 0.119018 0.097619 0.812989 0.211090 0.117614 -0.941931 -0.280602 0.459623 0.353511 0.411994 0.438778 0.031590 -0.254916 0.463300 -0.242130 0.652921 -0.634580 -0.561292 1.815867 0.741634 -0.004964 -0.257722 0.398223 -0.212386 1.117981 -0.594910 -0.766895 -0.032411 0.221050 -0.014203 1.156646 -0.452979 0.146773 -1.243102 0.087088 -0.093816 0.056714 -1.069419 -0.000162 -0.014093 1.294142 0.922895 1.025504
let 0.444699 -0.304600 -1.088795 -0.535511 -0.228856 -0.224233 -1.017885 -0.423440 0.039842 0.992640 0.209975 -0.619711 -0.336272 0.180618 -0.084839 -0.163611 0.036700 0.315207 0.321625 -0.348673 0.745342 -0.333567 -0.307128 -0.555262 -0.347737 0.573389 0.134295 0.405006 0.493224 0.405643 -0.337430 1.048234 -0.410055 -0.687960 -0.698817 0.244531 -0.830732 0.271774 0.168964 0.264482 0.007356 -0.487831 -0.086306 -0.592006 -0.075025 -0.083389 0.274215 1.187541 -0.381479 0.632116
or 0.754126 0.074896 -0.849269 -0.602138 0.087079 -0.030345 -1.303763 -0.723558 -0.250063 0.532583 -0.083329 0.089679 0.517991 -0.003057 0.395658 0.280328 0.186358 0.378517 0.565428 -0.188841 -0.121223 -0.870119 0.486294 -0.038378 -0.258749 0.222452 0.616811 1.110864 -0.568075 -0.208810 -0.028376 0.751948 -0.558188 -1.316698 -0.335153 0.563904 -0.305736 -0.184547 -0.767718 -0.341491 -0.803442 -0.490475 1.363159 -0.475352 -0.662663 -0.106123 -0.570251 0.391048 -0.561506 0.369751
they -0.003918 -1.135359 -0.759874 0.248404 0.043119 -0.525061 0.092410 -1.507842 0.337994 0.609102 -0.435005 0.533773 -0.922794 -0.181176 0.071342 0.824135 0.398158 0.124142 -0.285329 -1.087911 -0.123277 0.021109 0.704889 -0.808763 0.387066 0.374599 1.286042 0.080782 0.300211 -0.052900 0.317336 1.104239 -0.182453 -0.860287 -1.098082 0.326694 -0.870467 -0.437226 1.075418 -0.266191 -0.631838 -0.614353 -0.150112 -1.062675 -0.348753 -0.367011 0.389604 0.726170 0.295076 0.251138
come 0.093717 -0.681190 -0.707256 -0.419383 -0.765998 -0.689741 -0.496436 -0.138244 0.737194 1.077218 -0.182755 -0.825594 -1.078231 -0.496785 0.407640 0.048091 1.047351 0.185194 0.565276 -0.262518 1.061128 -0.128029 0.018432 -0.641974 -0.593818 1.134536 0.032075 0.699391 0.425588 1.288991 0.063795 1.038794 0.331467 -0.690989 -0.351138 0.020952 -0.593664 0.501145 0.555176 0.413759 0.059556 -0.106602 0.107893 -1.138060 0.105616 0.340424 0.337051 1.186779 -0.111294 0.030568
their 0.660377 -0.598608 -1.447236 -0.068707 -0.125867 0.062620 -0.659768 -0.963174 0.201722 -0.357871 0.317941 0.917169 -0.232819 0.270823 0.465588 0.483827 0.176159 -0.079035 -0.546906 -0.730761 -0.263025 -0.405516 1.260865 -0.483156 0.228420 1.101194 0.924462 -0.097947 0.550530 0.395458 -0.981664 0.709109 -0.341669 -0.268549 -1.800604 1.035422 -0.899465 -0.334175 0.428978 -0.355900 0.552733 -0.333759 -0.522823 0.027877 -0.453635 0.323907 0.275690 0.005887 0.209985 0.787846
here 0.386508 -0.577709 -0.574872 0.413439 -0.672157 0.201685 0.077477 -1.294239 0.162967 0.919181 -0.580160 -0.286824 -0.900037 -0.407987 0.827008 0.080408 0.261893 -0.293863 0.478200 -0.288682 0.306528 -0.994153 0.431424 -1.723173 -0.184066 0.387094 0.026813 0.580406 0.132373 1.185832 -0.298779 0.467970 -0.119057 -0.121422 -0.328531 0.373383 0.303122 0.545036 0.293722 0.275673 -0.390310 -0.155646 0.749905 -0.468061 -0.456781 0.812611 0.478804 -0.175885 0.424625 0.764191
was 1.552445 -0.488227 0.404809 -0.303971 -0.294618 -0.306160 0.391393 -0.239028 0.023387 0.591710 0.090176 -0.761769 -0.378211 -0.447382 0.116399 0.436187 -0.154234 -0.431244 0.131086 -0.702660 -0.216103 -0.646634 0.419566 -0.305250 0.394058 0.880712 0.464533 -0.075192 -0.455183 0.701713 1.177296 0.859255 -0.449419 -0.587165 -0.630221 -0.346946 0.197742 0.318288 -0.217869 0.003555 -0.639630 -0.006794 0.895810 -0.121716 -0.682445 0.618142 -0.620119 0.110937 1.015288 0.873864
when 0.538527 -0.600673 -0.218565 -0.267876 -0.356429 -0.378435 0.060359 -1.201171 0.231861 0.687241 -0.318066 -0.364668 -0.257397 -0.349786 0.220792 0.074242 0.133904 -0.046663 0.077560 -0.845172 -0.022464 -0.187238 0.189008 -0.210814 0.155102 0.703406 0.562486 0.525826 0.025709 0.591461 1.075292 1.066717 -0.368808 -0.661927 -1.041364 -0.030003 0.028291 -0.189094 -0.173520 0.131125 -0.944967 -0.444109 0.375331 -0.041563 -0.376983 -0.206623 -0.390268 0.692422 0.475075 -0.139112
them 0.134011 -0.886847 -0.184069 0.045246 -0.054314 -0.460306 -0.612859 -1.347210 0.198737 0.247518 0.363953 0.195892 -0.198592 -0.220161 -0.102178 0.235122 -0.088512 0.195346 0.602636 -0.476894 0.555880 -0.009120 0.450105 -0.880256 -0.090741 0.300114 1.163004 -0.517065 0.694997 0.059922 -0.697654 1.282280 -0.128549 -0.894893 -0.575338 0.252877 -1.006605 0.294776 1.089962 -0.092679 -0.012374 -0.388629 -0.630112 -0.215505 -0.445008 0.354270 0.666023 0.731243 -0.164837 0.847617
than 0.781138 0.004956 -0.564897 -0.713371 0.150506 0.388689 -0.061958 -1.033506 -0.801534 0.413739 -1.177220 -0.548192 -0.031175 1.034342 -0.505797 0.462014 -0.839356 -0.728310 0.738527 -1.193153 0.029123 -0.060982 -0.615050 0.062239 0.335535 0.872667 0.819780 1.033185 0.122990 0.571081 0.148668 -0.101294 -1.064554 -1.420979 -1.088278 0.397368 0.269257 0.089786 0.135151 0.163364 -0.352906 -0.102447 0.566167 -0.477642 -0.712013 -0.236045 -0.263796 -0.375061 -0.342798 -0.090337
can 0.608033 -0.179666 -0.546767 -0.177070 0.485010 -0.264127 -0.209821 -0.734573 -0.188640 0.645137 0.120508 -0.969634 -0.620965 0.144777 0.007667 0.902349 -0.503570 -0.548604 0.381693 -0.574598 0.578544 -0.426445 -0.166639 -0.933289 0.184487 -0.100796 0.433433 0.779124 0.389104 0.076786 0.173883 0.226158 -0.531292 -0.845140 -0.977407 0.699524 -0.036380 0.535475 0.125902 -0.785871 -0.289408 -0.443814 -0.338442 -0.770512 -0.042299 -0.094494 0.094516 0.808859 -0.242279 0.399873
how 0.080173 -0.953088 -0.703716 0.301159 -1.144217 0.579917 -0.160620 -1.132909 -0.780400 0.615464 0.462088 -1.094038 -1.108330 0.310166 0.038435 0.408938 0.280025 -0.933069 0.728185 -0.824131 -0.650336 -1.207584 0.165857 -0.845724 0.374518 -0.592556 -0.165757 -0.468454 0.245894 0.032565 0.643846 1.107131 -0.116589 -0.747305 -0.414788 -0.746051 0.065665 0.346921 -0.391580 0.399757 -0.232457 -0.201996 -0.196405 -0.056712 -0.714747 0.345012 0.235601 0.719599 -0.233421 -0.407540
there 0.786942 -0.396388 -0.394068 0.019406 -0.150668 -0.024634 0.445289 -0.940952 0.213844 1.168089 -0.524211 -1.026438 -0.387517 0.005170 0.593412 -0.253504 0.106544 0.304209 -0.075306 0.028355 0.230363 -0.695618 0.425596 -1.374579 -0.208127 0.247530 0.412581 0.859510 0.299270 0.324428 -0.083023 0.334357 -0.324051 -0.373368 -0.476919 0.719155 -0.366151 0.122219 0.359944 -0.353513 -0.902693 -0.650613 0.442193 -1.128130 -0.719754 0.536235 0.134820 0.363223 0.171506 0.914911
well 0.178487 -1.516411 0.171211 0.073250 0.041257 0.158568 -0.093099 -0.302745 0.157350 1.418457 0.468230 -1.487585 -0.422009 -0.504096 0.177283 0.487951 -0.194413 -0.205506 0.512416 -0.313717 -0.491951 -0.234664 0.050331 -0.789216 -0.636936 -0.426099 0.478974 0.013994 0.642057 0.474707 0.501013 1.338051 -0.348862 -0.424664 -0.315398 -0.078911 -0.300161 0.582735 0.262439 -0.196153 -0.756352 -0.963503 0.414484 -0.428520 -0.644222 0.152348 0.587579 0.236475 -0.026092 -0.328506
hath 0.958322 -0.116163 0.113673 -0.422971 -0.638952 0.356223 0.063814 -0.617156 -0.074583 0.244900 0.630245 -0.368711 0.030044 -0.187752 0.893451 -0.719449 0.417844 -0.834293 0.943573 -1.072995 -0.375790 -0.761794 -1.073658 -0.745258 1.194804 0.481820 0.409775 -0.446429 0.572218 0.447718 -0.274634 1.092878 -0.211717 -0.550439 -0.271502 -1.046813 -0.313078 -0.399368 0.389006 0.682905 -0.360422 0.088799 0.896061 0.426617 -0.666524 0.660505 -0.245781 -0.257072 -0.079478 0.628774
sir -0.317388 -1.016502 -0.451171 -0.426658 -0.105638 0.029798 -0.454442 -0.217079 -0.177417 1.326177 0.236604 -1.527509 -0.089620 -0.833234 0.333582 1.151578 -0.595650 -0.573308 0.560078 -0.734567 0.182301 -0.563169 0.137451 -0.328874 -0.639908 -0.110567 -0.748589 -0.124561 0.679978 1.543734 0.613943 1.199296 -0.003945 -0.550872 -0.350488 0.182975 0.213663 0.302805 0.191123 0.137856 0.770159 -0.375037 0.375689 -0.235912 -1.040019 -0.027399 0.733571 -0.261396 -0.114929 0.125194
upon -0.192170 -0.609045 -0.326696 -0.465403 -0.215326 0.192335 -0.720214 -0.823625 -0.403389 0.871598 0.283002 -0.147881 -0.082258 -0.454049 -0.240375 -0.112636 0.465961 0.386073 0.536447 -0.203976 -0.663355 -0.380902 -0.269517 -1.295731 0.577149 0.636428 1.282979 0.686652 0.352298 0.197955 -0.798940 1.033644 -0.198649 -0.589351 -0.471247 0.406049 -0.020281 0.063123 0.328666 0.159704 0.245160 -0.487663 0.317698 0.378638 -0.184197 0.874978 -0.266844 0.028640 0.014828 0.540811
one 1.069302 -0.787796 0.004375 -0.448165 0.307605 0.282798 0.248883 -0.489435 0.335974 0.245926 0.180042 0.112964 -0.917364 -0.601965 0.093265 -0.531979 0.356611 -0.196135 0.231167 0.878282 0.950964 -1.060546 0.499029 -1.098320 0.376705 0.671897 0.338404 -0.293907 0.834078 -0.052357 -0.171729 1.274247 -0.614936 -1.052541 -0.063803 0.497963 0.148148 0.087696 -0.699485 0.299458 -0.549493 -0.022170 1.167119 -0.113701 -1.354316 0.454791 -0.143342 0.379879 -0.129224 -0.102536
go 0.826870 -0.607931 -0.221149 -0.393289 -0.669018 -0.275921 -0.705329 0.177817 0.291689 1.074339 -0.042110 -1.047590 -0.087238 0.345076 0.040013 0.024962 0.207742 0.083051 0.596786 0.361641 1.056322 -0.524998 -0.715429 -0.327345 -0.694771 0.418895 0.112031 0.236606 0.674036 0.412634 -0.356117 1.158982 -0.407243 -0.983892 0.040824 0.376436 -0.827707 0.530260 0.537079 0.433665 0.168787 -0.181191 -0.063087 -0.491626 0.159029 0.014655 1.143296 1.380551 -0.680861 0.036881
like 0.565359 -0.694054 -0.627268 -0.215699 0.028714 -0.145841 0.195190 -0.407053 0.367059 0.356327 0.315761 -0.475099 -0.417576 -0.246228 0.064227 0.071400 -0.040184 0.193329 -0.269644 0.065975 -0.320533 -0.696785 0.447326 -0.762888 0.348604 1.177667 0.592742 0.443166 0.325076 0.019995 0.120609 1.017809 -0.668973 -0.549911 -0.100905 0.411768 -0.411404 0.552563 -0.329090 -0.191795 0.125084 -0.383107 0.207326 0.060122 -0.624154 0.369675 -0.239194 0.443091 0.407274 -0.255717
yet 0.218936 -0.908371 0.013456 -0.213875 0.292798 0.028633 0.308379 -0.364544 0.063928 0.497686 0.056911 -0.673615 -0.632498 0.004657 -0.020996 0.007984 -0.125316 -0.514780 0.541361 -0.561565 0.145358 -0.380285 -0.378756 -0.832433 0.205675 0.491789 0.040845 0.454027 0.184455 0.580744 0.151625 1.107014 -0.745272 -0.953339 -0.550641 -0.082398 -0.117741 0.424404 0.254545 -0.386574 -0.662306 -0.096707 0.333844 -0.826748 -0.425746 -0.023303 0.126412 0.423148 -0.219934 0.025062
did 0.447304 -0.366226 0.135493 -0.171625 -0.012694 -1.005960 0.572050 -0.130412 0.050939 0.273888 -0.155579 -0.167067 -0.319054 -0.656087 -0.736338 0.870146 0.054132 -0.285312 0.004312 -1.068488 0.184365 -0.418876 0.326346 -1.002295 0.419038 0.783015 0.590654 0.220427 0.222104 0.843731 0.732099 1.498265 -0.160122 -0.698456 -0.534281 0.361963 0.151429 0.412358 0.099494 -0.440527 -0.508821 0.010719 0.040655 0.012362 -0.015674 0.117570 -0.543949 0.848094 0.139958 0.867531
man 0.981535 -0.577049 -0.005968 -0.748883 -0.757817 0.658585 0.507900 -0.661418 -0.700224 0.490653 0.238469 -1.036232 -0.602116 0.073607 -0.115439 -0.006191 -0.526974 -0.735580 0.050749 -0.004168 0.410211 -0.941434 -0.356783 -0.542798 0.357493 0.184501 0.163200 0.126879 0.366331 0.138707 0.645723 1.166791 -0.772733 -0.833819 -0.287381 0.555643 0.043263 0.169863 -0.311125 0.178934 -0.290918 0.396457 1.274349 -0.344595 -1.355320 0.368218 -0.092489 0.118604 -0.202930 -0.025385
make 0.975317 -0.203176 -1.145517 -0.182788 0.070436 -0.039203 -0.158310 -0.601700 -0.161547 0.520795 0.092144 -0.280887 -0.157315 0.112446 0.053615 0.506970 -0.415402 -0.186429 -0.163258 -0.484827 0.169014 -0.544456 -0.209839 -0.445667 0.522212 0.340615 0.723329 0.478160 0.618747 0.066879 -0.244156 1.053685 -0.587104 -0.373574 -0.723936 0.798315 -0.640412 0.183611 -0.136057 -0.577489 0.480134 -0.394219 0.139876 -0.430903 0.171134 0.117532 0.051789 0.503243 -0.398933 -0.015068
say 0.539548 -0.707864 -0.418042 0.230701 -0.074440 -0.158326 -0.279999 -0.795189 -0.076700 0.759212 0.003845 -0.405329 -0.571467 0.003674 0.358262 0.711983 0.073384 -0.480544 0.294114 -0.781790 0.362019 -0.906746 0.431162 -0.079408 0.253058 0.071850 0.093338 0.500871 -0.086503 0.363900 0.592997 0.880398 -0.441919 -0.993094 -0.944582 -0.149786 -0.046339 -0.099903 0.251242 -0.423493 -0.437375 -0.173137 0.124520 -0.879933 -0.397532 -0.127072 0.241848 0.813326 0.249961 0.032912
may 0.666821 -0.606601 -0.169594 -0.292031 0.280256 -0.260414 -0.554592 -0.334452 -0.680530 0.667809 0.533742 -0.287596 -0.278125 0.078065 0.308895 0.534394 0.261549 -0.226547 0.115756 -0.136011 -0.093951 -0.513285 0.397419 -0.646702 -0.195132 0.341345 0.870189 -0.081325 0.536164 0.547234 0.200792 0.715370 -0.245058 -0.972703 -0.813462 0.112848 -0.031300 0.230176 -0.466051 -0.276718 -0.419482 -0.583240 -0.368280 -0.304563 -0.030800 -0.397646 0.197276 0.826798 -0.200125 -0.753897
know 0.430719 -1.251415 -0.650530 -0.369755 0.150514 -0.138179 -0.065901 -0.641809 -0.244350 0.896095 0.086171 -0.213487 -0.773158 0.103267 0.404419 0.405998 0.001558 -0.666296 0.475348 -0.394485 0.240145 -0.743784 0.174376 -0.899259 0.042341 -0.242577 -0.099330 0.062815 0.347045 0.804416 0.226315 0.940125 -0.345227 -0.833509 -1.066625 -0.107870 -0.090636 0.054601 0.231356 -0.309938 -0.555886 -0.205532 0.091263 -0.596597 -0.400527 -0.211525 -0.074148 0.580000 0.025880 -0.070417
an 0.710324 -0.268487 -0.619491 -0.670738 0.831778 -0.060188 0.580551 0.073054 0.012093 0.240460 0.772207 -1.522273 -0.292539 -0.311321 0.009313 -0.200739 -0.125759 -0.157774 -0.359685 0.938295 -0.288284 -0.492043 0.080577 -0.507741 0.677741 0.540846 0.005326 1.054993 0.059977 0.007821 -0.141907 1.385995 -0.797005 -0.363143 0.510155 0.504380 -0.310684 0.356593 -1.043136 -1.534560 0.273860 0.165171 0.807134 0.110165 -1.053269 0.733124 -0.785270 0.460174 0.968408 -0.245998
us 0.685594 -0.435879 -0.641268 -0.283490 -0.484144 -0.638923 -0.555438 -0.196068 0.447596 0.917774 0.441367 0.499768 -0.403605 -0.058983 0.217781 0.341226 0.067722 0.263234 0.440022 -0.246084 0.200114 -0.300476 -0.573751 -0.614737 -0.082931 0.073201 0.563340 -0.103334 1.164837 0.601876 -0.623992 1.643536 -0.151421 -0.468265 -0.479428 0.826582 -0.983454 -0.018963 0.061454 -0.019845 -0.092197 -0.156580 -0.194573 -0.736862 0.140559 -0.354521 0.753391 1.217241 -0.696580 0.336376
such 1.020981 -0.055888 -0.586160 -0.289468 0.286690 0.190145 0.806305 -0.656960 0.144223 0.234585 -0.129662 -0.401340 -0.355648 -0.134122 -0.063188 0.563626 0.433557 -0.239679 -0.306581 -0.285073 -0.113915 -0.699688 0.499073 -1.042497 0.714788 0.428341 0.692256 0.709225 0.707049 -0.293151 -0.245486 0.905170 -0.149377 -0.414041 -0.589889 0.753118 -0.285262 0.258188 -0.471156 0.039718 -0.036157 -0.544761 0.370395 -0.386220 -0.328004 0.136013 -1.212427 0.324564 -0.343744 -0.008386
were 0.535898 -0.979036 -0.304631 -0.150952 0.315021 -0.154703 0.359968 -0.344458 0.198739 1.040658 -0.149188 -0.189774 -0.272440 -0.674334 -0.152409 0.982536 -0.175001 0.231269 0.082914 -1.033304 -0.741002 -0.752759 0.763940 0.263608 0.497426 0.198349 0.547023 0.329792 0.031535 0.073775 0.301117 0.630272 -0.664951 -0.646908 -0.544570 0.127100 -0.437589 -0.159029 -0.221448 -0.287016 -0.114218 -0.346215 0.831842 -0.847610 -0.945365 0.093952 -0.120921 -0.191020 0.616451 0.450192
should 0.407968 -0.697586 -0.378677 -0.021046 0.400762 -0.336340 -0.373174 -0.927395 -0.095326 0.532352 0.333096 -0.365230 -0.089633 -0.152253 0.081599 0.734700 -0.132813 -0.081660 0.356928 -0.208439 -0.207993 -0.681675 0.636675 -0.686259 0.470556 -0.455822 0.408940 0.070998 0.205477 0.157325 0.129154 0.972789 -0.292548 -1.125908 -0.710916 -0.187729 -0.175757 0.095415 -0.014503 -0.470776 -0.467820 -0.508205 0.374930 -0.423780 -0.030359 -0.136601 -0.090925 0.669365 0.130647 0.354855
must 0.418366 -0.439539 -0.208560 0.385024 0.544540 -0.303253 -1.192713 -0.113187 -0.109851 0.791607 0.199603 -0.458969 0.134082 -0.565284 0.583638 0.549813 0.240632 -0.294807 -0.146626 0.245036 0.532187 -0.204092 0.225928 -0.548673 -0.615669 -0.033364 0.728686 0.774904 0.028077 0.623703 0.071986 0.359247 -0.531294 -1.251489 -0.978420 0.505158 -0.554045 0.069876 0.639007 -0.729514 -0.570465 -0.745992 0.062969 -0.743495 0.008403 0.075782 0.400431 0.856912 -0.260460 -0.209790
why -0.189760 -0.853427 -0.595508 0.375221 -0.221846 0.454717 -0.572424 -1.589214 0.092602 0.776612 0.126788 -0.552559 -0.729036 -0.036319 0.233792 0.550996 0.200308 -0.453523 -0.003216 -0.234309 0.458429 -0.989538 -0.200315 -0.035195 0.123167 -0.606963 -0.371243 0.499320 0.130238 -0.061142 0.572560 0.911469 0.042055 -0.647145 -0.409213 -0.199011 0.006050 -0.380004 0.131759 -0.671369 -0.062911 -0.184493 -0.031654 -0.821791 -1.014217 -0.247395 0.090572 0.649007 0.320285 0.643488
who 0.752662 -0.245231 0.034995 0.364175 -0.878523 -0.287816 0.357361 -0.926266 0.233914 0.666790 0.436710 -0.302106 -0.609902 -0.987373 0.865279 0.267440 -0.366318 -0.949657 -0.048152 -0.665395 0.565677 -1.570173 0.471356 -0.958396 0.266419 -0.506431 0.279472 -0.344206 0.202549 0.423121 0.558957 -0.025153 -0.203179 -0.110264 -0.571941 0.172953 0.188180 0.185019 0.451606 -0.276280 -0.067459 -0.028395 0.019308 -0.327365 -0.716840 0.555157 0.579877 -0.005848 0.482541 1.450726
some 1.095403 -0.261831 -0.130999 -0.396144 -0.022008 0.674262 -0.147540 -0.927354 -0.331918 0.634396 0.018264 -0.005598 0.413179 -0.449566 0.346786 -0.515452 -0.314739 0.221132 0.536566 0.551993 0.623873 -0.713261 -0.146837 -0.633152 0.160578 -0.073098 0.641095 -0.150964 0.901847 0.406234 -0.485851 0.747258 0.122933 -0.609059 -0.327967 0.860577 -0.801961 -0.177293 0.246329 0.461673 -0.632899 0.141729 0.272300 -0.436181 -0.571744 0.377263 -0.374392 0.082342 -0.712666 0.254851
give 0.439337 -0.408723 -0.763433 -0.092210 -0.261088 -0.044528 -0.607099 -0.504881 -0.439072 0.631139 0.141089 -0.597976 -0.011210 -0.245408 -0.071564 0.035629 -0.232263 -0.392707 0.328446 -0.385628 1.085682 -0.346670 -0.079988 -0.652345 -0.107236 0.385432 0.766690 0.420899 0.138010 0.850777 -0.147166 0.726455 -0.492673 -0.476386 -0.737686 0.676401 -0.305938 0.696265 0.048981 -0.356097 0.089296 0.014468 -0.134167 0.154607 0.198440 0.712245 0.011299 0.392702 -0.392384 0.688553
had 0.706481 -0.168965 0.667302 0.012572 -0.011654 0.049321 -0.133363 -0.470025 -0.262491 0.344440 0.403053 -0.086488 0.158630 0.286965 0.107878 0.923205 0.040579 -0.283646 0.676243 -1.059267 -0.819688 -0.055445 0.345615 -0.370855 0.798559 0.399479 1.002802 0.016599 0.129749 0.383095 -0.060021 1.312017 -0.452335 -1.234163 -0.738410 -0.732748 -0.093762 -0.629110 1.046934 0.448011 -0.130325 -0.221947 1.325942 -1.012985 -0.683086 0.452376 -0.575845 -0.252253 0.509525 0.147941
where 0.280245 -0.723643 -0.462365 -0.098529 -0.426253 -0.152605 -0.139853 -0.827321 0.102244 0.791304 -0.126288 -0.093077 -0.507615 -0.413607 0.432351 -0.159073 0.288708 -0.003980 -0.121437 -0.441119 -0.093380 -0.864282 -0.021412 -0.651757 -0.298782 0.349488 -0.059395 0.107915 0.250310 0.215377 -0.127322 0.739650 -0.545232 -0.136469 -0.421721 0.062234 -0.088274 -0.198684 0.011188 0.306010 -1.052303 -0.220807 0.886060 -0.219421 -0.692204 0.415119 0.364216 0.391489 0.470011 -0.046201
these 0.691452 -0.406960 -0.649480 0.088962 -0.068030 0.329665 -0.824256 -0.569371 -0.022131 -0.086779 0.163795 0.561266 -0.501583 -0.130378 0.175229 0.737421 0.247880 -0.429269 -0.072357 -0.735825 0.033210 0.307850 0.880933 -0.522522 -0.184556 0.278450 0.950081 -0.002051 0.545376 0.103153 -0.066491 0.574412 -0.229363 -0.640191 -0.619511 0.457426 -0.747980 -0.551451 -0.461580 0.281807 0.564915 -0.195530 -0.307837 -0.419743 -0.782680 0.050846 -0.167866 0.170920 -0.269481 0.366242
speak 0.103447 -1.153950 -0.337126 -0.136405 -0.148436 0.552291 -0.466772 -0.469876 -0.013706 0.784782 0.371137 -0.304083 -0.428643 0.099088 -0.280375 1.083940 -0.089951 -0.333178 0.710207 -0.613470 0.667620 -0.704139 -0.042529 -0.459286 -0.044688 0.006317 -0.152967 0.408606 0.444658 0.304793 0.832684 0.758862 -0.352095 -0.800691 -0.518900 0.132649 -0.419182 0.523174 -0.325994 -0.100244 0.048137 0.102332 -0.154418 -0.779303 0.147186 -0.072400 -0.204856 1.149009 -0.026022 -0.249843
take 0.289818 -0.754432 -0.143528 -0.247154 0.058364 -0.340276 -0.986839 -0.348962 -0.247534 0.431253 0.425947 -0.455137 -0.050310 0.039533 0.261536 0.087105 0.502589 -0.322085 0.109578 -0.182486 1.008552 -0.500913 -0.068710 -0.739811 -0.014069 0.086434 0.436344 1.211694 0.178547 1.279663 -0.175429 0.161560 -0.571611 -0.373440 -0.686295 0.593441 -0.209927 0.419763 -0.078686 -0.331932 -0.066553 0.054738 0.255467 -0.158836 0.298277 0.566097 -0.022846 0.301892 -0.107889 0.591551
father 0.775268 -0.614844 -0.235749 -0.351093 -0.259109 -0.347599 -0.414341 0.201805 -0.373567 0.707336 0.251360 -0.642217 0.077940 -0.179478 0.008331 0.516298 0.096076 -0.634085 0.181671 -0.664785 0.378010 -1.119244 -0.060366 -0.435723 0.104178 0.447669 0.116233 0.069335 0.247664 1.065618 0.276369 0.442099 -0.152819 -0.582836 -1.052009 -0.186078 0.149312 -0.084889 0.600216 0.258583 0.554304 0.049869 0.687647 0.060562 -0.430438 0.707635 -0.146629 0.149939 0.246162 0.345743
see 0.942367 -0.663574 -0.763344 0.203684 -0.567302 -0.171451 -0.167634 -0.666999 -0.054366 0.316076 -0.235108 -0.313045 -0.953511 0.393491 0.286340 0.184057 -0.023814 -0.379982 0.485992 -0.393800 0.366931 -0.132553 0.321977 -0.548456 -0.053552 0.661122 -0.372480 -0.036687 -0.106802 0.541404 -0.056896 1.112553 -0.504839 -0.925395 -0.877064 -0.373496 -0.075375 0.177422 0.253108 0.288221 -0.244460 -0.040197 0.141390 -0.462685 -0.198887 0.115422 0.365428 1.129959 0.076238 -0.844369
king 1.165250 -0.434997 -0.148526 -0.153540 -0.591935 -0.459989 -0.196544 0.097632 0.066596 0.993022 0.741305 -0.138242 -0.431557 -0.193836 1.088897 0.314765 -0.173153 -0.862623 0.007837 -0.178218 0.348066 -0.934423 -0.022501 0.014621 0.566230 0.268405 0.564955 -0.620908 0.138035 0.859217 0.860702 0.298988 -0.424800 -0.755262 -0.832357 -0.413979 0.322961 -0.098082 0.683820 -0.189395 0.712348 0.044242 0.132299 -0.032736 -0.255879 0.011885 0.194621 0.442487 0.967060 0.410767
enter 0.242217 -0.247353 -0.662891 0.386559 -1.253622 0.748965 0.290905 -0.434195 0.107833 1.419156 -0.487839 -0.277350 -0.735936 -0.086298 1.192161 0.016183 0.304403 -0.100484 -0.005617 0.207156 1.076276 -1.261302 0.231250 -0.364516 -0.089522 0.526407 0.021647 -0.123337 0.499883 0.273448 0.344058 0.292610 0.151929 0.124427 0.020352 0.003173 0.196441 0.164237 1.049478 0.653862 0.493930 -0.038901 -0.158727 -0.528500 -0.960760 0.091404 1.282837 0.478766 0.583615 0.136456
out 0.351044 -0.056602 -0.559750 -0.179176 -0.520910 0.193052 -0.357954 -0.870249 0.163430 0.210522 0.230853 -0.231638 -0.490319 0.350174 -0.325228 -0.388174 0.125625 0.124992 0.543332 -0.278543 0.641679 -0.417635 0.142911 -0.805317 0.041526 0.176197 0.516264 0.330602 -0.082935 0.291275 -0.157748 1.164324 -0.478641 -0.272671 -0.185300 0.389753 -0.550178 0.843442 0.318253 0.083941 -0.003437 0.058913 0.335842 -0.270585 0.264091 0.337337 -0.089083 0.417659 0.135563 0.865454
nor 1.228192 0.406143 -0.010619 -0.607959 0.763576 -0.095360 0.300953 -0.202462 -0.285906 -0.259096 -0.624180 -0.857263 0.107191 1.079458 -0.103426 0.013822 -0.132138 -0.971605 0.258242 -0.482966 0.475935 -0.467356 -0.014726 -1.523011 0.294816 0.272685 -0.340370 1.162836 -0.293070 0.861257 -0.188429 0.465995 -0.598826 -0.608720 -0.940400 0.525877 0.212467 0.454135 0.237372 0.013851 -0.332021 -0.038065 0.832295 -0.299580 -0.137522 0.078993 -0.785502 0.126775 -0.548055 0.852902
mine 0.447773 -0.671260 -1.081185 -0.165090 0.874483 0.933691 -0.191666 -0.518328 -0.191364 0.110883 0.283216 -0.003181 0.483670 -0.293342 0.258827 0.112046 -0.212799 -0.210357 0.700683 -1.110872 -0.233778 -1.385698 1.061595 -0.218752 0.392522 -0.251273 0.107438 1.245896 -0.820097 -0.018000 -0.481671 1.074444 -0.982256 -0.544917 -0.639073 0.424823 -0.749327 0.405924 0.071798 -0.562126 0.314626 0.195913 -0.283241 1.098660 -0.776971 0.718426 0.070856 -0.147128 0.175730 0.840262
most 0.435696 -1.292187 -0.733979 -0.534771 -0.090792 0.366423 0.254271 -0.755268 -0.113132 0.770015 0.111406 -0.564746 -0.389123 -0.970003 -0.043441 -0.195787 -0.617154 0.091568 -0.109214 -0.219320 0.192893 -0.500369 -0.153127 -0.186819 -0.196780 0.108117 0.152900 -0.340678 0.924190 0.569406 0.926711 0.132976 -0.266540 0.258263 -0.367508 -0.006166 -0.265959 -0.102937 -0.489747 0.663004 0.040322 -0.279156 1.097774 -0.227442 0.036932 0.277612 -0.716058 -0.262111 -0.064752 -0.417598
up -0.104993 -0.466550 -0.360898 0.459421 -0.326406 -0.356933 -0.990412 -1.207913 0.339028 -0.022561 0.380456 0.028079 0.117243 -0.081038 0.297826 -0.286507 0.512895 0.178350 0.090905 -0.345944 0.147772 -0.565706 0.282926 -1.545286 0.251926 0.524185 1.156400 0.801635 0.306494 1.012040 -0.152762 0.264732 0.047088 0.067077 -0.427281 0.225783 -0.366214 0.764419 0.345092 -0.159090 0.403844 -0.359989 -0.102522 0.405180 -0.223913 0.829107 0.413523 -0.067699 0.590891 1.048784
too 0.056526 -1.310257 -0.961473 -0.200002 0.082146 0.070205 0.434440 -0.680881 0.729823 0.327656 0.877302 -1.025135 -0.427840 0.080076 0.269585 -0.210054 -0.395704 -0.448489 0.614577 -0.937975 -0.697333 -0.130082 -0.472883 -0.015353 0.159737 0.902911 -0.578891 0.040334 0.299572 0.113810 0.539369 0.328883 -0.346726 0.366075 -0.851260 -1.321381 -1.362447 0.763952 -0.229490 -0.461581 -0.208792 -0.113223 -0.041953 -0.663813 -0.799542 0.492459 -0.822178 0.432201 0.335310 -0.311824
never 0.732336 -0.093149 0.660787 -0.020922 0.012322 -0.575670 0.490233 -0.110222 -0.477291 -0.274964 -0.246050 -0.509729 -0.028531 0.170431 -0.708374 0.424130 0.059053 -0.530047 0.234487 -0.883901 0.437758 0.270112 0.625782 -1.133004 0.430243 0.462015 0.253958 0.562469 -0.645620 0.593375 1.150164 1.383563 -0.411059 -1.315017 -0.841947 -0.003478 -0.073071 0.489063 0.412920 0.030278 -1.043048 0.038118 0.313346 -1.033461 -0.199069 -0.021827 -0.496227 0.815999 -0.556579 0.165325
heart 0.399776 -1.080666 -0.341188 -0.601993 0.165374 -0.206275 -0.038189 -0.235001 0.046984 0.478199 0.243161 -0.322724 -0.268515 -0.388790 -0.391029 0.164323 0.675915 -0.409433 0.078230 -0.978305 0.649644 -1.079782 0.221566 -0.342729 0.334708 0.447733 0.762721 0.608572 0.089445 -0.168036 0.394258 0.068719 -0.596441 -0.533426 -0.273509 -0.233354 -0.501254 0.660236 -0.305225 0.133320 -0.388656 -0.180364 0.519010 0.363031 -0.542336 0.673782 -0.795039 0.495258 0.134919 -0.234302
much 0.427986 -0.823310 -0.695087 -0.708796 -0.062809 0.256482 0.230937 -0.126689 -0.053239 0.378559 0.495878 -0.721648 -0.307956 0.633533 0.079395 0.142893 -0.336528 -1.105489 0.812754 -1.121261 -0.615453 -0.289881 -1.013536 -0.350842 0.351448 0.160525 -0.095236 0.110088 0.627754 0.569130 -0.174036 0.128116 -0.408837 -0.794888 -0.911612 -0.530414 -0.697204 0.478080 -0.268539 -0.359169 0.163132 -0.273187 -0.219922 -0.243314 -0.613114 0.235302 -0.701786 -0.208560 -0.511470 -0.077567
doth 0.513820 -0.506174 -0.496010 -0.337560 0.390773 -0.539157 0.242260 -0.273613 0.183285 0.571346 0.523626 0.168353 -0.352527 -0.191862 -0.078636 -0.041175 0.128480 -0.299397 0.341688 -0.183034 0.329125 -0.920132 -0.271603 -0.985457 0.864908 -0.387738 0.165211 0.259556 0.303032 0.504462 -0.008915 0.516505 -0.408132 -0.124713 -0.773707 0.505191 0.022989 0.280640 -0.872009 -0.843423 -0.401996 -0.158082 -0.169802 0.358369 0.570121 0.067441 -0.104593 0.573158 0.051188 0.529243
tell 0.517570 -0.708292 -0.587298 0.084596 -0.360223 0.031703 -0.664090 -0.363029 0.057617 0.725148 0.520180 -0.798619 -0.597362 -0.112966 -0.086943 0.560107 0.054377 -0.449269 0.221772 -0.414072 0.742419 -0.391793 0.112441 -0.368066 -0.327704 -0.090790 0.142858 0.075008 0.251617 0.093793 0.397049 0.515516 -0.075960 -0.172017 -0.654471 -0.069485 -0.264568 0.333970 0.193972 0.017534 0.223065 -0.076019 -0.001713 -0.003973 -0.441188 0.264874 -0.009964 1.069567 0.082530 0.401091
hear 0.583752 -0.627233 -0.451762 -0.162110 -0.667398 -0.018092 -0.738532 -0.497652 -0.156830 0.942747 0.303953 0.028735 -0.199784 0.044944 -0.090903 0.813647 -0.288907 -0.193447 0.564297 -0.735478 0.601134 -0.395843 0.099773 -0.415145 -0.429010 -0.148242 -0.171991 0.403162 0.027948 0.592224 0.383397 0.805026 -0.318858 -1.011739 -0.824537 0.201485 -0.200786 0.253184 0.085632 0.214679 0.145340 -0.161831 -0.096410 -0.212450 0.057254 -0.314733 -0.326401 1.066164 -0.261620 0.013078
look -0.363504 -0.502868 -0.774815 0.094690 -0.210580 0.195270 -0.609683 -1.264922 -0.110771 0.760185 -0.273855 -0.970938 -0.240706 0.020808 0.089945 -0.221770 0.663357 0.488337 0.335122 -0.210626 0.184761 -0.943907 0.395596 -1.177904 -0.007641 0.267486 -0.078062 0.797660 0.211680 0.629162 0.024415 1.193225 0.221076 -0.453885 -0.074114 0.073105 0.399778 0.129561 0.061569 0.250124 0.355592 -0.486677 0.171926 0.051466 -0.909330 0.264473 0.237470 0.217598 0.149774 0.504070
pray -0.304729 -1.148647 -0.132111 -0.189147 -0.206794 0.046197 -0.532506 -0.629176 -0.507598 0.855357 -0.124664 -0.487784 -0.120209 -0.259235 -0.032213 0.569073 -0.318737 -0.177714 0.588286 -0.454894 0.526639 -0.157915 0.154139 -0.573066 -0.606535 0.058249 0.223400 0.193000 0.433788 0.793556 0.248092 0.794283 -0.124558 -0.412248 -0.688676 0.218268 -0.305593 0.677225 0.204225 0.492896 0.104327 -0.067251 -0.351793 -0.326170 0.151431 -0.069044 0.727185 0.528035 -0.630256 -0.003892
time 1.044005 -0.135658 -0.168206 -0.228663 -0.360312 -0.079679 -0.317001 -0.674785 0.144235 0.430758 0.088987 -0.134023 -0.780820 -0.477349 0.570871 -0.022419 -0.207513 -0.017881 0.509008 -0.198179 -0.202225 0.210388 -0.066706 -0.619518 0.181535 0.632413 0.407088 -0.008062 0.298993 0.823019 0.350742 1.255069 -0.286849 -0.436979 -0.391023 0.237852 0.061029 -0.043208 -0.373378 0.137489 -0.864592 -0.166264 0.349940 -0.288625 0.276145 0.238115 -0.373475 0.412765 -0.009155 0.131119
heaven 0.286080 -0.497271 -0.183977 -0.347614 -0.196421 -0.463080 -0.804225 -0.840740 -0.557816 0.709632 0.491121 -0.019236 0.088687 -0.367974 0.008467 -0.265197 0.093797 0.221260 0.460505 -0.499089 0.178218 -0.706769 -0.052419 -0.570025 0.307236 -0.526284 0.411476 0.545661 0.064667 0.471232 0.149232 1.047925 -0.389372 -0.250319 -0.949240 0.311727 0.072137 -0.221197 -0.318643 0.377899 0.077919 -0.202849 0.170928 0.005296 0.589027 -0.151316 -0.119769 0.498369 -0.338655 0.652717
death 0.450573 -0.319484 -0.189033 -0.215909 -0.441118 -0.240797 -0.471276 -0.488389 -0.170823 0.414695 0.024688 -0.053624 0.070546 -0.193291 -0.541459 -0.033737 0.247236 -0.003780 0.147216 -0.258768 0.297847 -0.790133 -0.440263 -0.003410 0.144798 0.446768 0.501291 0.277679 0.105290 0.189533 -0.411406 0.722010 -0.483116 -0.165181 -1.013822 0.466031 0.132260 -0.717038 0.366987 0.066821 -0.058172 0.137757 1.639516 -0.076821 -0.345406 0.772788 -0.223859 0.019249 0.294859 0.298682
life 0.521159 -0.391346 -0.254790 -0.275538 0.019278 -0.085956 -0.150211 -0.380696 -0.679260 0.447228 -0.361236 -0.685240 0.120570 0.039703 -0.543499 0.147524 0.473307 -0.379116 0.116724 -0.392580 0.414294 -0.900593 -0.381991 -0.152370 0.184065 0.164858 0.427893 0.504247 0.135109 0.518831 -0.014353 0.526380 -0.358733 -0.325890 -0.968976 0.270291 0.423485 -0.312444 -0.088021 0.141431 -0.105569 0.072763 1.052920 0.009332 -0.207241 0.522933 -0.390376 0.087702 -0.035695 -0.010980
exeunt 0.210829 -0.479663 -0.556471 0.388971 -0.844194 0.402997 -0.240487 0.176859 -0.158236 1.051845 -0.143389 -0.700182 -0.852036 -0.240948 0.508708 0.195236 0.410902 -0.226192 -0.245947 -0.200048 0.817956 -0.283957 0.239027 -0.340408 -0.878831 0.531110 0.281166 -0.263917 0.720237 0.412889 0.275122 0.047522 -0.098492 -0.092627 -0.103577 0.096163 -0.537248 0.433742 0.687656 0.797732 0.072987 -0.362336 -0.099811 -0.875552 -0.429673 0.200354 0.640583 0.494828 -0.609149 -0.232680
think 0.016337 -0.902386 -0.323597 -0.017107 -0.065979 -0.209527 -0.141777 -0.822120 0.044656 0.654702 0.157993 -0.353120 -0.318857 0.036865 -0.123322 0.398197 0.235165 -0.180332 0.182819 -0.574199 -0.041021 -0.487118 0.262687 -0.435019 -0.033582 -0.105362 0.210255 0.218250 0.119181 0.200564 0.355694 0.627122 -0.128209 -0.612352 -0.809809 -0.148524 -0.297643 -0.137873 0.264713 -0.344308 -0.431477 -0.331464 0.480931 -0.782378 -0.470149 -0.000703 -0.246262 0.361498 0.013172 -0.194949
eyes 0.507992 -0.807388 -0.939842 0.065958 0.502589 0.657932 -0.104417 -0.904346 0.404621 -0.528266 0.116007 0.301828 -0.206642 -0.266146 -0.326265 0.195542 -0.035065 -0.127848 0.332429 -0.735002 -0.200563 -0.537500 1.099788 -0.706234 0.576516 0.404520 0.266926 0.634470 -0.148381 -0.552307 0.197617 0.977435 -0.525345 -0.499719 -0.598591 0.318429 -0.828502 0.080905 -0.558498 0.133446 0.336988 -0.084390 -0.511186 0.429178 -0.703421 0.268166 -0.077571 0.380506 -0.067576 0.224895
made 0.925773 0.080557 -0.086864 -0.180632 -0.462020 0.098897 -0.277155 -0.752331 0.205309 -0.202925 0.295327 0.008489 -0.276797 -0.063930 0.325475 0.164787 0.137854 -0.660707 0.098111 -0.616625 -0.276715 -0.348069 -0.224927 -0.585373 0.650954 0.797312 0.706828 0.161231 0.381969 0.137934 -0.012176 0.593575 -0.274662 -0.487572 -0.375040 -0.221028 -0.196865 -0.420407 -0.036548 0.230084 -0.119935 0.081277 1.030827 -0.234822 -0.612590 0.581420 -0.315425 -0.118121 0.243949 0.249069
men 0.281600 -0.847185 -0.639251 -0.291066 0.110593 0.028206 -0.461759 -0.899954 -0.358771 0.010286 0.376041 -0.219511 -0.060306 0.240565 -0.184957 0.821696 -0.167972 -0.145149 -0.686290 -0.589430 -0.356768 0.152009 0.446717 0.147989 -0.310618 0.413348 0.832588 -0.024815 0.739606 -0.575711 0.164329 1.187033 -0.277747 -0.430334 -0.718085 0.688980 -1.150216 -0.500971 -0.609012 -0.207310 -0.152439 0.096004 0.194300 -0.900235 -1.199778 -0.225976 -0.164799 0.469659 -0.231942 -0.210210
art 0.547913 -0.948693 -0.836048 0.045348 -0.523227 0.643621 -0.553499 -1.340001 0.461168 0.036466 0.117830 -1.123580 -0.967894 0.158234 -0.360821 0.217868 -0.027046 -0.600249 0.287222 -0.413771 0.493953 -0.665288 -0.531996 0.536893 -0.459796 0.314267 -0.319782 0.636276 -0.304547 -0.782993 0.207572 0.398873 -0.789327 -0.129830 -0.202915 -0.239333 -0.368857 0.083265 0.026051 -0.485414 0.209553 0.138377 1.172552 -0.265408 -0.284242 0.581084 0.002852 0.245198 0.675939 -0.339032
again 0.301388 -0.400087 -0.148313 -0.052110 -0.168821 -0.810043 -0.569837 -0.379530 -0.041072 0.493952 -0.345940 -0.412403 -0.135763 -0.106961 0.150750 0.278658 0.409724 0.280579 0.481097 -0.371927 0.681884 -0.004380 0.375729 -0.572307 -0.626356 0.860198 0.526932 0.772406 -0.069357 0.609117 -0.076988 0.910462 -0.181299 -0.818243 -0.440516 0.229244 -0.423581 0.653690 0.230756 -0.078036 -0.160171 -0.192783 -0.319233 -0.433823 0.008713 0.219841 0.757416 1.247233 -0.024940 0.088394
fair 0.545121 -0.656235 -0.789761 0.197973 0.208336 0.462970 -0.726412 0.083488 0.044115 0.413121 0.239734 -0.467386 -0.363603 -0.295427 0.271667 -0.041956 0.273827 -0.376756 -0.113837 -0.270423 0.066421 -0.462648 0.141188 -0.093656 0.279939 0.603044 0.401269 0.442750 0.511552 0.023495 0.256908 0.467820 -0.556054 -0.120780 -0.488857 -0.197345 -0.152138 0.058399 -0.968754 0.841748 0.484300 -0.276139 -0.056906 0.280827 -0.149553 0.174584 -0.428960 0.544855 -0.370190 -0.622545
hand 0.593409 -0.559090 -0.265998 -0.324131 -0.371655 -0.281683 -1.013084 -0.222827 -0.002667 0.413535 0.407368 -0.383575 -0.380357 -0.802356 0.179615 -0.442678 0.450529 -0.197040 0.145036 -0.380640 0.598196 -0.663451 -0.156567 -0.090328 0.067343 1.083817 0.317334 0.675081 -0.231503 0.621124 0.071421 0.746879 -0.496304 -0.579645 -0.388613 -0.053550 0.245852 0.368686 -0.485604 0.270668 -0.155545 0.132029 0.257435 0.631249 -0.438147 0.552705 -0.340609 0.448486 -0.000882 0.410772
thus 0.111201 -0.992401 -0.105670 -0.466699 -0.568835 0.046199 -0.399328 -0.217735 0.351801 0.411339 0.700204 -0.222628 -0.498818 0.042601 0.382017 0.171632 0.327364 -0.368183 0.763921 -0.562874 -0.859600 -0.521905 -0.407592 -0.390393 0.086772 -0.075611 0.234662 -0.127884 0.370618 0.234788 0.255553 0.450826 -0.248707 -0.765293 0.017397 -0.474560 -0.508630 0.301946 0.208569 0.099767 -0.057183 -0.525276 0.123892 -0.145916 -0.236453 0.064748 0.293849 -0.077767 -0.194624 -0.192564
exit -0.074171 -0.740008 -0.290781 -0.027857 -0.780360 0.340130 -0.044486 0.238589 -0.359925 1.284452 -0.174146 -0.966106 -0.620378 -0.323358 0.620408 0.296572 0.343436 -0.197190 0.168659 -0.038322 0.621757 -0.221210 -0.185939 -0.521064 -0.691718 0.382858 0.231466 -0.160725 0.401863 0.676597 0.579523 0.703504 0.079839 -0.042978 0.098203 0.108848 -0.115637 0.605559 0.689529 0.732947 -0.113945 -0.200832 -0.417543 -0.395339 -0.302779 0.272677 0.970904 0.610910 -0.149629 -0.296828
day 0.622553 0.221541 -0.357940 -0.145243 -0.808643 -0.128015 0.002510 -0.834065 -0.200946 0.893981 -0.431152 -0.442704 -0.518516 -0.940562 -0.125548 -0.813991 0.417017 1.141522 0.077748 0.407234 0.426134 0.229339 0.327433 -0.271141 0.333390 0.723216 -0.193195 -0.261486 0.340704 0.599439 0.697164 1.349978 0.370060 -0.368393 -0.374974 0.000135 0.538492 -0.396821 -0.517352 1.120053 -1.179908 -0.150352 1.234984 -0.622109 -0.478998 0.078357 -0.868490 0.691515 -0.285973 0.191512
sweet 0.414358 -0.298274 -1.061679 0.251937 -0.293844 0.335539 -0.172974 -0.344470 -0.690525 0.609954 -0.361684 -0.719204 -0.439657 -0.033109 0.000424 0.493248 0.643526 -0.447233 -0.700182 -0.978341 0.797347 -0.534866 0.119585 -0.237657 0.013951 0.588401 0.235058 0.793987 0.194610 0.201918 0.539118 0.222622 0.240136 0.433792 -1.030878 0.206321 -0.155721 0.157567 -0.370952 0.445356 0.495462 -0.280095 -0.587989 -0.349161 -0.238998 0.139104 -0.458906 0.598069 -0.598071 -0.293518
night 0.966451 0.179079 -0.567559 -0.110661 -0.611362 -0.211486 -0.119806 -0.071622 -0.097209 0.562291 -0.000583 -0.683299 -1.102856 -0.536181 0.132184 0.022049 0.653720 0.269022 -0.309489 0.015341 0.344809 0.342017 -0.072789 -0.878467 -0.032667 1.142682 0.494221 0.297606 0.237065 0.322064 0.495149 0.830397 0.530615 0.073986 -0.015762 0.301703 -0.027151 0.572277 -0.594547 0.435074 -0.545757 -0.142343 0.051311 -0.105081 -0.263393 0.409531 -0.808721 0.897132 -0.665586 0.378603
poor 0.378449 -0.580583 -0.168321 -0.320097 0.111795 0.560770 0.296949 -0.294989 -0.639272 0.133182 -0.341925 -0.368953 -0.198922 -0.185923 -0.585215 0.184882 0.353392 -0.610987 -0.308864 0.003152 1.257164 -1.120882 0.094505 -0.440318 0.097786 0.340716 0.519990 -0.032506 0.232109 -0.319916 0.368459 0.261399 -0.170140 -0.293465 -0.507486 0.102161 0.184505 0.072790 0.044965 0.289255 0.470956 0.327629 0.587116 0.073254 -1.094035 0.786742 -0.524762 0.306814 0.009571 -0.434159
true 0.611240 -0.626104 -1.013702 0.028276 0.178205 -0.206495 0.021475 -0.297457 0.084198 0.705729 0.269337 -0.833646 -0.092390 -0.058197 0.068282 0.071396 0.008130 -0.382305 -0.290239 -0.922607 0.070197 -0.609926 0.195665 0.245040 0.188321 0.332221 0.237491 0.403981 0.491599 0.085379 0.196365 0.202531 -0.664794 0.064722 -1.123903 -0.162491 -0.593771 0.356853 -0.798064 0.053208 -0.288078 -0.351679 0.412973 -0.334948 -0.290062 0.176717 -0.662527 0.623660 -0.070935 -0.239628
call 0.379421 -0.626494 0.238666 0.188743 -0.233384 -0.415246 -0.635156 -0.628074 0.281450 0.357410 0.287523 -0.431598 0.270388 -0.336285 0.223985 0.485193 0.316721 -0.343095 0.127100 -0.221294 0.798277 -0.705113 0.349912 -0.126785 -0.167444 0.395180 0.414924 0.190832 0.331063 0.481316 0.063000 0.657314 0.176827 -0.454779 -0.829589 -0.056157 -0.290084 0.149208 0.539133 -0.181263 0.232604 -0.137013 -0.026303 -0.286270 -0.382739 0.330883 0.558716 0.552310 0.212775 0.389739
god -0.423508 -0.547618 -0.414660 0.058334 -0.252751 -0.258676 -0.876995 -0.606799 -0.665946 0.704888 0.189981 -0.153491 0.302506 -0.646469 -0.282806 0.508404 0.050983 -0.203411 0.231781 -0.749446 0.349749 -0.612820 -0.203477 0.273174 -0.029077 -0.560568 0.349497 0.244679 0.204060 0.609631 0.297991 0.655011 -0.307049 -0.077495 -1.171724 0.037918 -0.318292 -0.257195 0.119195 0.607846 0.245840 0.189734 0.358074 0.026166 0.595076 -0.088963 0.204139 0.651101 -0.080166 0.229959
blood 0.633112 -0.044607 -0.750139 0.045994 0.098612 0.204026 -0.435193 -0.453020 0.206461 -0.058340 0.063856 0.015159 -0.084948 0.439783 -0.268027 -0.047291 0.130167 -0.579004 -0.043862 -0.755074 0.146738 -0.619955 -0.476172 -0.002821 0.439804 0.394384 0.014218 0.697355 0.158700 0.419727 0.088686 0.002497 -0.612143 0.068888 -0.957021 0.109210 -0.150485 -0.449357 -0.257685 0.213397 0.091414 0.263378 0.962059 0.148942 -0.300708 0.254736 -0.752353 -0.150587 0.400493 -0.047632
great 1.271493 -0.306382 -1.051784 -0.405746 -0.355202 0.064950 -0.097042 0.042629 0.617336 0.455774 0.191758 0.026619 -0.677482 0.341196 0.833075 0.129849 -0.496182 -0.607873 -0.341545 0.001812 -0.078712 -0.084076 -0.129712 0.377064 0.301263 0.342375 0.331291 -0.169702 0.346688 0.501101 0.310693 -0.480649 -0.769197 -0.150415 -0.670763 0.341654 -0.548398 -0.283968 -0.085497 -0.177254 0.404858 -0.071058 0.297080 -0.158188 0.052505 -0.046941 -0.207691 -0.095431 0.645941 0.204014
world 0.737097 -0.306209 -0.696705 -0.080987 -0.308993 0.267366 0.106047 -0.460648 -0.244354 0.676810 0.089409 -0.594280 -1.092040 0.061548 -0.118899 0.510060 0.018429 -0.243801 0.005411 -0.021364 0.071344 -0.171747 0.084840 -0.554663 0.441055 -0.356686 0.590399 -0.154500 0.391416 -0.393498 0.455132 -0.068986 -0.190037 -0.315780 -0.256532 0.158843 -0.151874 -0.032572 -0.423060 0.390847 -0.235537 -0.139081 0.371057 -0.364615 -0.465341 0.245995 -0.313902 0.528757 0.155473 0.472031
hast 0.509311 -0.480399 -0.117570 0.032441 -0.374057 0.325578 -0.790467 -1.453942 0.188812 -0.553204 0.309041 -0.721078 -0.270206 0.363019 -0.276797 0.180241 0.517656 -0.642459 0.599411 -0.874232 -0.080797 -0.414487 -1.131137 -0.134902 -0.342301 0.261504 -0.331650 0.559546 -0.349204 -0.612387 -0.221794 0.673028 -0.242289 -0.398266 -0.255265 -0.661825 -0.164746 -0.535868 0.415499 -0.278048 -0.330641 0.029883 1.183700 -0.251165 0.146539 0.879735 0.041377 -0.074192 0.289526 -0.038899
away 0.197649 -0.453147 0.156986 -0.018828 -0.569604 -0.392285 -0.756924 -0.317605 0.204374 0.499197 0.324549 -0.156583 -0.479066 -0.313474 0.549566 -0.174032 0.468041 0.142650 0.100181 0.166580 0.939966 -0.355184 -0.459903 -0.574350 -0.413772 0.526159 0.352678 0.605001 0.152365 0.616980 -0.032394 0.622592 -0.327795 -0.342934 0.120213 0.586879 -0.373653 0.603635 0.387770 -0.073133 -0.272453 0.214031 0.155325 -0.283221 0.100103 0.311372 1.049644 0.836642 0.015774 0.223284
myself -0.180485 -0.684141 0.047497 0.013831 0.550373 -0.062517 -0.156671 -0.844094 -0.682984 0.223755 -0.160603 -0.519023 -0.262371 -0.070296 -0.019876 0.514499 -0.492313 -0.498791 0.322476 -0.414932 0.265129 0.046926 -0.091367 -0.581696 -0.050860 -0.206577 0.968516 -0.046012 0.192103 0.135978 -0.208402 0.773062 -0.621172 -0.643036 -0.178817 -0.252239 -0.281314 0.163929 0.565044 -0.505537 0.132477 -0.300125 -0.118549 -0.305263 0.342847 0.466789 -0.007084 0.024663 -0.251524 0.243654
any 1.154208 -0.019400 0.040438 -0.951777 0.679795 0.416527 -0.018317 -0.623124 -0.578864 0.016328 0.015048 -0.006589 0.365798 0.093330 0.185471 0.582680 -0.429623 -0.250735 0.658467 0.128366 0.273850 -1.009213 0.125507 -0.594758 -0.009688 -0.186882 -0.029546 0.379736 0.311633 -0.060501 -0.063504 0.698992 -0.422144 -1.067219 -0.315701 0.461705 0.514820 -0.138212 -0.775766 -0.185980 -0.271367 -0.120940 1.215265 -0.505225 -0.179396 -0.046675 -0.794047 0.082165 -0.815925 0.379705
lady 0.238326 -0.244643 -0.373686 0.551071 -0.658984 0.410295 0.325095 -0.424073 -0.705619 1.076313 -0.320596 -0.848013 0.029382 -0.469123 0.062603 0.810311 0.345452 -0.647898 -0.482185 -0.474759 0.875404 -1.179950 -0.165557 -0.392126 0.004024 0.352426 -0.011728 0.110829 0.797841 0.511721 0.708292 0.425863 0.564726 0.544015 -1.021332 -0.093958 0.317374 0.224186 0.137887 0.698710 0.410892 0.114257 -0.243527 0.041432 -0.567926 0.512242 -0.195689 0.733566 -0.039067 -0.807675
own 0.636741 -0.642306 -1.075474 -0.035718 0.514752 0.663170 -0.298763 -0.269382 0.162056 -0.238019 0.203158 -0.037652 0.243037 -0.020312 0.248115 -0.002875 0.043250 -0.550820 0.503000 -0.681754 -0.320159 -1.204223 0.671679 -0.202118 0.401675 0.043826 0.084347 0.773925 -0.426032 0.202372 -0.597088 0.256865 -0.811112 -0.126210 -0.835970 0.359883 -0.564462 0.051867 0.012498 -0.715540 0.684480 -0.065240 0.266073 0.882841 -0.088108 0.789366 0.077403 -0.298033 0.367293 0.473680
even 0.716725 -0.463173 -0.587287 -0.034356 -0.195082 -0.058756 -0.090224 -0.051727 0.247561 0.631270 0.177296 -0.094253 -0.682592 -0.226471 0.430593 0.164835 0.300325 -0.178542 -0.186206 -0.539056 -0.095793 -0.457563 0.084343 -0.499291 0.076634 0.311485 0.593222 0.115432 0.310126 0.245237 0.044258 0.271724 -0.569526 0.145887 -0.429412 0.197942 -0.266411 0.323339 -0.518785 0.174169 -0.101160 -0.357764 0.175307 0.164066 -0.257672 0.352588 0.129688 0.216918 0.247847 0.352280
ever 0.488410 -0.259545 0.764150 0.051617 0.331838 -0.135346 -0.083632 -0.436213 -0.737030 0.044215 0.242926 -0.404139 0.103615 -0.195762 -0.057346 0.556871 -0.160050 -0.451451 0.105618 -0.953559 -0.263260 -0.332329 -0.086848 -0.476921 0.246807 0.410704 0.230870 0.476055 -0.158584 0.307002 0.673474 1.363031 -0.648745 -0.602892 -0.576362 -0.483211 0.839413 -0.028453 0.016755 0.285633 -0.477219 -0.001610 0.889525 -0.447753 -0.027741 -0.122607 -0.574182 0.203122 -0.135618 0.005971
mother 0.929289 -0.419345 0.175442 -0.278145 -0.405485 -0.464193 -0.257047 0.093953 -0.392969 0.328543 0.297503 -0.528975 0.228353 -0.498394 0.105178 0.463287 0.260531 -0.674407 -0.139516 -0.555041 0.745802 -1.327164 0.135753 -0.042491 -0.044466 0.758708 -0.181395 -0.023773 -0.109784 0.470909 0.170833 0.106803 -0.054794 -0.355113 -0.822069 -0.406101 0.411709 0.141768 0.087739 0.065777 0.147085 0.200126 0.597988 0.282450 -0.564307 0.865441 -0.260935 0.290681 0.270405 0.145825
before 0.638982 -0.580907 -0.096015 0.029045 -0.384808 0.095601 -0.076493 -0.485912 0.392586 0.515223 0.049995 0.032847 -0.385004 -0.179293 0.290786 0.291364 -0.132989 0.382145 0.493641 0.206811 -0.043040 -0.038069 0.481235 -0.755700 -0.255492 0.494066 0.313391 -0.180204 0.005090 0.483568 0.124362 0.938226 -0.164875 -0.463847 -0.225173 0.227534 -0.200416 0.329929 0.620592 0.241922 -0.218626 -0.248220 0.515838 -0.337598 -0.208223 0.394264 0.284871 0.361914 0.494774 0.398088
fear -0.200014 -0.604427 -0.864730 -0.007825 0.252014 -0.157787 0.141198 -0.748416 0.278195 0.390985 -0.224149 -0.547030 -0.185251 0.288070 -0.209178 0.131365 -0.210212 -0.236396 0.284701 -0.695407 -0.080385 -0.172475 0.020758 -0.390625 0.333240 0.155092 0.083286 0.565092 0.024029 0.269440 0.000528 0.265857 -0.579701 -0.656977 -0.727526 -0.071655 -0.564531 0.262850 0.234004 -0.446991 -0.517583 -0.315006 0.257306 -0.509935 -0.215831 0.103028 -0.103232 0.365969 0.139811 0.171209
being 0.704613 -0.405470 -0.178991 -0.172702 0.463617 -0.160045 0.137381 -0.283558 0.447284 -0.066900 0.270577 -0.157881 -0.458788 -0.159891 0.195918 0.075685 -0.453055 -0.279957 0.067354 -0.196817 -0.334264 -0.143105 0.050689 -0.220500 0.272563 0.330559 -0.033569 -0.222979 0.261058 0.136271 0.255404 0.716071 -0.553540 -0.237284 -0.632614 -0.118057 -0.170364 -0.199883 -0.079098 -0.270006 -0.130985 -0.113026 0.492209 -0.259520 -0.638376 -0.349114 0.215964 -0.131304 0.466816 0.445856
therefore 0.412459 -0.343471 -0.482989 -0.287146 0.176849 -0.059081 -0.453393 -0.101210 -0.132450 0.424436 0.116027 -0.457563 0.119703 0.200886 0.338414 -0.109215 -0.189378 -0.420848 0.349529 -0.175094 0.202847 0.004128 -0.571425 -0.455756 0.030997 -0.044390 0.247621 0.423653 0.100593 0.685444 -0.172926 0.241195 -0.669887 -0.507857 -0.634996 0.136942 -0.400168 0.309284 0.205198 -0.115875 -0.152612 -0.331050 0.069954 0.010693 0.680497 -0.000566 0.155461 0.451082 -0.362770 -0.045045
till 0.463596 -0.110965 0.361802 0.056058 -0.211864 -0.211703 -0.610890 0.010930 -0.133892 0.259311 0.675347 -0.463334 0.027351 -0.189856 0.586445 -0.133807 0.173800 0.128350 0.024353 0.207597 0.041545 0.361899 0.086621 -0.202882 0.054342 0.332077 0.436716 0.337683 -0.323906 0.279736 0.118197 1.134365 -0.490677 -0.525466 -0.208938 -0.062361 -0.296514 0.240261 0.435064 -0.202992 -0.403924 -0.239870 0.195193 -0.403241 0.018766 0.346978 0.198003 0.615740 -0.041712 -0.035980
been 0.402314 -0.129004 0.719425 0.142836 -0.181904 0.123862 0.034042 -0.530072 -0.101378 -0.015062 0.600056 -0.221040 -0.100718 0.253064 0.286583 0.456508 0.292679 -0.654671 0.646436 -0.971767 -1.144300 -0.238336 -0.235209 -0.422549 0.593216 0.316960 0.348156 -0.221070 0.336217 0.098689 -0.272481 1.072905 -0.374312 -0.722623 -0.404884 -1.231134 0.357081 -0.689616 0.689948 0.466211 -0.489564 -0.180837 1.521754 -0.554728 -0.761922 0.319523 -0.661389 -0.451838 0.425171 0.029689
still 0.139396 -0.479848 -0.117877 -0.000558 0.275826 -0.318051 -0.365145 -0.454820 -0.043539 0.063278 0.528205 -0.491730 -0.069394 -0.203209 0.298626 -0.344699 0.233083 -0.271581 -0.099194 -0.519134 -0.229919 -0.291585 -0.253730 -0.553284 0.131054 0.203996 0.655909 0.277962 0.055611 -0.010816 0.061137 0.458776 -0.548870 -0.150286 -0.508263 -0.376795 -0.206005 0.182189 -0.191434 -0.211492 -0.438211 -0.575018 -0.086747 0.260123 0.040283 0.134080 0.215009 0.276440 0.224177 -0.009371
though 0.057073 -0.556042 -0.198324 -0.078120 0.464369 0.009674 0.602380 -0.227409 0.178519 0.493468 -0.103288 -0.263691 -0.309177 0.038136 -0.090389 0.265541 -0.030398 -0.194341 -0.068247 -0.507518 -0.083437 -0.194526 -0.002068 -0.146533 0.647714 0.016653 0.490573 0.457791 0.242447 0.066258 0.271801 0.468608 -0.517294 -0.367922 -0.504611 0.099378 -0.362092 0.081704 0.191398 -0.356438 -0.262373 -0.111395 0.215114 -0.780192 -0.213879 -0.308932 -0.228619 0.084431 0.142094 -0.000973
down -0.670531 -0.637914 -0.101057 0.369341 -0.253146 -0.355582 -0.982421 -0.949416 0.369631 0.128870 0.137226 0.461493 -0.328148 0.089479 0.537831 -0.385646 1.016254 0.595094 0.070401 -0.023902 -0.114337 -0.187003 0.129000 -1.255689 0.080177 0.508382 0.868145 0.464470 0.076721 0.551988 -0.455562 0.595090 0.109982 -0.001455 0.132624 0.036533 -0.023771 0.300239 0.285400 0.337273 0.302830 -0.522299 0.198769 0.103707 -0.565847 0.579083 0.718820 -0.028891 0.322017 0.722563
name 0.142193 -0.492024 -0.518694 -0.414167 0.071701 -0.015493 -0.556427 -0.862617 -0.400845 0.466262 0.006049 0.080749 -0.068949 -0.677393 -0.228475 0.032624 -0.035429 -0.149489 0.383773 -0.081233 0.983444 -0.815356 -0.210842 0.268574 0.122889 -0.254100 -0.038259 0.310163 -0.629787 0.148681 -0.013515 0.125486 -0.157507 -0.277361 -0.859473 -0.039718 0.078883 -0.304497 0.550468 -0.252348 -0.449027 0.522178 0.695845 0.190111 -0.669053 0.437209 -0.018286 0.124519 0.625994 0.567379
other 0.964260 0.129308 -0.313712 -0.566485 0.765083 0.383925 0.018126 -0.282184 -0.345219 0.229294 -0.670399 0.527801 0.113518 0.134209 0.484624 -0.351257 0.281987 -0.135878 0.324326 0.370608 0.532861 -0.688281 0.152897 -0.713082 0.311825 0.122037 0.373878 0.308699 0.382464 0.448692 -0.776949 0.180664 -0.650676 -0.920477 -0.507958 0.822045 -0.247765 -0.464688 -0.232543 0.450243 -0.503989 -0.213365 0.578371 -0.159019 -0.830485 0.050910 -0.142550 -0.235928 -0.694916 0.463736
daughter 0.559192 -0.249178 -0.135307 -0.108851 -0.211661 -0.064259 0.039400 0.349323 0.032370 0.721122 0.011334 -0.296982 0.065496 -0.487244 0.305929 0.675631 -0.068316 -0.905750 0.063989 -0.411177 0.707436 -1.108479 0.023593 -0.028033 0.065730 0.489179 0.026634 -0.027793 0.239007 0.858681 0.424273 0.274327 -0.292009 -0.402916 -0.574878 -0.215711 0.292582 0.345884 0.312509 0.292869 0.396837 0.300853 0.458481 0.344639 -0.470844 0.219909 0.054286 0.324581 0.403135 0.015368
those 0.121515 -0.847601 -0.148393 0.120939 0.045615 -0.108031 -0.541419 -0.606879 0.430643 -0.492009 0.226299 1.055269 -0.144969 -0.464252 -0.416131 0.476425 0.170836 -0.243495 0.080755 -0.758299 -0.207152 -0.121745 0.626154 -0.520435 0.211622 0.217414 0.886447 0.065618 0.399126 -0.136957 -0.111557 0.621602 -0.240937 -0.431672 -0.546203 0.509115 -0.773656 -0.499089 -0.218161 -0.011973 -0.033329 0.106500 -0.188320 0.131188 -0.486422 0.190478 0.075167 -0.055687 -0.150007 0.085322
ay -0.014245 -0.446324 -0.408329 -0.183396 0.097254 0.257279 0.071564 0.233909 -0.134616 0.964872 -0.014339 -1.059712 -0.092379 -0.548011 0.215160 0.021100 0.311696 -0.223760 -0.642714 -0.181998 0.729893 -0.920190 -0.114153 -0.028391 -0.189346 0.266376 -0.043140 -0.054803 0.420788 -0.377950 0.620408 0.422905 -0.049548 -0.275542 -0.018828 0.163141 -0.273302 -0.025366 -0.296526 0.462215 -0.136491 0.007159 -0.200193 -0.228836 -0.924305 0.336384 -0.016301 0.812120 -0.492156 -0.156331
done 0.246137 -0.608439 -0.256764 0.089806 -0.417391 0.032110 -0.533411 -1.237561 0.280369 0.414736 0.268855 -0.368266 -0.505746 -0.244283 0.570730 0.041538 -0.067286 -0.127317 0.808137 -0.557322 -0.567483 -0.152463 -0.577395 -0.275814 -0.262385 -0.146841 -0.008356 -0.014148 0.400591 0.495431 -0.079405 1.072494 -0.229552 -0.267229 -0.031262 -0.489622 -0.130566 -0.319046 0.543488 -0.096854 -0.762040 -0.433666 0.829790 -0.433634 0.317693 0.362465 0.299905 0.022344 0.232440 -0.257787
husband 0.211392 -0.134586 0.351077 0.052199 -0.032465 -0.402686 -0.276009 -0.008330 -0.641571 0.774593 -0.243030 -0.510729 0.448572 -0.403558 0.074788 0.155825 0.483890 -0.297889 0.232233 -0.624529 0.570623 -0.899786 -0.108896 -0.284082 0.147903 0.289993 -0.092108 0.383883 0.062855 0.731477 0.197594 0.566084 0.029142 -0.336679 -0.626083 -0.488228 0.398594 -0.210330 0.473213 0.685324 -0.108936 0.198923 0.319748 -0.070878 -0.384207 0.306416 0.020757 0.624232 0.155206 0.090162
leave -0.023309 -0.457982 -0.084706 0.163239 -0.319097 -0.337323 -0.746928 -0.319756 -0.181840 0.201334 0.290886 -0.454621 -0.251340 0.060403 0.022791 0.394660 0.137167 -0.249129 0.402828 -0.414998 0.424846 -0.060096 0.032233 -0.584138 -0.329455 0.105235 0.262547 0.082652 0.259257 0.651278 -0.028304 0.730825 -0.109632 -0.484296 -0.402576 0.011687 -0.273444 0.475533 0.050840 0.129673 0.227190 -0.132965 -0.401943 0.022841 0.431327 0.350499 0.318263 0.700404 -0.307477 0.521816
against 0.284681 -0.507714 -0.841034 -0.505904 0.403851 -0.192355 -0.394168 -0.331236 -0.265855 -0.021383 0.005415 0.362656 -0.252941 0.222286 -0.398600 0.360925 0.286743 -0.203381 0.125443 -0.838704 -0.167323 -0.198432 -0.097200 -0.246596 0.163169 0.284728 0.790525 0.487678 -0.128714 0.036584 -0.215962 0.085714 -0.380193 -0.267587 -0.324989 0.171739 -0.558925 -0.210576 -0.235601 -0.323993 0.333482 0.029045 0.189893 0.082384 -0.022550 0.319651 -0.320039 -0.076406 0.429187 0.308152
brother -0.125204 -0.414375 0.177376 0.121966 0.266512 -0.514724 -0.085138 0.556888 -0.471976 1.038794 -0.134824 -0.518052 0.254184 -0.382290 0.058010 0.501542 0.344320 -0.429027 -0.142295 -0.525169 0.251585 -0.820898 -0.004789 -0.063484 0.038560 0.138429 0.334719 0.071679 0.272770 0.842832 0.020892 0.359435 -0.127073 -0.085867 -0.877826 -0.395341 0.459529 -0.463822 0.742978 0.119141 0.484879 0.058423 0.639672 -0.048152 -0.884313 0.567711 -0.031780 0.090271 0.615482 0.493889
dead 0.160479 -0.292070 -0.368396 -0.103423 -0.472810 -0.377516 0.200834 -0.593420 -0.294033 0.677998 -0.380195 -0.308419 0.136049 -0.311383 0.022791 -0.172288 0.202759 0.117322 -0.206192 -0.134382 0.314304 -0.339585 -0.080905 0.500330 0.207304 0.151006 0.131882 -0.207256 -0.268214 -0.215951 0.807233 0.742050 0.107778 -0.179174 -1.218079 -0.341512 0.088358 -0.775064 0.263633 0.313752 -0.781384 0.128272 0.876811 -0.179837 -1.605140 -0.089032 0.356106 0.813503 0.499359 0.164284
gone 0.457580 -0.645139 -0.114022 0.032148 -0.225063 -0.179174 -0.139547 -0.603230 0.022941 0.645150 -0.082013 -0.698137 -0.011295 -0.375175 0.455481 0.038927 -0.020509 -0.081877 0.015109 -0.478724 0.131181 -0.489798 -0.243046 0.039119 -0.562646 0.153134 -0.161829 0.258487 -0.044934 0.222735 0.756105 0.691767 -0.360813 -0.331244 -0.578163 -0.311088 -0.407173 0.201806 0.204526 0.110424 -0.704550 -0.115752 0.363501 -0.646518 -0.359893 -0.124819 1.150867 0.726747 0.160929 -0.198648
son 0.777712 -0.548078 -0.306246 -0.390044 -0.265855 -0.353170 -0.385259 0.835712 -0.161050 0.849320 0.453452 -0.677565 -0.157731 -0.329728 -0.156010 0.972964 -0.186027 -0.576075 -0.055531 -0.375202 0.218032 -0.860772 -0.157448 0.828403 -0.081268 0.102819 -0.366482 -0.080797 -0.413709 0.625363 0.274077 0.431637 -0.378480 -0.122438 -0.647441 -0.363073 0.574239 -0.309756 0.614081 -0.150193 1.435646 0.150347 1.128482 0.304076 -0.472085 0.461153 -0.046928 -0.300396 0.970614 0.279235
stand -0.199229 -0.827144 -0.586997 0.413696 0.032942 0.182409 -0.888800 -0.968014 -0.111063 0.338294 0.407683 -0.648820 -0.601945 -0.125186 0.543512 0.117730 0.336287 0.045312 -0.234314 0.244713 -0.243136 -0.218598 0.271043 -0.777313 -0.293032 0.123852 0.601139 0.599353 0.431306 0.238973 -0.056907 0.286198 -0.108490 0.213000 -0.443501 0.204490 -0.292026 0.141463 -0.133107 -0.146088 0.380865 -0.594530 0.132561 -0.322995 -0.042905 0.357144 0.295534 0.085302 0.030580 -0.002130
whose 0.709242 -0.411557 -0.622338 -0.556019 0.049267 0.019613 -0.482256 0.100583 -0.038850 -0.131099 0.549587 0.137463 -0.164658 -0.250892 -0.195481 -0.250850 0.379276 -0.206163 -0.337505 -0.054306 0.199503 -0.620439 -0.158871 -0.133742 0.124365 0.739491 0.531606 0.196038 0.025423 -0.243099 -0.702138 0.143451 -0.444311 -0.051496 -0.524092 0.230380 -0.115887 -0.077339 -0.296410 0.026758 0.435622 0.221355 0.582156 0.880105 -0.434589 0.673488 -0.429791 -0.044655 0.376251 0.150832
first 0.672101 -0.059806 -0.109339 -0.319211 -0.375527 -0.334559 -0.456536 -0.041587 0.147187 0.522254 0.217214 0.032825 -0.302212 -0.431595 0.047623 0.506761 0.021148 0.066136 0.212049 -0.535516 0.387110 -0.237960 0.259537 -0.315424 -0.493633 0.469860 0.053680 -0.039148 -0.224391 0.444418 0.469118 0.699075 -0.062819 -0.712041 -0.083228 0.057339 -0.011693 0.343447 -0.011407 0.025949 -0.393819 -0.076279 -0.142294 -0.083965 -0.143422 -0.007411 -0.049672 0.720158 0.358057 0.488888
old 0.642872 -0.600619 -0.639596 -0.568127 0.078613 0.368944 0.122045 -0.049459 -0.389200 0.235564 0.240125 -1.243371 -0.589691 -0.201944 0.100145 0.326700 -0.198602 -0.325187 -0.428622 0.333842 0.124382 -0.492622 -0.058160 -0.209407 -0.183327 0.387884 -0.250812 0.139988 0.296158 -0.016592 0.211347 0.955948 -0.304026 -0.152012 -0.007541 0.600217 -0.048964 -0.122028 -0.743449 -0.203615 0.547018 0.231068 0.766292 -0.145725 -1.344528 0.566570 -0.049592 -0.034934 -0.041195 -0.172252
peace 0.219595 0.653100 -0.709551 0.436622 -0.378757 0.183093 -0.940828 -0.165814 -0.204683 0.684139 -0.071977 -0.413287 0.184449 -0.039290 0.884880 0.440596 0.080192 -0.770381 -0.152022 -0.403775 0.597647 -0.564754 0.000591 -0.129854 -0.022998 -0.214051 0.128865 0.656381 0.262034 0.856887 0.008302 -0.007608 -0.444290 -0.096721 -0.533090 0.035947 0.106498 -0.301023 -0.038635 0.406866 0.433411 -0.145962 0.547443 -0.177163 0.415835 0.055475 -0.002401 0.155669 -0.218866 0.225143
bear 0.647637 -0.516442 -0.165415 -0.357698 0.018798 -0.065771 -0.633530 0.203891 -0.175877 0.530839 0.490850 0.004415 -0.043907 -0.336527 0.190104 0.060979 -0.121050 -0.195782 0.132528 0.026737 0.362546 -0.173446 -0.202574 -0.602057 -0.043401 0.076031 0.915463 0.163786 0.347974 0.193025 0.055010 0.381211 -0.416554 -0.312697 -0.265561 0.467259 -0.510067 0.122927 0.092577 0.046704 -0.034661 -0.075553 -0.167731 0.161584 0.298656 0.331477 0.026044 0.650219 -0.237412 0.116501
soul 0.465221 -0.522611 0.067338 -0.367345 -0.070079 -0.008841 0.264491 -0.007466 -0.167437 0.135588 0.024406 -0.395602 -0.099796 0.212522 -0.425581 -0.055734 0.534681 -0.624572 -0.013799 -0.499388 0.581716 -0.851541 -0.308136 -0.419718 0.332414 0.347110 0.562754 0.702038 -0.010620 -0.015005 0.188291 0.197199 -0.561761 -0.280422 -0.440065 0.073976 -0.061491 0.397121 0.137733 0.057403 0.048855 0.096967 0.586703 0.343573 -0.218137 0.565865 -0.442413 0.335802 0.059313 -0.130603
grace 0.235944 -0.359740 -0.070479 -0.174527 0.374533 0.291830 -0.243581 -0.045526 -0.326118 0.499939 0.527552 0.153892 0.070033 -0.124512 0.459609 0.210650 0.043065 -0.477011 0.790618 -0.601207 -0.159934 -0.905586 -0.100006 -0.321823 0.211919 0.016734 0.123102 0.079479 0.230096 0.733049 -0.334744 0.971077 -0.324672 -0.456014 -0.247565 -0.340644 0.068934 0.231333 0.242923 -0.326183 0.204778 -0.075568 -0.112691 0.050625 -0.029305 0.256513 -0.249644 0.020996 -0.177718 0.280805
could 0.148824 -0.343323 -0.059937 -0.165043 0.490901 -0.201636 0.196324 -0.507974 -0.356554 -0.093750 0.232773 -0.378964 -0.321928 0.139018 -0.715882 0.857077 -0.312903 -0.020523 0.182197 -0.418075 -0.176700 0.196285 0.283088 -0.597752 0.550839 0.027707 0.679803 0.010309 0.019006 -0.354190 0.251246 0.819084 -0.118311 -0.852927 -0.429602 0.079885 -0.336222 0.271116 0.239876 -0.325304 0.007425 -0.289874 -0.193180 -0.636777 0.216443 -0.105860 -0.255723 0.327584 -0.144886 0.178012
very 0.279794 -1.025689 -0.582611 -0.485961 0.302187 0.356496 0.421852 -0.026422 0.431495 0.511214 -0.058971 -0.703256 -0.452119 -0.414547 0.007185 -0.241628 0.125579 -0.331613 0.151837 -0.148881 0.216204 -0.291177 0.200164 -0.504044 -0.147748 0.301052 0.146753 -0.116954 0.263230 0.074328 0.514217 -0.221270 -0.379104 0.096318 0.072381 -0.325214 -0.606409 0.459148 -0.298173 0.341884 -0.320062 -0.079844 0.627502 0.232636 -0.797667 0.486627 -0.479661 -0.020096 0.336513 -0.211022
both -0.105115 -0.758419 -0.525088 -0.228934 0.151833 -0.056379 -0.273068 -0.537170 0.063324 0.426530 0.082486 0.516902 -0.394071 -0.319427 0.060005 0.157553 0.316055 0.428772 -0.219269 -0.045889 -0.078606 -0.117095 0.505022 -0.304740 0.018036 0.266181 0.966969 -0.329217 0.589823 -0.120367 -0.540887 1.108723 -0.115170 -0.110714 -0.219013 0.476881 -0.462073 -0.175313 -0.089897 0.263080 0.197606 -0.369564 0.248398 -0.071346 -0.770635 -0.071579 -0.074493 -0.056157 -0.272590 -0.123308
keep 0.406451 -0.238381 -0.242782 -0.044542 0.091785 -0.207533 -0.801242 0.046877 -0.294757 0.536731 0.396646 -0.237320 -0.079471 -0.215275 0.238056 0.217866 0.067470 -0.044662 0.203001 -0.425454 0.183064 -0.522380 0.094072 -0.392250 -0.110220 -0.031145 0.208821 0.707433 -0.044802 0.525171 0.047868 0.587165 -0.552858 -0.345350 -0.193566 0.182769 0.067379 0.186525 -0.292280 -0.123756 0.031990 -0.177280 -0.046892 -0.153092 0.630150 -0.039794 -0.048372 0.452641 -0.151006 0.284670
better 0.482880 -0.093758 -0.145220 -0.466404 0.222503 0.098936 -0.265332 -0.144090 -0.435611 0.260583 -0.083851 -0.493625 -0.062933 0.443760 -0.176185 0.639251 -0.279741 -0.603953 0.608151 -0.636362 -0.169284 -0.157736 -0.562925 -0.189700 0.168861 0.357198 0.327662 0.336204 0.031835 0.567712 -0.191182 0.216227 -0.627135 -1.144288 -0.597657 0.003605 -0.040895 -0.150097 0.185535 -0.206570 -0.102916 -0.076235 0.536659 -0.509080 -0.133555 0.160098 -0.050497 -0.160346 -0.021078 -0.161227
die 0.126068 0.171597 -0.121103 0.334195 0.323688 -0.297902 -0.677062 -0.072798 -0.505339 0.729750 -0.009613 -0.794639 0.241357 0.072096 -0.118808 0.283597 -0.053022 -0.027245 0.056340 -0.263015 0.177025 0.132030 -0.315874 0.075331 -0.150083 0.407776 0.446968 0.516978 -0.497973 -0.081894 0.109541 0.592877 -0.690294 -1.214649 -0.886925 -0.366948 0.187065 0.015927 0.572230 -0.354740 -0.606229 -0.624748 0.397511 -0.444819 -0.134006 0.008635 0.044325 0.870298 0.129361 -0.247459
eye 0.424568 -0.466194 -0.323215 -0.550220 0.519657 0.227486 0.219937 -0.549506 0.074600 -0.113598 0.355468 -0.417440 0.384238 -0.613640 -0.213447 -0.680648 0.142920 -0.021782 0.285650 -0.224501 -0.237569 -1.269319 0.283130 -0.587622 0.988939 0.001514 0.102448 0.940125 -0.381238 -0.223640 0.256829 0.661881 -0.499549 -0.220388 0.004011 0.073772 -0.009992 0.161981 -0.651895 -0.015291 0.245846 -0.089967 0.418243 1.074502 -0.286817 0.340301 -0.418559 -0.129899 0.261932 0.399252
little 0.618190 -0.393469 0.341610 -0.316655 0.146742 0.186958 0.473516 0.099600 0.309787 0.580233 0.135775 -0.472688 0.235051 0.007294 0.351395 0.039589 0.148976 -0.265643 0.345140 0.132413 -0.036517 -0.676519 0.050784 -0.252106 0.389842 -0.021148 0.272465 0.141171 0.400705 0.341357 0.120144 0.251423 -0.173404 -0.192023 -0.285757 -0.088921 -0.133800 0.370303 0.009439 0.177394 -0.351143 -0.082012 0.655160 -0.247094 0.105359 0.213963 -0.479574 0.097649 0.110501 -0.274601
many 0.659673 -0.607153 -0.284518 -0.198369 -0.663856 0.495812 0.001136 -0.393263 0.062635 -0.468722 0.459016 -0.019777 -0.961031 0.531008 0.376008 -0.115340 0.406334 -0.212455 0.196718 0.262506 -0.912535 -0.035915 0.599741 -0.687998 0.506349 0.441477 0.426814 -0.551232 0.718676 -0.321571 0.040189 0.820388 -0.046989 -0.414956 0.377927 -0.097814 -0.617019 -0.104789 -0.805581 0.426742 0.095381 -0.255624 -0.037822 -0.442326 -0.607467 0.229704 -0.513943 -0.137690 -0.648423 -0.613097
noble 0.656677 -0.645718 -0.534021 -0.267043 -0.331947 0.457389 -0.005408 0.278411 -0.112896 0.599430 -0.039624 -0.678606 -0.204063 0.152108 -0.009618 0.395677 0.014046 -0.880800 -0.148463 -0.458130 0.805852 -0.871904 0.019309 0.064969 -0.119263 0.448426 0.033507 -0.199245 0.384167 0.497137 0.637118 -0.258154 -0.243957 -0.102143 -0.318003 -0.054939 -0.344733 0.044297 0.088508 0.472352 0.551337 0.264410 0.552630 -0.236460 -0.517877 0.598521 -0.692038 0.173384 0.121867 0.066476
show 0.639848 -0.595687 -0.395502 -0.304806 -0.099738 0.464233 -0.048099 -0.406094 0.107877 0.268108 -0.148115 0.046935 -0.330729 -0.059302 0.154062 0.160110 -0.014737 -0.105185 0.358561 -0.201733 0.067772 -0.231065 0.014343 -0.181095 0.055210 0.147277 0.284450 0.000330 0.210029 0.129386 -0.077784 0.653589 -0.488053 -0.469892 -0.301492 0.495289 -0.378188 0.025481 0.121328 0.497364 -0.224391 -0.131327 0.178652 -0.025694 -0.047273 0.161999 0.477385 0.079591 -0.234301 -0.139671
dear 0.163140 -0.670868 -0.569451 -0.246671 -0.271086 -0.168541 -0.220424 0.481962 -0.707642 1.011633 0.158772 -0.667488 0.258219 -0.265723 -0.267350 0.283658 0.366712 -0.618442 -0.237813 -0.818325 0.685265 -0.850591 -0.222565 0.034509 -0.371566 0.047794 -0.005811 0.028158 0.410091 0.705811 0.170588 0.165978 0.134887 0.215604 -0.973090 -0.038126 -0.235299 -0.023965 0.434614 0.459407 0.664857 -0.022058 0.289313 0.061747 -0.464418 0.367797 -0.708999 0.157489 -0.419031 -0.240601
every 0.831853 -0.129498 0.192193 -0.651493 -0.052619 0.367482 0.229450 -0.711896 -0.134597 0.004300 -0.160936 0.312255 -0.200987 -0.760680 -0.250771 -0.736793 -0.031672 0.615453 -0.127639 0.962943 0.332015 -0.592517 0.068627 -0.556877 0.724027 0.563622 0.360377 -0.129279 0.368128 -0.360843 -0.014858 0.951956 -0.306912 -0.531525 -0.040877 0.754309 0.250612 -0.320282 -0.634764 0.725979 -0.687340 0.186127 1.274136 0.150557 -0.486919 0.277518 -0.217781 0.109462 -0.134077 -0.068302
comes 0.379760 -0.376913 -0.338612 0.366026 -0.972068 0.071779 0.485797 -0.850587 0.417791 0.760345 -0.223572 -0.221540 -0.568708 -0.405286 0.864988 -0.417450 0.298953 -0.129386 0.239670 -0.149866 0.731225 -1.146163 0.303338 -1.007862 -0.305354 0.177778 -0.420494 0.045675 0.151500 0.722356 0.246466 -0.027134 0.098638 0.394739 0.114274 -0.057086 0.162071 0.496909 0.261398 0.222949 -0.375579 0.028843 0.296185 -0.279977 -0.564139 0.426628 0.604357 0.046386 0.536461 0.499065
head -0.062744 -0.979898 -0.259643 -0.380617 -0.578088 -0.008576 -0.392326 0.218018 -0.197602 0.740156 0.173190 0.218175 -0.271063 -0.035562 -0.090162 -0.208502 0.803262 0.125517 0.089906 -0.115051 -0.105576 -0.940098 0.064189 -0.146791 0.298232 0.045492 0.646647 0.279741 -0.403558 0.272900 -0.077146 0.313125 -0.369654 -0.368360 -0.186204 0.151415 -0.007544 0.092695 0.506002 0.215695 0.276787 -0.149463 0.462070 0.560496 -0.214359 0.667811 0.305785 -0.137427 0.372065 0.149115
nay 0.135573 -0.372155 -0.116709 -0.008638 -0.297686 -0.000889 -0.369299 -0.239951 0.166489 0.734705 0.100231 -0.351591 -0.204538 -0.406684 0.098744 0.330187 0.057032 0.170531 0.352008 -0.121459 0.532681 -0.253130 -0.016758 -0.104905 -0.483296 0.189335 -0.052129 0.142672 0.106892 0.253680 -0.182193 0.496709 0.007738 -0.630148 -0.198686 0.021787 -0.505805 0.434971 0.467327 -0.151889 -0.447469 -0.169044 0.030516 -0.810598 -0.337228 0.237737 0.240655 0.630141 -0.177025 0.355579
two 0.380382 -0.586350 -0.370820 -0.163957 -0.284619 0.299433 -0.275858 -0.060636 0.221043 0.196547 -0.037544 0.710556 -0.530998 -0.148748 0.487314 0.222965 0.478932 0.285873 -0.080600 0.212618 0.049967 -0.102500 0.961080 -0.295397 -0.272113 0.306593 0.287399 0.107719 0.171550 -0.218353 0.005598 0.519188 -0.126891 -0.526305 0.195611 0.559808 -0.604242 -0.542402 -0.309805 0.525508 -0.090950 -0.079409 0.301244 -0.702060 -1.080639 -0.008440 -0.152381 0.046961 -0.374145 -0.195143
wife 0.613745 -0.356378 0.159708 -0.118562 -0.157797 -0.333288 -0.095174 0.299054 -0.374388 0.683171 0.125898 -0.828867 0.263928 -0.542260 0.112944 0.202705 0.159403 -0.559725 -0.069020 -0.595835 0.409293 -0.967007 0.001770 0.189729 -0.175768 0.741120 -0.283100 0.102404 -0.091707 0.525962 0.295119 0.459075 -0.299940 -0.296615 -0.650412 -0.629181 0.380477 0.218057 0.075483 0.128631 0.171965 -0.028258 0.410494 0.096073 -0.520696 0.378752 -0.187840 0.297256 0.139585 -0.154085
put 0.215273 -0.365625 -0.318931 -0.114133 -0.031748 0.156482 -0.831587 -0.532080 0.112493 0.150473 0.529843 -0.329606 0.107797 -0.234311 0.362145 -0.128199 0.410153 0.242896 0.471038 -0.080291 -0.182197 -0.593567 0.248881 -0.812170 -0.105707 -0.087601 0.355125 0.322390 0.193750 0.534825 -0.575378 0.293059 0.041410 -0.176803 -0.143381 0.071204 -0.195453 0.415036 0.103488 0.286172 0.247793 -0.502004 0.403946 0.240898 -0.028311 0.509287 0.099489 -0.384341 0.089246 0.514685
way 0.628961 -0.224852 -0.358290 -0.139977 -0.090387 0.002383 -0.187821 -0.421810 0.121644 0.173446 -0.196335 0.022959 -0.582354 -0.229240 0.149514 -0.195583 -0.027404 -0.080322 0.372227 -0.015437 0.298859 -0.347391 -0.091673 -0.582613 -0.015887 0.381139 0.275513 -0.109754 0.169989 0.319482 -0.081285 0.465390 -0.440076 -0.611463 -0.215665 0.336463 0.001010 -0.041086 0.148828 -0.007331 -0.656680 -0.210788 0.214827 -0.095846 -0.413550 0.276925 0.408846 0.182512 0.129427 0.323782
gentle 0.105387 -0.645715 -0.557996 -0.030924 -0.468791 0.131716 0.085371 -0.135217 -0.227759 0.616262 -0.232785 -0.682346 -0.143519 -0.234165 -0.438167 0.342605 0.451335 0.001058 -0.311139 -0.395437 0.690274 -0.586666 0.164907 -0.003628 -0.327639 0.415340 -0.028484 0.116111 0.440448 0.076255 0.305127 0.382769 0.383878 0.419858 -0.379303 0.126784 -0.291855 0.049905 0.235287 0.768620 0.685157 0.107766 0.155205 -0.098980 -0.228583 0.544379 -0.169484 0.547224 -0.081470 -0.161187
word 0.388751 -0.230655 0.234204 -0.278554 0.096898 0.334335 -0.295503 -0.182275 -0.199946 0.408653 0.328389 -0.245412 -0.052751 -0.371002 -0.104836 0.165071 -0.118672 -0.167057 0.340912 0.497981 0.920892 -0.598043 -0.333665 -0.601635 -0.285870 0.177522 -0.104364 0.189008 0.449268 0.149145 -0.107384 0.674457 -0.309138 -0.683072 0.013888 0.481127 0.244432 0.275113 -0.626161 -0.188367 -0.463379 0.318532 0.528234 -0.238349 -0.300104 0.227006 -0.339597 0.478849 -0.452485 -0.113043
best 0.132032 -0.759663 -0.572425 -0.152168 0.137451 -0.119037 -0.125164 -0.190692 -0.048231 0.641932 0.248186 0.081789 -0.231557 -0.420161 0.231603 0.370893 -0.076559 0.101218 -0.003608 -0.368544 -0.222687 -0.449553 0.386044 -0.166839 -0.297629 -0.038497 0.317871 -0.094056 0.117990 0.039584 -0.000467 0.214166 -0.383441 -0.412977 -0.191661 0.054897 -0.454234 0.226372 -0.211511 -0.239987 0.031420 -0.448821 -0.307556 -0.245373 -0.253837 -0.059882 0.249089 0.249405 0.234555 0.036844
into 0.388154 -0.064597 -0.454674 -0.126425 -0.333206 0.150166 -0.777698 -0.190936 0.325188 -0.129514 0.233310 0.383444 -0.066011 0.417649 0.217344 -0.347636 0.429769 0.337746 0.381351 0.304186 -0.266313 -0.305317 0.243869 -0.564149 0.427998 0.376399 0.675821 0.184273 -0.222970 0.060075 -0.341956 0.248633 -0.286476 -0.613945 0.100107 0.229625 -0.352209 0.185310 -0.076088 0.283941 0.218100 -0.077154 0.244228 0.524018 0.127128 0.372323 0.295979 0.437456 0.422099 0.488111
queen 0.818640 -0.205662 -0.328366 -0.076829 -0.190380 0.143419 -0.117945 0.226725 -0.247887 0.688419 -0.190993 -0.449358 -0.204455 -0.283758 0.419465 0.507897 0.049264 -0.478210 -0.413780 -0.057395 0.675354 -0.921364 0.066691 0.344808 -0.100466 0.527569 -0.018492 0.046378 0.070243 0.518615 0.762866 -0.059420 -0.078916 -0.072735 -0.402803 -0.056851 0.386494 -0.005541 -0.265282 0.241242 0.568629 0.094800 0.034054 -0.279538 -0.186054 -0.016508 0.163585 0.323872 0.241697 -0.144554
none -0.024677 -0.259220 0.114851 -0.313103 0.334057 0.020464 0.327858 -0.346984 -0.096335 0.482811 -0.118355 -0.456526 0.056321 0.586267 0.304053 0.116865 -0.439449 -0.303107 0.320302 -0.349640 -0.105656 -0.262301 0.240858 -0.833354 0.131856 -0.561383 -0.541703 0.271146 0.064059 0.575238 0.073043 0.589664 -0.439603 -0.927200 -0.589950 0.380547 -0.178295 -0.087528 0.283582 -0.458132 -0.577385 -0.297327 0.282195 -0.987243 -0.859794 -0.296311 0.333179 0.037695 -0.435026 0.747123
thine 0.720505 -0.578578 -0.826689 -0.118984 0.530129 0.446947 -0.423546 -1.106219 0.016322 -0.653451 0.122033 -0.249000 0.305212 -0.443482 -0.570546 -0.271091 -0.032046 -0.031002 0.250625 -0.592389 0.097770 -0.876130 0.350046 -0.055893 0.251807 -0.098874 -0.071110 1.178909 -0.572575 -0.672797 -0.377676 0.498332 -0.735325 -0.242634 -0.873144 0.420113 -0.276784 -0.011723 -0.546603 -0.420876 0.575281 -0.159515 0.024213 1.154466 0.152187 0.642677 -0.041420 -0.159188 -0.028960 0.345402
thing 0.989431 -0.333304 0.412407 -0.774288 0.455295 0.034364 0.515812 -0.737382 -0.127725 -0.032002 0.101039 0.003515 0.017441 -0.332674 -0.040264 0.247302 -0.339203 0.038743 0.282721 0.324726 -0.071279 -0.777882 0.210146 -0.556862 0.247564 0.005787 0.154192 -0.171552 0.475452 -0.267999 0.174401 0.859138 -0.299771 -0.926814 -0.158585 0.534230 0.282087 -0.019886 -0.784388 -0.254726 -0.522668 -0.244402 1.207089 -0.502758 -0.207672 -0.155879 -0.599163 0.053635 -0.392488 0.006962
master 0.091609 -0.416568 -0.414935 -0.246952 -0.729593 -0.126735 -0.171000 -0.050361 -0.784866 1.186792 -0.043790 -0.992488 0.244117 -0.504692 0.044420 -0.047035 -0.030371 -0.067988 -0.156374 -0.391064 0.648323 -0.613464 -0.402569 0.221018 -0.472143 0.060396 -0.091867 0.190666 0.110857 0.724475 0.259517 0.416371 0.103706 0.267718 -0.462588 0.142255 0.066329 0.118430 0.200209 0.082290 0.050481 0.070082 0.230925 -0.063466 -0.436779 0.411965 0.408679 0.098588 -0.052711 -0.074132
