the 0.974406 0.268036 -1.079437 -0.506421 0.393921 -1.468166 0.897035 0.265393 -1.552307 -0.715890 -0.042002 0.288171 -0.640688 0.769758 -0.478774 1.279169 0.492413 -0.985081 0.095773 0.683699 -1.647708 2.189522 -0.067426 0.144070 -1.038378 0.264940 -0.870510 0.882050 -0.672056 -0.231438 -0.809583 -1.095144 1.804278 -0.937782 -0.053307 0.378417 -0.020601 0.459786 -1.098291 0.334359 -0.455023 -0.186266 0.752628 0.057059 -0.650417 -0.523694 0.157465 -0.663394 1.957881 1.658746
and 0.413431 -0.818177 -0.322754 -0.005195 0.514135 -1.370306 -0.575178 -0.406847 -0.238504 -0.550171 -0.144299 1.274175 -0.546371 0.632350 -1.397942 0.340451 0.434621 -0.087971 -0.790688 -0.248258 -1.016303 0.683645 -1.021416 0.063842 -0.407700 0.580721 -0.499867 0.579961 -0.946835 0.652077 -0.060217 -0.063309 1.926557 -0.840280 -1.352123 0.081456 0.378408 0.613408 0.152901 1.521850 -0.303682 -0.411356 0.148175 0.023042 0.581143 0.520917 -0.466853 -0.515905 2.451077 1.822586
i 1.328347 -0.602855 -0.564514 -0.384633 0.537272 -1.511243 -0.017259 0.134859 -1.095098 -0.498348 -0.221321 1.208673 -0.817583 0.609644 -0.892296 -0.702365 0.161377 -0.513360 -0.380098 0.752391 -1.668968 -1.221711 0.136391 0.349743 -0.395677 0.423712 -1.155729 0.605283 -0.912773 0.056361 -0.641623 0.812036 0.637416 0.238886 -1.167793 -1.311893 0.446447 0.921075 -0.711700 0.341267 0.009021 -0.533949 0.541750 -0.639783 -0.674950 0.198470 1.411297 0.019135 1.666350 1.891293
to -0.784427 -1.304804 -0.882476 -0.283289 -0.121116 -0.928154 0.170201 -0.572839 0.005492 -0.384498 -0.415801 1.335534 -0.356626 1.608400 -1.871276 0.269051 1.246910 -0.587118 -0.754332 0.533095 -0.124505 0.612782 -0.167287 -0.484924 -1.375697 0.691905 -1.761184 -0.557877 -0.725203 0.076648 0.547763 0.250218 0.563126 0.132678 -0.578394 -0.890700 0.078940 0.023483 -1.429157 1.222122 -0.312961 -0.444433 0.813521 -0.371890 -0.753040 0.249733 1.712636 -1.697595 1.798716 1.908024
of 0.697795 -1.157792 -0.442221 0.413446 0.390776 -0.878139 0.641515 0.569728 0.550136 -0.325585 1.006344 1.334648 -1.919717 0.188565 -0.611957 0.006873 1.987663 0.580254 0.307078 0.221127 -1.107264 1.284525 0.000732 0.573445 -1.292527 0.682811 -1.192363 0.868294 -0.412219 -0.307822 -0.568161 -0.776762 1.386355 -1.580264 -0.159632 -1.213871 0.074705 0.745290 -0.448523 -0.058526 0.059895 -0.518065 1.114013 0.640458 -0.019075 -0.603115 0.595967 -1.118788 2.108468 1.098865
a 1.314320 -0.922006 0.798476 0.490023 0.956207 -0.437494 -0.829112 -0.055584 -0.249123 -0.927703 -0.766134 0.168709 -0.881421 -0.244933 -0.673833 0.736128 0.593456 -0.800689 -0.088516 -0.238103 -1.219646 0.325419 0.549649 0.376999 -0.817656 -0.501535 -1.838738 -0.220301 -2.490264 -0.344222 -1.593022 0.150276 1.701415 0.472505 -0.411394 -1.622394 -0.442149 0.603832 -1.855282 -0.066081 0.252210 -1.112136 1.825906 0.164033 -0.008912 0.420644 -1.211712 -0.476380 0.557755 2.252897
you 0.878591 -0.213075 -0.646102 -0.967599 0.500537 -1.972663 1.050422 -0.126405 -0.659384 -0.801561 -0.474185 0.361992 -1.057268 0.563640 -0.263610 0.433922 0.062837 -0.757862 -0.557382 0.461065 -1.326857 -1.087659 0.362365 0.040539 -0.817197 0.605341 -1.669169 0.278740 -0.487012 -0.346751 -0.550442 0.542521 0.970025 0.220660 -0.808193 -1.096357 0.758918 1.026064 0.020133 1.353088 -0.153462 0.040288 -0.025074 0.773791 0.135976 0.307396 1.061028 0.155712 1.322924 1.342572
my 0.495049 -0.896015 0.557177 -0.527395 -0.382058 -1.751147 0.419083 0.137617 -1.023214 -0.063393 0.682731 0.415648 0.106911 0.701805 -1.390656 -0.371834 0.759335 -1.441235 0.134395 -0.399509 -2.035360 -1.128507 -0.444663 -0.508006 -1.041525 -0.086733 -1.133137 1.165750 -0.475596 0.146718 0.460435 -0.448115 0.807399 0.348271 0.387233 -0.768287 -0.779784 1.105091 -0.051718 0.502029 1.319153 0.311713 1.550909 -0.063996 0.509481 -0.382426 0.674945 -0.746240 2.056093 1.833302
in 0.077289 -0.818188 0.085033 -0.500722 1.451998 -0.823428 -0.774527 -0.626153 -0.633579 0.212144 -0.092317 0.539270 -0.811169 0.532812 -0.753007 0.290431 1.484567 -0.726235 -1.081119 1.261297 -1.277648 0.201653 0.031726 -0.207596 -1.170515 0.793569 -0.415840 0.865880 -0.151139 -0.311201 0.181733 -0.674325 1.040346 -1.390183 -1.238966 -1.044744 -1.159427 0.691278 -0.440903 0.760587 0.810852 0.055484 1.320766 -0.129963 0.126878 0.646991 -0.201862 1.173073 1.663201 1.528142
that 0.360382 -0.630542 -0.212160 0.102122 0.713577 -1.873680 0.805949 -0.488034 -0.606276 -0.334279 -0.074588 0.754013 -0.491616 0.044040 -0.574208 0.495071 0.483512 -0.498504 0.051010 0.874822 -1.304791 0.515901 0.338157 0.263486 0.024401 0.483452 -1.178163 0.510009 -1.412827 0.025087 0.374853 -0.271240 0.796450 -0.712210 0.039657 -0.095952 0.891611 -0.178197 -0.344415 0.432327 0.160114 -0.124991 1.496434 -0.130830 0.163897 1.419010 0.827326 0.228352 1.277210 1.326875
is 0.106118 -0.594022 -1.335302 0.051532 0.221976 -0.813403 0.765480 0.206435 -0.512057 0.083857 -0.503147 0.644164 0.421381 0.966437 -0.585398 0.279374 0.840300 -0.522934 -0.154012 -0.359006 -1.874086 0.308200 -0.231901 -0.835922 -1.009472 0.222574 -1.650847 0.146411 -1.602421 -0.659155 -0.377468 -0.166684 0.307965 -0.302990 -0.862148 -0.640685 -0.585936 -0.192774 -0.694573 0.147882 0.589110 -0.367281 1.045344 0.956894 1.449523 1.757073 0.144060 0.076129 1.761810 1.116275
not 0.284491 -0.726409 -0.013478 -0.290813 0.839733 -0.748048 0.540661 0.106542 -1.204457 0.153079 -0.766602 1.175557 0.224716 0.555836 -1.350596 0.964975 0.142452 -0.624932 -0.185015 0.538950 -1.121448 -0.726496 0.514415 0.558415 -0.529515 0.810420 -1.445050 0.325585 -1.486701 -0.121581 -0.122657 -0.210716 0.519134 -0.044486 -0.350719 -1.146477 0.300988 0.555307 -0.139681 0.083792 0.701286 -0.452359 0.752895 0.627708 0.350413 0.781850 1.989770 0.081285 1.463751 1.155146
with -0.077966 -0.891973 0.146841 0.547203 1.108862 -1.349004 -0.341205 -1.162156 -0.105574 0.669317 -0.162929 0.818294 -0.152294 -0.415725 -1.394915 2.450466 -0.248112 -0.981986 -0.307541 -1.025367 -2.107798 0.059895 -0.523558 0.325412 -0.847445 0.678604 -1.948046 0.152572 0.386088 -0.718880 -0.022855 -0.633418 0.788967 -1.312237 -0.421534 -0.113098 1.084079 0.966838 -0.967721 1.199238 -0.150527 0.026729 0.796587 -0.606442 0.106850 0.663179 0.660551 -0.636284 0.216670 0.939501
me 0.360389 -0.168005 -0.472399 -0.323675 -0.055676 -0.771642 -0.125005 -0.782264 -0.677424 -0.499054 -0.702370 0.985087 -1.040657 0.636407 -0.414727 0.583474 0.097053 -1.026870 -0.122349 -0.225292 -1.349137 -0.795713 0.682572 0.124611 -0.677059 0.304032 -0.900982 0.920457 -1.084116 -0.675606 1.001287 0.293993 1.055279 -0.192367 0.277524 -1.006553 0.698782 0.316434 0.056357 0.915312 0.097913 1.118993 0.851098 -0.260034 -0.199259 1.234230 1.510753 -0.466644 1.025952 1.834500
for 0.256419 -0.138184 0.113393 0.636848 0.152482 -1.948333 0.665406 -0.868981 -0.381850 -0.316810 -0.318610 0.707668 -1.449268 0.209639 -0.804856 0.515984 -0.405812 -1.159998 -0.770961 0.393393 -0.902551 0.265261 0.463400 -0.543038 -1.805315 0.344295 0.201254 1.478311 -0.702358 -0.611315 -1.015195 0.482887 -0.130969 -0.702922 -1.129473 -0.498253 0.998382 0.144257 -0.952669 -0.038585 -0.044599 -0.280422 1.164625 -0.177204 0.898897 0.681709 0.619408 -0.316341 1.250768 2.443381
it 0.262818 -0.397989 -0.878703 -0.414708 0.029301 -0.813600 0.755085 0.036899 -1.178127 -0.045839 -1.064821 0.902463 -0.195270 0.290171 -0.436866 -0.246996 0.249422 -0.291989 -0.386165 0.433206 -2.348302 -0.318539 0.475550 0.104358 0.051706 0.257090 -0.934771 0.050431 -2.061781 -0.591160 0.590677 -0.155723 0.031037 -0.282063 -0.776347 0.166178 0.073397 0.664468 -1.291620 0.063454 -0.082907 -0.408445 0.965095 0.581060 0.144005 1.279395 0.813722 -0.742597 1.772843 0.757745
his -0.524893 -1.215201 0.756058 -0.891087 1.697107 -0.813844 0.558873 0.299873 0.315295 1.027788 -0.133764 1.921702 -0.343391 -0.082464 -1.044287 -0.537221 0.276540 -0.536233 -0.301899 0.079669 -1.626368 0.632754 -0.192645 -1.027741 -1.256201 0.128500 -0.797041 0.154216 -1.209752 -0.663309 -0.039356 -0.197407 1.308014 0.199268 0.535146 0.945323 0.987453 0.717643 0.041505 0.737791 0.482130 0.246012 1.908614 0.173500 -0.157075 -0.266546 -0.306227 -0.779668 1.314056 1.632997
be -0.765265 -0.350065 -0.438138 -0.781144 1.406625 -0.818186 -0.646865 -0.925042 -1.472846 -0.650984 0.372667 0.244815 -0.634672 0.509163 -0.645363 0.338295 0.593189 -0.588978 0.130475 -0.329348 -0.153126 0.682352 0.209954 0.058338 -0.890073 -0.148952 -1.814490 0.570965 -1.105761 -0.454774 -0.822769 0.181716 0.139353 0.055379 -1.330062 -0.693416 0.089295 1.601429 -0.365231 0.724439 0.053730 -0.208140 0.777886 0.247284 1.527095 0.804633 1.224374 0.177785 1.829300 0.836954
your -0.067733 -0.137448 -0.393774 -0.083618 -0.151423 -1.626339 0.898850 -0.026913 0.227982 0.016729 -0.707498 1.023801 -1.289931 0.039940 -0.810155 0.145449 0.018013 -0.255009 -0.834996 0.481986 -1.891356 -0.024606 0.539471 -1.167916 -1.221266 0.235506 -1.268451 -0.287899 0.359056 -0.231605 -1.209521 0.815988 0.190168 0.820650 -0.684553 0.042792 0.108555 1.339174 -0.598216 0.962467 1.279483 0.302286 0.335564 0.848474 0.211995 0.171389 0.353076 -0.533951 1.413820 1.436228
he -0.273132 -0.797019 0.200760 -1.442058 2.104165 -1.349185 1.213021 -0.013157 -0.398821 0.507720 -0.000350 0.996589 0.139884 0.815987 -0.416208 -0.208659 0.053050 -0.828620 -0.963311 0.508983 -1.116729 -0.548716 0.141354 -0.022737 -0.784298 -0.128281 -1.331365 0.051820 -1.628501 -1.043460 0.229578 -0.580571 1.139312 -0.174080 -0.107849 -0.007795 1.255794 -0.258005 0.238975 0.401747 -0.202528 -0.285411 1.444914 0.464706 0.525174 1.010644 -0.126516 0.047520 1.464245 1.363473
this -0.255623 -1.454927 -0.380704 0.034944 0.766381 -1.287379 0.763383 0.137273 -1.009681 -0.574499 0.159046 0.140580 -1.397504 0.113973 -0.814422 1.057961 1.915056 0.065206 -0.201202 -0.119401 -2.300667 -0.075931 0.182602 -0.032044 -0.387014 -0.131150 -1.242006 0.551415 -0.593226 0.117535 -0.508446 0.877801 0.794697 -0.712277 -0.453661 -0.779850 -0.499385 0.008650 -0.601523 -0.047495 0.085491 -0.771927 0.600703 -0.314134 -0.107103 1.080062 1.127277 -0.542566 0.809651 1.286177
but 0.602358 -0.809268 -0.048102 -0.223905 0.557453 -1.318095 0.743121 -0.168962 -0.779182 -0.085315 -0.299951 1.110956 -0.131942 0.029410 -0.813756 0.520437 0.236419 -0.545819 0.042628 0.114872 -0.856182 0.120637 0.695052 0.049530 -0.636109 1.174772 -0.805537 0.474906 -1.040664 -0.258067 0.019402 -0.296894 -0.007082 -0.185820 -0.650400 -0.187900 0.623510 0.015085 -0.305537 0.306342 -0.024574 -0.683932 1.385766 0.312457 0.737097 0.667196 0.731583 -0.210137 1.217580 1.368724
have 0.538795 -0.094766 0.811532 -0.104883 0.680615 -1.826290 0.105730 0.192781 -1.015116 -0.615266 0.257636 1.669138 -0.198134 0.658646 -0.364468 -0.365167 0.111054 -0.998283 0.130507 0.110807 -1.146260 0.549120 0.551167 0.075605 0.128233 -0.043563 -1.268207 0.483966 -0.047349 -0.833855 -0.226055 -0.349681 0.634851 -0.128585 -2.076060 -1.569532 0.572529 1.350761 -0.380879 0.629554 -0.305525 0.033105 -0.110772 0.419376 -0.143255 1.035499 0.759266 -0.192809 0.994463 1.451763
as 0.138325 -1.707184 -0.445189 -0.784624 0.154530 0.154268 0.363725 -1.484950 0.349926 -1.143987 0.199538 1.426556 0.114477 -0.857114 -1.134928 0.436510 0.811834 -0.836985 0.013077 0.959855 -1.413223 -0.042586 0.206357 0.211880 -1.009971 0.071932 -0.878949 0.135454 -0.893782 -1.534676 -0.383479 -0.088915 0.554094 -0.267210 -1.018406 -0.462036 0.537076 0.910580 -0.957534 -0.219110 0.513092 -0.927554 0.246795 -0.150406 0.343540 0.306590 -0.271391 0.296230 1.811710 0.940762
thou -0.426936 -1.444410 -0.021175 -0.166884 0.123082 0.108643 -0.970747 -0.743770 -2.267064 -1.114204 0.144291 2.251609 -0.228702 -0.091117 -0.987303 1.416985 -0.069361 -0.369253 0.624218 0.203015 -0.761132 0.580768 -0.120226 -0.089734 0.257875 0.197781 -0.216923 1.880498 -1.173175 -0.255561 0.151294 0.847734 0.666676 -0.066939 -0.357561 -2.054693 0.142854 -0.260574 -0.662225 -0.505841 0.618460 0.946321 0.777629 0.134808 -0.017523 0.717484 0.975116 0.289600 1.017415 2.155686
him -0.169709 0.130049 0.202905 -0.942915 1.417956 -0.449113 0.892813 -0.575203 -0.539988 -0.441341 0.020509 1.746405 -1.601884 0.405986 -0.572534 0.327968 -0.432715 -0.652460 -0.941730 -0.156464 -0.879373 -0.713496 0.492670 0.355154 -0.788519 -0.138699 -1.308650 0.147740 -0.906157 -0.888911 0.912427 0.138995 1.505506 -0.500021 0.406739 -0.938557 0.974879 0.077832 -0.706549 0.625237 -0.119836 -0.134538 0.511044 0.013721 0.177269 0.774603 0.344736 -0.697879 0.853537 1.107540
will -0.155997 -0.552069 -0.777644 -0.465707 1.043468 -0.747697 0.072223 -0.385547 -1.107874 -0.257089 -0.681407 0.650991 -1.065856 0.090081 -1.389075 0.521389 -0.164256 -0.048699 -0.902732 0.230211 -1.232819 -0.651478 0.586748 0.514577 -0.645096 0.396156 -1.281381 0.867737 -1.210508 0.325791 -0.217626 -0.022439 0.736674 0.152338 -0.377143 -0.103193 0.089062 1.275016 -0.930027 1.068054 -0.070676 -0.089489 0.305662 0.571516 0.504172 0.060376 1.148315 -0.345459 1.564637 1.124124
so 0.093955 -1.342400 -0.194027 -0.045521 -0.023842 -0.349732 0.441136 -0.790043 -0.775580 -0.831872 0.300001 1.303636 0.279727 -0.142332 -0.571347 0.190093 0.471839 -0.965766 0.083888 0.638705 -0.890301 -0.064694 0.464210 0.608850 -0.230595 0.181634 -1.362472 0.375722 -1.216932 -1.188279 0.025761 -0.036081 0.502785 -0.067662 -0.884871 -0.269025 0.418229 0.921073 0.025643 0.256167 0.509111 -1.184199 0.565038 0.077932 0.783882 0.844237 0.385961 -0.516657 1.432997 1.577660
her -0.029513 0.041564 -0.347656 -0.421760 0.315688 -1.265457 -0.432796 -0.643157 0.607806 0.358720 0.283749 0.976005 -0.893937 -0.183516 -0.676225 0.878584 1.115927 -0.768338 -0.830967 0.588076 -1.107081 -0.164453 1.098026 0.336354 0.505563 -0.044122 -1.263891 1.068793 -0.883883 -1.248690 -0.300663 -1.060571 0.422771 0.916659 0.177067 -0.364896 0.465309 0.394805 0.352917 0.928648 1.190759 0.285773 0.736818 -0.917953 0.083817 0.505706 0.086093 -1.343135 1.316704 1.130053
thy -0.787863 -0.749656 0.560881 -0.566393 -0.235984 -0.484075 -0.856563 -0.583841 -0.709507 0.113622 -0.156104 2.008303 -0.484439 -0.751776 -1.147233 0.741467 0.723278 -0.642892 0.640129 -0.361328 -1.746258 0.698932 -0.364615 -0.223655 -0.257996 0.347572 0.089166 1.318957 -0.595977 0.051442 0.358326 0.201185 0.217542 0.097663 0.440159 -0.344319 -0.644209 0.372183 -0.806237 0.114789 1.331229 0.475507 1.745440 -0.641988 0.023956 -0.009913 0.784804 -0.240552 1.559737 1.729192
all -0.681675 -0.625440 -0.338421 -0.211190 -0.180670 -1.371331 0.063814 -0.307197 -0.462447 -0.503068 0.720773 0.625260 -0.060697 0.359287 -0.379647 0.175149 0.823069 -0.321651 -0.330592 0.024687 -0.985727 0.706583 0.625913 0.121765 -0.868825 0.869615 -0.407733 0.498185 -0.160730 -0.419268 1.071809 -0.521511 1.074286 -0.343456 -0.530181 -0.370083 0.457705 0.951883 0.162071 1.011920 -0.481089 -0.525159 0.547609 0.060906 0.670256 0.488397 0.474297 0.006130 1.552028 2.034826
what 0.275283 -1.437646 -0.731975 -0.143763 0.570518 -1.058576 1.096282 0.382102 -0.859358 -0.204318 -0.176010 1.151381 0.091717 0.491547 -0.155428 0.766977 0.419470 0.082834 0.204372 0.570516 -1.516201 0.392071 0.652985 -0.011154 -0.096745 0.665749 -1.149144 0.657257 -0.423050 0.058004 0.408020 -0.025873 0.574037 0.125468 -0.253980 -1.313611 -0.211340 0.175739 -0.553001 0.146009 0.420980 0.486611 0.547651 0.792305 0.894839 1.016547 1.199927 -0.215739 0.410892 1.700366
by 0.064131 0.162093 0.602697 -0.661948 1.309213 -0.893028 0.689211 -0.122012 -0.587219 -1.215292 -0.435906 0.610070 -0.667904 0.249808 -0.890552 0.537628 1.651945 -0.989993 0.686118 -0.373508 -2.001535 0.932606 0.744372 -0.957784 -0.056641 0.154363 -0.954842 0.422493 -0.826140 0.043598 -0.282156 0.156974 0.900314 0.271641 -0.601268 -0.188346 0.644714 0.077367 0.245570 0.651392 0.219969 0.054658 -0.152057 -0.029692 0.583513 1.193019 0.905331 0.418130 1.180853 0.880441
do 0.485753 -0.556594 -0.705717 -0.393428 -0.057456 -0.744076 0.834191 0.377409 -0.511403 -0.616363 -0.229961 1.097853 -0.584727 -0.360252 -1.012342 1.029227 0.024459 -0.243215 -0.356268 1.091953 -1.255431 -0.966517 0.280586 0.735877 -0.208826 1.000030 -0.481313 0.159522 -0.533557 0.177479 0.464204 0.276419 0.732727 0.132447 -0.061359 -0.922016 0.569977 0.980425 -0.633441 0.766869 0.697766 -0.636956 0.171545 0.593650 -0.623952 0.221762 1.753848 -0.043291 1.284159 1.705040
shall -0.582315 -0.572572 -0.647860 -0.651975 1.229467 -0.579907 0.114294 -0.027892 -1.003213 -0.601215 -0.175067 1.026199 -1.159550 -0.699294 -0.861367 0.651211 0.600652 0.279459 -0.654938 0.093554 -0.784343 -0.148795 0.920459 0.366724 -1.126120 0.176426 -1.053123 0.770235 -0.629674 0.081078 -0.221339 0.047296 0.464727 0.346840 -0.806311 -0.303717 -0.264564 1.120426 -0.663674 0.902303 0.229392 -0.227539 0.574176 0.320898 0.152203 -0.187885 1.381537 -0.276813 1.690818 0.884220
are 0.440209 -0.367020 -0.731432 -0.414329 0.203321 -1.394090 0.733565 -0.367949 0.319441 -0.643245 0.217899 0.514929 0.972794 -0.230927 -0.193568 0.131519 0.473740 -1.150402 -0.433784 0.192129 -0.629484 1.410310 -0.154426 0.308872 -1.317841 1.248555 -1.487533 0.264441 0.006908 -0.636274 -0.052407 0.461744 0.035740 -0.246630 -1.035564 -0.662231 0.332946 1.527953 1.069493 1.014647 0.203331 -0.360460 0.530550 0.645815 1.009553 0.466008 0.910820 1.149483 1.262536 1.799194
we -0.713180 -0.356846 0.164099 -0.301281 0.981762 -0.910061 1.208689 0.021395 -1.250473 -0.835098 -0.338779 1.521390 -0.549516 -0.628638 -0.126290 0.600932 0.375400 -0.511371 -0.795478 0.087556 -0.689687 0.276802 0.944066 0.467840 -0.567798 0.390113 -1.114984 0.295369 -0.326925 -0.055018 0.343896 -0.116019 0.334257 0.010710 -1.342828 -0.253338 -0.252736 0.974431 -0.063452 1.028560 -0.065430 -1.084505 0.217819 0.632987 0.172182 -0.377042 1.129415 0.231446 0.992781 1.048190
no 0.996180 -0.537361 0.372998 -0.982862 1.186208 -1.661966 0.039459 1.018426 -0.694184 0.302892 -0.645551 0.828284 -0.388298 0.427447 -0.325540 0.972501 0.329900 -0.317490 -0.557499 0.346193 -1.475696 0.048483 0.030269 -0.163423 -0.163531 2.319862 -0.128542 0.453264 -1.024648 -0.627384 -0.423066 0.541539 0.123528 -0.042525 -0.794609 -0.924565 -0.388991 0.507639 -1.309556 0.110778 -0.641395 -0.310038 1.708833 0.313089 1.410577 0.458269 0.924076 -0.506354 1.120040 0.706947
thee -0.016668 0.142211 -0.675062 -0.582763 -0.070649 -0.540051 -0.333202 -0.685880 -1.162093 -0.793712 0.010931 1.829213 -1.342097 -0.066681 -0.698187 0.574422 -0.035756 -0.187198 0.186353 0.034131 -0.934328 -0.643291 0.159116 0.102231 -0.352528 0.788636 -0.582410 1.413309 -0.587544 -0.657802 0.666689 0.700488 0.622468 -0.272756 0.040935 -1.478414 0.521741 -0.028318 -0.814330 0.604780 -0.284795 0.636902 1.242095 -0.631179 -0.278950 0.586703 1.056388 -0.258112 0.846926 1.559748
if -0.150140 -0.692861 0.175144 -0.890850 0.584880 -0.662011 0.425687 -0.508916 -1.235554 -0.567601 -0.133437 0.911367 -0.396204 0.046864 -1.113052 0.813523 0.141627 -0.345535 -0.364189 0.493942 -0.911690 -0.139815 0.752631 -0.260366 -0.209301 0.346480 -0.542161 0.673622 -1.153719 -0.333287 -0.237567 0.044682 0.490599 0.344714 -0.789025 -0.944024 0.519103 0.660552 -1.131721 0.145702 0.491155 0.143031 0.160334 0.646950 0.703883 -0.000550 1.297352 0.160614 1.475235 1.175269
on -0.616104 0.921139 -0.918938 -1.110328 0.821407 -0.668393 0.612214 0.221239 -0.110620 -0.206893 0.683207 0.966017 -0.401670 -1.184638 0.037014 0.658873 0.896882 -1.291685 0.022467 -0.578588 -1.345081 -0.104747 -0.655764 -0.310250 0.318574 0.818086 -1.037818 0.372137 -0.455809 0.350938 -0.130274 -0.787475 0.156975 -0.205239 -0.271102 -0.988061 1.057977 0.016681 -0.769902 0.799315 -0.050252 -0.718530 1.083883 -0.347778 -0.682115 0.167003 -0.596716 -0.485713 1.534131 2.261790
our -1.176615 -0.335342 0.421569 0.097222 0.261347 -1.048418 1.254171 0.833586 -0.219630 -0.407259 -0.110449 1.379349 -0.436301 -0.291626 -0.444209 0.852093 0.797537 -0.615401 -0.844738 0.163403 -1.107301 1.512823 0.520467 -0.138769 -0.971096 0.559383 -0.623301 -0.079834 0.548817 -0.079777 0.315147 -0.101052 0.094255 0.365756 -0.665847 0.128714 -0.829655 1.709345 0.646987 0.961292 0.575205 -1.163120 0.974033 0.468925 0.162365 -0.660346 0.400447 0.502635 1.419180 1.058014
lord 0.753783 -1.130853 -0.125825 0.012112 -0.575489 -0.878737 1.090907 0.450901 -1.070117 -0.775633 1.423853 0.727749 -0.089671 0.919746 0.343279 0.121338 -0.039550 -0.190476 -0.513635 0.055363 -1.287687 -0.700531 -0.468157 -0.636814 -0.598067 -0.281242 -1.829772 0.308893 -0.340249 -0.296003 0.872270 0.359086 1.661304 -0.251792 -0.294234 -0.584658 -0.218743 0.526879 -0.878753 0.590837 0.372909 -0.053567 0.237662 0.464085 1.361359 -0.801058 0.475984 -0.707302 1.782906 1.320901
from 0.027502 -0.801026 0.330365 0.123536 0.163129 -0.960889 1.218207 -0.594409 -0.635686 -0.899680 0.645070 1.041786 -0.588929 -0.070082 -0.930727 -0.258414 1.658141 -0.453058 -0.969364 0.327981 -1.659891 0.265751 0.586388 -1.124261 -0.530676 0.981356 -1.752704 0.681366 -0.239258 -0.556180 0.600654 0.733636 1.403568 0.066684 0.078036 -0.532774 0.215275 0.383446 0.641351 -1.035071 -0.772081 0.348955 0.555232 -0.995537 0.103771 -0.282777 -0.089750 -0.172648 1.397027 0.509159
she 0.191319 -0.101149 -0.576372 -0.697728 0.388507 -1.152161 0.030352 -0.407049 -0.064089 0.075832 0.400585 0.592565 -0.035376 0.446818 -0.382034 0.675444 0.982626 -0.661621 -0.987599 0.851365 -0.854333 -0.540032 0.888619 0.959012 0.514805 -0.115701 -1.211317 0.531633 -1.475142 -1.509473 -0.011323 -1.474225 -0.115666 0.776259 -0.569508 -0.089366 0.879647 -0.629102 0.392848 0.379756 0.449513 -0.127207 0.961960 -0.367893 0.982070 1.291352 -0.064074 -1.067654 1.494714 1.100752
now 0.010225 -0.262229 -0.525930 -0.509296 0.322806 -0.756270 0.507719 0.285366 -0.758725 -0.145006 -0.311694 0.979462 0.160058 0.466584 -0.227084 0.470182 0.477342 -0.368974 -0.433229 0.014344 -1.466554 0.484383 -0.268047 0.067169 -0.491542 0.322586 -1.086501 0.571694 -0.375619 -0.257238 -0.025056 0.138996 0.289535 0.443782 -1.001600 -0.190846 0.271387 -0.344477 0.088338 0.278934 0.181834 0.011751 0.603237 0.193333 0.280562 0.268857 0.800824 -0.041258 0.989279 2.259792
sir -0.182421 -0.516551 -0.351461 -0.722613 -1.262447 -1.087812 0.316926 0.023451 -0.400746 0.223942 -0.454529 0.995482 -1.066141 -0.379422 1.036441 0.167763 -0.054262 -1.376111 -0.803876 -0.070721 -1.286048 -1.170370 -0.108077 0.412621 -0.100677 0.366667 -1.600140 0.308776 -0.575986 -1.301618 -1.080128 0.677402 0.955580 -0.567495 -0.885527 -1.139648 -0.200121 -0.879196 -1.277650 0.858787 0.401443 0.041050 0.062685 1.964421 0.513793 -0.348118 0.974124 0.095901 0.949914 1.498269
good 0.224794 -0.898825 0.237288 -0.731298 -0.812054 -0.773873 0.328495 0.056994 -0.687136 -0.242857 -0.429096 0.921361 -0.946326 0.396447 -0.216686 0.023757 -0.100726 -0.465973 0.608348 0.282502 -1.830972 -0.306371 -0.056482 0.006824 -0.498600 -0.048853 -1.002130 0.688291 0.363447 -0.999982 0.133678 0.285328 1.028761 0.360200 -0.947519 0.408154 -0.591936 0.038413 -0.605146 1.407702 -0.012602 0.021775 0.582766 1.087158 1.476591 -0.197436 0.168422 -0.245919 0.862607 1.719692
at 0.818632 -0.808170 0.024680 -0.794708 0.699849 -0.409869 1.048280 -0.838698 -0.423107 -0.073070 -0.549713 1.283431 -0.337264 -0.531166 0.503690 0.643861 0.298013 -1.204539 -0.861134 -0.603119 -0.943206 -0.204617 1.129143 -0.606380 -1.251145 -0.166795 -0.165535 0.795805 -0.731674 -0.229801 0.127524 0.472248 -0.130275 -0.883528 -0.763734 0.261558 0.148987 -0.602939 0.097120 0.582112 0.617050 0.154568 -0.298612 -0.135812 -0.566990 -0.362965 -0.091787 -0.215720 2.057884 2.967183
they 0.716140 -0.114394 0.015064 -0.268797 0.852734 -0.893144 1.251879 -0.645013 -0.383251 -0.946214 0.154559 1.074433 0.321800 -0.742406 -1.029672 -0.040299 0.048050 -1.029313 -1.139225 0.913622 -0.676823 0.414812 0.429701 0.594783 -0.302259 0.824773 -0.987692 0.244541 -0.541447 -0.093680 0.690820 -0.411218 0.050688 -0.504232 -1.007177 -0.686088 0.617856 1.031975 -0.643683 0.510942 0.351232 -0.600871 -0.190674 0.011444 0.090002 0.185593 1.046939 0.630431 1.081196 1.703407
or 0.414838 -0.435089 0.573393 -0.855040 1.028337 -0.379832 -0.375757 -0.348692 -0.726030 -0.550021 -0.201690 0.181451 -0.208585 0.028112 -1.088801 0.514293 0.671306 -0.692197 0.411956 -0.573156 -1.067088 0.912630 1.574636 -0.476158 -0.791790 0.968839 -0.961137 0.190872 -1.071942 -0.510525 -0.069068 0.046567 -0.286763 0.149006 -0.334490 -0.370174 0.526160 0.039938 -1.552564 0.169891 -0.199876 0.249618 0.337048 0.130395 0.626742 -0.217160 0.916016 -0.472055 1.300681 0.940786
was 0.811212 -0.627947 -0.035333 -0.176127 0.806464 -1.530217 0.649540 -0.038501 -0.902637 -0.440161 0.579417 1.223981 -0.156965 0.620261 -0.026046 -0.285342 0.660006 -0.825101 -0.380511 0.495967 -1.288360 0.319999 -0.010929 -0.305020 0.110376 -0.457760 -1.599875 -0.206462 -1.241859 -1.417534 -0.678394 0.575298 -0.394031 -0.883591 -1.107949 -0.227874 0.378348 -0.643412 -0.905973 -0.039855 0.519982 -0.236415 1.148569 -0.846524 -0.086979 0.792241 0.511513 0.332456 1.234804 0.564371
which 0.013234 -0.205352 0.135399 0.014452 0.597741 -1.301269 0.419176 -0.035460 -0.153820 -0.151168 -0.146829 1.100170 -0.473904 -0.064587 -0.804836 -0.121498 1.062883 -0.556665 0.161854 0.645565 -1.459205 0.913515 0.879471 -0.097465 -0.482679 0.300933 -0.364309 0.112317 -0.886799 -0.555347 0.301407 -0.525287 0.266118 -0.470625 -0.278742 -0.020182 0.317094 0.194468 -0.230139 0.486455 0.390988 -0.195702 0.608210 0.114066 -0.499076 1.104188 0.455617 -0.359406 1.274310 1.225313
more 0.792349 -0.412835 -0.049743 -1.017794 0.950981 -0.687749 0.107926 0.379744 0.167781 -0.167710 -0.342735 1.172758 -0.567381 0.319736 -0.798464 1.457901 0.066459 0.000096 0.013114 0.088612 -1.338747 0.030447 0.347327 -0.077269 -0.711372 1.193928 -0.460015 0.339907 -0.531030 -1.251864 0.351680 0.403497 -0.647781 -0.557426 -0.501661 -1.545228 -0.249920 0.618144 -0.855493 0.955044 -0.238406 -0.120441 1.039722 -0.540670 0.887046 0.498798 -0.091355 -0.297825 1.512581 0.431535
would 0.616896 -0.073090 0.772334 -0.853111 0.189241 -0.828423 0.304266 -0.691605 -0.874795 -0.370384 -0.232188 0.813393 -0.303790 0.097180 -1.088035 -0.231222 0.387172 -0.710837 -0.103880 1.003166 -1.068145 -0.338035 0.885052 0.559048 0.102272 0.376165 -0.889512 -0.101293 -0.895432 -0.676261 -0.062841 -0.249499 0.766372 0.377656 -0.766213 -0.470964 0.823127 0.955671 -0.931411 -0.081501 0.147758 -0.352280 0.092666 0.113812 -0.006969 -0.001853 1.276031 -0.395027 0.793010 1.304999
love 0.476137 -0.403037 -0.226344 0.097189 -0.104685 -0.687508 0.245415 -0.744599 -0.371456 -0.090984 0.146500 1.118312 -0.490114 0.155915 -1.334713 0.934323 0.334032 -0.331975 0.077620 1.358102 -1.299740 -0.702739 0.057200 0.204458 -0.631481 0.376507 -0.354591 0.747549 -0.385284 -0.994017 0.222600 -0.444225 0.204996 -0.096280 -0.345487 -0.277722 0.324896 0.192029 0.112335 0.481144 1.063338 -0.303488 0.649854 -0.668110 0.831605 0.743405 0.796025 -0.343246 1.361130 1.096787
come -0.104051 -0.533050 -0.692969 -0.505199 0.242935 -0.348747 0.684875 -0.066272 -0.432929 -0.114841 -0.831761 0.925143 -0.322156 -0.226208 -0.581018 0.252665 0.353631 -0.544544 -1.071388 -0.020827 -1.288244 -0.100617 -0.095669 -0.050368 -0.117493 0.647600 -2.015309 0.852016 -0.415021 -0.418069 0.302849 0.412060 0.610141 0.333703 -0.772568 -0.888995 -0.795194 0.251558 -0.410632 0.790149 -0.357904 0.081585 0.339966 0.074066 0.530235 -0.590095 0.955276 0.013083 0.202753 1.691214
their -0.452514 0.199286 0.178819 0.094161 0.238558 -0.907053 0.958438 0.277235 0.215365 0.029302 0.030395 1.370145 -0.603470 -1.019316 -1.762285 -0.200019 0.393697 -0.353964 -1.218708 0.920128 -1.202881 2.047153 -0.229560 0.360130 -0.464207 1.084411 -0.221792 0.069747 0.428485 0.111543 0.862042 0.248338 -0.578477 -0.633693 -0.466802 -0.180520 0.351257 0.962034 -0.420331 0.650647 0.680339 -0.694573 0.263729 0.244299 -0.277692 0.186531 -0.024282 0.993096 1.558328 1.289787
am 0.430827 -0.605168 -0.601063 -0.152203 -0.014133 -1.073586 -0.405235 -0.492595 -0.612222 -0.237564 -0.137856 0.457427 -0.434590 0.801128 -0.402096 -0.508050 -0.058222 -0.752578 -0.122641 0.121417 -0.337235 -0.352297 -0.630309 -0.338431 -1.359174 0.464441 -1.685048 0.058852 -0.988425 -0.999858 -0.932282 1.746214 0.083075 0.227656 -0.597380 -1.488251 0.679169 0.332766 0.416405 -0.221198 -0.037719 -0.689236 1.052710 -0.183135 0.491591 1.265264 1.557955 0.512777 1.694087 1.701223
let -0.564892 0.340490 -0.718260 -0.188091 0.299010 -0.038820 0.242225 0.124515 -0.505702 -0.481945 -0.424482 0.888413 -0.971909 -0.357475 -0.867784 0.872965 0.057189 -0.004255 -0.877316 -0.587577 -1.481670 0.041237 0.323624 0.572666 -0.521770 0.592955 -0.733229 0.699393 -1.067987 -0.165602 0.438980 0.417757 0.632993 0.031109 -0.356367 -0.450272 -0.210248 0.839772 -0.298943 0.742777 0.161890 -0.147071 0.459202 0.361102 0.943439 0.104248 0.849880 -0.261209 0.946540 1.343941
here 0.425698 -0.381191 -0.031907 -0.017782 0.907565 -0.910960 -0.066507 0.326784 -0.728914 -0.094596 -0.513169 0.704635 -0.856236 -0.030123 0.390792 0.281923 0.994448 -0.841441 -1.414892 -0.420641 -1.274626 -0.126537 0.433668 -0.241150 -0.445841 0.785224 -1.137316 0.364337 -0.105753 -0.080868 0.147529 0.174336 0.818541 0.022587 -1.058307 -0.360970 -0.103924 -0.538249 -0.196132 0.080309 0.498994 -0.242573 0.671705 0.943312 0.273436 0.261401 0.852128 0.157785 0.310044 1.933681
there 0.585664 -0.456358 -0.196577 -0.456312 0.826663 -0.726482 0.296121 -0.059089 -0.707899 -0.073310 -0.179755 0.738556 -0.398326 -0.121200 0.021203 -0.332110 0.931076 -0.756113 -1.267170 -0.130530 -0.729648 0.134456 0.876953 -0.105752 -0.303024 1.005387 -0.953423 0.734868 -0.382327 -0.486106 -0.188593 -0.294599 0.212424 -0.248222 -1.244755 -0.570775 -0.278153 -0.433823 -0.737656 -0.281231 0.191295 -0.234707 0.644349 0.891653 1.027647 0.390626 0.176910 0.216197 0.727852 1.797364
them -0.042473 0.965186 -0.373626 -0.545237 0.373815 -0.692750 0.341511 -0.363359 -0.279404 -0.422475 -0.143147 1.127156 -0.757025 -0.199679 -0.808794 -0.103864 -0.067573 -0.591689 -1.194282 0.379284 -0.837678 0.504888 0.717042 0.683515 -0.407199 0.722688 -0.885547 0.121345 -0.466546 -0.547552 1.507224 -0.137128 0.808796 -0.486238 -0.033685 -0.589352 0.307635 0.873875 -0.558133 1.061539 -0.141536 0.199022 0.210837 0.228764 -0.089313 0.599557 0.459841 0.019108 1.002312 1.617833
when 0.565787 -0.466694 -0.201580 -0.321314 0.894902 -0.529062 0.537862 -0.302442 -1.059443 -0.529542 -0.015608 1.053866 -0.131499 -0.028648 -0.608940 0.825184 0.049338 -0.424562 -0.288146 0.748573 -0.963507 0.337424 -0.060975 0.199532 0.098976 0.343600 -0.750602 0.359539 -1.045895 -0.420369 0.244559 0.000692 -0.310283 -0.549274 -1.265920 0.144835 0.453368 -0.130404 0.027236 0.725071 -0.014167 0.013220 0.769750 -0.187777 -0.185258 0.347805 -0.102730 -0.019269 1.213925 1.603181
enter 1.110285 -0.188052 -0.869443 0.726835 0.248560 0.329779 -0.407553 0.058483 -0.426490 0.318178 -0.410018 0.605147 0.198955 -0.019216 0.582000 0.900994 0.419040 -0.085045 -1.072073 -0.991742 -0.997889 0.057151 -0.437759 -1.349813 -0.988659 0.165006 -1.477471 0.316288 0.120629 -0.078318 0.601633 -0.913738 2.231131 -0.160742 -0.949221 -0.405923 -0.467796 -0.055206 -1.217802 0.860089 -0.509577 -0.976028 -0.148859 -0.376515 0.861497 -0.863784 0.900553 0.368873 0.134872 2.769046
then 0.039370 -0.255138 -0.257913 -0.074112 0.420370 -0.355061 0.419969 0.228545 -0.769157 -0.415819 -0.097441 0.928603 0.141963 -0.063472 -0.743167 0.578309 0.065777 -0.438297 -0.983291 0.277820 -1.212452 0.033109 0.339309 0.239955 0.137171 0.141097 -0.683512 0.361479 -1.329795 -0.226803 0.367520 -0.048781 -0.039961 0.219394 -0.831570 -0.101243 0.100018 0.402486 -0.557137 0.229785 0.176407 0.011394 0.783272 0.109598 0.498388 0.188167 0.525682 0.020643 1.310002 1.574147
can 0.547348 -0.647132 -0.167838 -0.931578 0.701243 -0.968870 0.258145 -0.026598 -1.101862 0.110278 -0.387786 0.555368 -0.568753 -0.049053 -0.598818 0.851666 0.487409 -0.227421 -0.517694 0.668644 -0.637771 -0.347806 0.979773 0.864293 -0.383933 1.524168 -0.940468 0.584551 -0.707242 -0.447831 0.036628 0.211933 0.507586 0.092251 0.322821 -0.431782 -0.059725 0.918678 -0.292506 0.340111 0.504026 -0.190833 0.673842 0.251591 0.301953 0.325075 1.452445 -0.339033 1.371607 0.380838
hath -0.279721 0.353567 0.711395 0.133964 1.037038 -0.747763 0.135139 0.472586 -0.510009 0.194830 0.551429 1.400471 -0.124175 1.277801 -0.175881 0.393869 0.788104 -1.067379 0.139674 0.154707 -1.597586 0.545446 0.445353 -0.255286 -0.198703 -0.072176 -1.553572 -0.112816 -0.411753 -1.647239 -0.247247 -0.760455 0.929666 -0.667711 -0.991167 -0.711015 0.516872 0.094387 0.476311 0.213582 0.013086 0.837074 0.672738 0.011770 0.406062 1.558593 0.392240 -0.626591 1.231688 0.797953
man 0.687369 -0.726953 0.931687 -0.950928 0.787852 -0.630106 0.007437 -0.406809 -0.503139 0.101860 0.161351 0.227891 -0.701439 -0.007020 -0.733672 0.457988 0.444460 -0.050671 0.015878 0.602074 -0.402811 -0.108958 0.171506 -0.016685 -0.015516 0.654421 -1.403836 -0.076699 -0.879249 -0.631056 -0.513919 0.658369 1.179881 -0.278127 -0.205889 -0.750083 0.109942 -0.443027 -0.626431 0.518058 0.412781 -0.463572 1.158765 0.397556 0.749291 0.826622 0.181412 0.663858 1.066719 1.592460
than 1.059689 0.531090 0.522409 -1.810987 1.141849 -0.960457 -0.140659 0.497614 -0.107589 -0.126968 -0.366504 0.792453 0.086457 0.118410 -1.018806 1.502324 0.074173 -0.227472 0.108455 0.429482 -1.377275 0.657919 -0.080942 -0.287132 -0.797179 1.218102 0.406416 0.103372 -0.640653 -1.510788 0.031283 0.263670 -0.638018 -0.207021 -0.236676 -1.457682 -0.379345 0.760868 -1.444919 0.587835 -0.128621 -0.372524 1.081774 -0.941928 0.839554 0.668624 0.111670 0.264665 1.626899 0.609893
o 0.988322 -0.036967 -0.437994 -0.221893 0.107009 0.035836 0.024568 0.419134 -0.778595 -1.022547 0.293949 -0.216160 -0.545251 0.101843 -0.701459 0.480219 1.162616 -0.515092 0.271812 0.355158 -2.217472 -0.052062 -0.833194 0.345990 -0.190939 0.292594 -0.552243 0.221098 -0.643637 -0.715125 0.905270 0.008386 0.159666 0.409041 -0.432218 -0.514120 0.640919 -0.123001 -0.695613 -0.052787 0.143731 0.205258 0.944362 0.417087 0.804622 0.039716 0.634086 0.168327 0.158794 1.997869
well -0.279251 -0.658933 -0.547598 -1.643041 -0.358185 -0.951633 0.391479 -0.353455 -1.353245 -0.390059 -0.058889 1.309948 -0.057695 0.067063 0.527086 0.099469 0.133042 -0.333232 0.393147 0.276877 -0.827686 -0.548134 0.449038 0.528523 0.001172 -0.406078 -0.983538 0.293131 -0.363063 -1.858057 0.036580 -0.045415 0.591539 0.024755 -1.088541 -0.500303 -0.046403 0.457358 -0.429255 1.227125 0.274118 -0.310455 0.527367 0.695844 0.378683 0.619445 0.760418 0.370108 1.089971 0.935402
one 0.641146 0.270257 0.683998 -0.501572 -0.100665 -0.594727 0.490989 -0.710222 0.133363 0.056257 0.097540 -0.281837 -0.651602 -0.526780 -0.995388 0.355861 0.718557 -0.258524 -0.147602 0.177721 -0.933518 0.025595 1.066707 -0.034324 -0.076504 0.357116 -1.304005 0.132546 -1.100499 -0.764124 -0.112243 -0.331152 0.521296 -0.583348 -0.152550 -0.663065 0.032319 -0.516234 -0.956660 0.422070 0.299407 -0.235163 0.326230 0.081199 0.891248 0.475287 0.018491 -0.001611 1.335671 1.894967
like 0.257173 -0.456477 -0.067715 -0.088464 0.031719 -0.243924 -0.240445 -0.555144 -0.212490 -0.277091 -0.200102 0.795481 0.152841 -0.753971 -1.069392 0.781561 0.220208 -0.843787 -0.468886 0.182577 -1.022758 0.700423 0.070959 0.576280 -0.211997 0.802249 -1.229749 -0.634363 -0.992786 -0.869597 -0.410273 0.019718 0.648004 -0.105336 -0.284631 0.041678 1.071103 0.029751 -0.627063 0.359354 0.114097 -0.727443 0.818858 0.156183 -0.605445 0.303530 -0.426413 0.315710 0.957141 1.713729
how 0.428526 -0.856736 -0.204335 -1.014814 0.191571 0.098472 0.766515 0.453643 -0.752404 -0.667544 0.091496 1.177061 0.562136 0.274116 0.070785 1.092137 0.532997 0.168261 0.092259 0.721054 -1.293325 0.006482 0.091368 0.526167 -0.299281 -0.067978 -1.300565 0.291162 -0.267603 -1.112923 0.299397 0.225642 0.974703 0.993625 -0.369414 -0.618569 0.313520 -0.069030 0.798934 0.132568 0.576434 -0.533063 -0.030713 0.168743 0.103772 0.843892 0.663687 -0.135207 0.859323 1.794828
king -0.572628 -0.030124 -0.523035 0.415232 -0.186275 -0.331568 0.819199 0.076404 -0.253607 -0.463838 0.501599 1.275012 -0.068150 0.675279 0.592613 0.613917 0.261447 0.068943 -0.686425 0.090891 -0.699925 0.288894 0.549346 -0.756749 -1.212719 0.057380 -0.719614 -0.060860 -1.146597 -0.279512 -0.268621 -0.171984 1.732186 -0.638232 -0.794012 -0.057818 0.512659 0.118726 -0.823787 -0.190742 0.092585 -0.330367 1.031055 -0.433651 0.667015 -0.856178 1.035466 -0.111984 1.586551 1.530618
upon -0.434851 0.546870 -0.228157 -0.516138 0.410811 -0.552116 0.822583 0.835658 -0.570607 -0.428316 0.337078 1.186340 -0.452593 -0.932432 -0.186493 0.716770 0.389185 -1.431873 -0.114405 -0.599261 -1.684222 -0.344744 0.344991 0.252686 0.111033 0.832017 -0.568017 0.142454 -0.458039 -0.050850 -0.438977 -0.149385 0.217146 -0.043103 -0.118081 -0.744707 0.911182 0.495767 -0.258579 0.332670 0.127200 -0.539939 1.075570 0.131025 -1.040808 0.250582 -0.762905 -0.313376 1.166842 1.959333
an -0.356158 -1.774159 -0.482443 0.084580 -0.301974 -0.039943 -0.307781 -0.163548 -1.026098 1.389940 0.217547 0.264050 -0.630113 0.445080 -1.498160 0.725828 0.110719 -0.167646 0.286086 0.562761 -1.635040 -0.194831 0.786494 -1.366900 0.984844 1.000897 -1.543944 0.265163 -0.775071 -1.572992 -1.148937 0.043551 0.647394 -0.774452 -0.208590 -0.276598 0.557497 -0.210142 -0.592264 -0.091101 -0.284193 -0.017693 0.256944 1.514293 0.088747 -0.397539 0.057551 0.835149 1.321548 1.078475
did 0.822567 -0.314734 0.498336 -0.158521 0.474972 -0.980418 0.868565 0.002464 -0.817631 -0.433411 -0.017775 1.352205 -0.576831 -0.332212 -0.673227 0.302962 0.090226 -0.468602 -0.688743 1.338055 -1.481343 -0.860193 0.428599 0.620259 0.226407 0.160987 -0.489835 -0.228633 -1.188943 -0.243350 0.977606 -0.227158 0.279432 -0.261406 -0.160621 0.318752 0.578475 -0.267213 -0.521301 0.809288 0.675717 -0.219406 0.539095 -0.305347 -1.019932 -0.274333 0.823094 -0.103266 1.177026 1.007719
make -0.336500 -0.699613 0.085523 -0.407276 0.188320 -0.538667 0.073120 -0.615877 -0.425876 -0.193456 -0.306771 0.461433 -0.463960 -0.207632 -1.039493 1.069091 0.315344 -0.465790 -0.333249 0.521103 -0.646923 0.241241 0.502124 0.441458 -1.053126 0.997102 -0.580117 0.296231 -0.601985 -0.832840 -0.204618 0.448400 0.128140 -0.221397 -0.252768 -0.363633 -0.192630 0.748586 -0.702172 0.671217 0.070623 -0.282015 0.539620 0.002761 0.324064 -0.104421 0.760345 -0.624538 0.987972 1.472831
may -0.518228 -0.433167 -0.325618 -0.712141 0.459809 -0.440520 0.680228 -0.408507 -0.941898 -0.701522 -0.147568 0.535919 -0.955361 -0.626219 -0.666369 0.795111 0.497674 0.139531 -0.372898 0.943068 -0.705024 -0.165785 1.252835 0.294088 0.065306 0.452709 -0.750062 0.282277 -0.999993 -0.139946 -0.127249 0.175461 0.230315 0.353745 -0.460120 -0.405175 0.213404 1.036723 -0.345503 0.817636 0.380776 -0.644321 0.091146 0.250597 0.299473 -0.119209 0.826162 -0.259730 1.562624 0.427795
know 0.454883 -0.399149 -0.231396 -0.822146 0.355917 -0.875821 0.818793 0.145891 -0.484833 -0.048239 -0.113070 1.200698 -0.266210 0.142747 0.135285 0.408595 0.300606 0.035726 -0.121684 0.987666 -0.795127 -0.171700 0.776599 -0.060395 -0.027966 0.644158 -1.167575 0.332037 -0.722322 -0.111520 0.088243 0.305607 0.764779 0.182487 -0.109288 -1.007163 -0.178685 0.107780 -0.042471 0.393291 0.743959 -0.233229 0.309393 0.391926 0.349020 0.636400 1.289742 0.271142 1.357821 1.352939
us -1.403970 0.338011 -0.262554 0.026794 0.433583 -0.513562 0.799207 -0.069622 -0.389048 -0.867078 -0.458002 1.025636 -1.141451 -0.171123 -0.222231 0.993001 0.191136 -0.545276 -0.727062 -0.151023 -0.962783 0.151612 1.083725 0.292686 -0.655436 0.448434 -0.712066 0.024970 -0.812727 -0.607212 1.220679 -0.197947 0.687818 -0.332952 -0.333635 -0.625503 0.237436 0.672465 -0.139962 1.330319 -0.442749 -0.102571 0.395118 0.574290 0.581163 0.323428 0.846849 -0.020347 0.726013 1.009202
say 0.802539 -0.607842 -0.339940 -0.583280 0.239713 -0.621429 0.503053 -0.467014 -0.904819 -0.492872 0.065267 1.134781 -0.023149 0.038354 -0.196540 0.144355 -0.218056 -0.049333 -0.427165 0.708280 -0.729411 -0.380188 0.416928 0.262460 0.108964 0.492019 -0.961136 0.636615 -0.972294 -0.538028 0.149217 0.212781 0.556742 0.241103 -0.592903 -0.654875 0.236269 0.393475 -0.613232 0.572470 0.253169 -0.301744 0.401452 0.117328 0.941206 0.262744 0.483380 0.140684 1.051342 1.457197
should -0.003198 -0.051606 0.366986 -0.293271 0.607281 -0.345689 0.612844 -0.246807 -0.828639 -0.413149 -0.200753 0.896105 -0.279971 0.144408 -1.130255 0.455766 0.358339 -0.556500 -0.558949 1.198650 -0.842012 0.100505 0.689816 0.394280 0.029156 0.754470 -0.662956 -0.000678 -1.219901 -0.351496 -0.040149 0.080105 0.394068 0.105028 -0.553964 -0.278013 0.543813 0.743257 -0.541892 -0.083993 0.592975 -0.341364 0.317541 0.232704 0.544556 0.449216 1.260010 -0.104401 1.163956 1.284870
were 0.442208 -0.219390 0.512346 -0.889585 -0.001959 -0.938730 0.227363 -0.534050 -0.232084 -0.342036 0.096567 0.640934 0.602563 0.012687 -0.671754 -0.394329 0.719849 -1.092898 -0.321680 0.293652 -1.077929 0.699745 0.208392 -0.183436 -0.139969 0.458055 -0.930737 -0.464598 -0.988414 -1.174305 -0.044964 0.169333 -0.319755 -0.170308 -1.224815 -0.436522 0.507169 0.554821 -0.674760 0.016404 0.319286 -0.654434 0.510325 -0.006205 0.498634 0.182556 0.905014 0.812364 1.417739 1.117586
yet 0.208451 -0.341729 0.140157 -0.392715 0.487256 -0.623491 0.219691 0.153417 -0.734639 -0.119905 0.012699 1.152130 -0.455622 0.159419 -0.520346 0.305166 0.371367 -0.190786 -0.022386 0.526110 -0.823325 -0.250640 0.429099 0.559915 -0.240340 0.850996 -0.624648 0.351752 -0.974439 -0.749952 0.211811 -0.032014 0.019309 -0.178566 -0.648518 -0.397847 0.348042 0.225680 0.362330 0.381427 0.262493 -0.827808 1.196607 0.198802 0.596076 0.620376 0.723515 0.135493 1.298447 0.968946
go -0.737523 0.187824 -0.506334 -1.211489 0.232945 -0.342484 0.091233 -0.649199 -0.774359 -0.036113 -0.914781 0.657418 -0.799273 -0.243675 -0.736944 0.737250 -0.016141 -0.178472 -1.040488 -0.292245 -1.013594 -0.360987 -0.052410 0.179750 -0.188027 0.615629 -1.468102 1.033034 -0.483136 -0.568649 0.229001 0.681964 1.000634 0.297984 -0.286006 -0.862281 -0.768989 0.338790 -0.363959 1.004458 -0.653892 -0.244368 -0.197344 -0.236309 0.722834 0.033544 1.105927 -0.166288 0.591744 1.238405
must -0.452098 0.398210 -0.556718 -0.095425 0.473867 -0.873512 0.174883 -0.177216 -1.192736 -0.002677 -0.607840 0.557967 -0.966984 0.214648 -1.019636 0.331113 0.052166 -0.105214 -0.291251 0.175793 -0.927886 -0.037996 0.713660 0.370201 -0.259198 0.661780 -0.831800 0.773591 -1.148700 -0.079357 -0.327683 0.225117 0.282655 0.546941 -0.587445 0.073136 0.411791 0.955865 0.063082 0.804929 -0.036831 -0.489733 0.280803 0.376934 0.900669 0.202360 1.349996 -0.313831 1.299023 1.198130
had 0.491205 0.359076 1.556938 -0.451431 0.470437 -1.089684 0.053346 0.379846 -0.671019 -0.167171 0.489058 1.370345 -0.138995 0.447422 -0.154223 -0.301359 0.298722 -0.953171 -0.117789 0.262187 -1.406502 0.439548 0.743431 0.011929 0.249671 -0.039502 -0.821231 -0.248067 -0.367470 -1.443733 -0.281510 -0.239370 0.293735 -0.115751 -1.675982 -0.738060 0.817098 0.205764 -0.809491 -0.191488 -0.111445 0.029007 0.270817 -0.257859 0.109581 0.166078 0.593750 0.096286 0.749021 0.940237
see 0.415998 -0.385296 -0.464866 -0.588924 0.908275 -0.203586 -0.145390 0.277727 -0.834992 -0.061986 0.145899 0.919332 -0.785967 -0.548101 -0.319611 0.453873 0.690953 0.281996 -0.584756 0.468088 -0.964075 -0.108536 0.122449 0.317804 -0.292181 0.443501 -1.045689 0.487237 -0.239685 -0.598848 0.174051 0.423349 0.175579 0.120027 -1.007945 -0.468865 0.122314 0.019243 0.091741 0.627102 0.253786 -0.339726 0.250004 0.376088 -0.130077 0.300523 0.899261 0.214307 1.086447 1.961219
such 0.540386 -1.731820 0.828098 0.135936 0.281571 -0.751621 0.026560 -0.630504 0.465887 -0.442535 0.171756 0.395974 -0.713182 -0.707403 -0.828677 0.532241 0.977323 -0.449630 -0.201799 1.067135 -0.998808 -0.018007 1.109175 0.134295 -0.082249 1.067972 -0.640658 -0.092881 -0.240768 -0.887447 0.160746 0.079298 0.313994 -0.559112 -0.734543 -0.578430 0.176172 0.634096 -0.595447 0.269174 0.164121 -0.295089 0.677545 0.492736 0.453957 0.435959 -0.078604 -0.089177 0.697203 0.983078
first 0.194900 -0.951443 -0.309423 0.598789 0.707594 -0.965312 0.636916 0.670997 -0.975287 -0.220638 0.526357 0.378507 -0.405813 0.230732 0.420701 0.338552 -0.994819 0.088912 -1.352523 0.239162 -0.908486 0.636471 0.811542 -0.196864 -0.422447 -0.948672 -1.659086 -0.130583 -0.677016 -0.516958 1.050685 0.340253 0.080819 0.010714 0.270942 -0.691993 -0.006095 -0.086384 -1.538881 0.815747 -0.388375 -0.163055 0.645864 0.445710 0.069320 -0.035037 -0.161734 0.383402 0.932616 1.610760
out 0.670250 0.481267 0.230514 -0.313447 0.733681 -0.031566 0.500385 0.224016 -0.678007 -0.084407 -0.148147 0.443148 -1.352801 -0.204913 -1.112100 -0.760320 0.861336 -0.648079 -1.137559 -0.247592 -1.261498 0.239520 -0.072588 0.260539 0.114130 0.692130 -0.737449 1.096629 -0.685033 -0.840555 -0.050531 -0.040815 0.629663 -0.436433 -0.281961 -0.470279 0.254614 0.389448 -0.173248 -0.539590 -0.267831 -0.374109 -0.291573 0.887142 0.371073 0.418907 -0.371078 -0.605847 1.142845 1.401799
some -0.160405 -0.325411 0.987589 0.020155 0.111638 -0.975548 0.399052 0.158015 0.588669 0.118740 -0.501595 0.152702 -1.538426 -0.430169 -0.494230 0.115899 1.127305 -0.161715 0.267905 0.367901 -1.607215 0.246954 0.455582 -0.012956 0.378254 0.788951 -0.532733 0.538819 -0.656429 -0.095924 0.358780 0.229904 0.231022 -0.492370 -0.555736 -1.331821 -0.602885 0.016208 -0.507234 0.223167 -0.916950 -0.728562 0.128954 0.212602 0.596460 0.977922 0.669109 -0.887706 0.568851 1.509275
these 0.724655 -0.617471 -0.044581 -0.259838 -0.397190 -0.696691 0.268824 -0.167687 0.603038 -0.568620 0.396227 0.389210 0.042738 -0.315090 -0.399811 0.371177 0.478961 -0.399958 -0.394647 -0.342550 -1.327868 1.111070 0.950952 0.892803 -0.606184 1.448462 -0.786773 0.692305 0.044037 -0.345121 0.683716 0.509386 0.228330 -0.687527 -0.459845 -0.289739 0.530784 1.063328 0.865449 0.734040 0.124730 0.642235 0.459423 0.082971 -0.052082 -0.360414 0.818630 0.886594 1.307314 1.648822
give -0.245276 0.019867 -0.250508 -0.110933 -0.423095 -0.742076 -0.000540 -0.089149 -0.095201 -0.363819 -0.414829 0.499513 -1.400132 0.135356 -0.870605 -0.145320 0.362438 -0.356294 -0.439709 0.220482 -1.237398 -0.000762 0.564016 0.005165 -0.423444 0.415286 -0.505063 0.426402 -0.919219 -0.400294 0.614745 0.271741 0.305679 0.118720 -0.061953 -0.507954 -0.094252 0.344959 -1.221919 1.055108 -0.178846 0.141260 0.602139 0.447577 0.470035 -0.013771 0.673856 -0.999215 0.886360 1.373357
too 0.353351 -0.901394 -0.043159 0.404520 -0.583722 -0.528784 0.441432 -0.942293 -0.649648 -0.539637 -0.087459 1.192775 0.451988 -0.571956 -0.469339 0.240744 0.260207 -1.297769 0.486200 -0.015450 -0.797683 -0.441581 -0.030650 -0.061994 -0.884023 0.826919 -1.304520 0.478044 -0.795148 -1.526345 -0.399740 0.279012 0.243536 -0.173621 -0.974939 -0.546048 -0.216258 0.330092 0.332767 0.424674 0.333171 -1.323036 -0.012371 0.309415 1.372824 0.921404 0.013021 -0.758052 0.609565 0.941714
where 0.274578 -0.460509 -0.126819 -0.582712 0.821030 -0.267086 0.079606 -0.317391 -0.696372 -0.227756 -0.281866 0.815453 -0.156070 -0.221176 0.296780 0.357044 1.288450 -0.727221 -0.967815 0.411394 -0.486931 0.163406 0.540454 -0.577883 -0.001525 0.867582 -0.720303 0.347788 -0.409176 0.127890 0.375881 -0.168088 0.478861 0.447050 -0.798772 -0.344004 -0.103065 -0.646602 0.296933 0.065090 0.373696 -0.363291 0.579748 0.004602 0.034701 0.275117 0.310267 0.610607 0.905179 2.006131
who 0.570099 -0.120095 0.172661 -0.119920 0.471414 -0.705433 0.839237 -0.155423 -0.326613 -0.126847 0.260005 0.872222 -0.075280 0.321509 0.065451 0.279987 0.290765 -0.679562 -0.737134 0.321336 -0.425291 0.655968 0.866647 -0.057638 -0.748128 0.521325 -1.176339 0.063261 -0.243717 -0.677193 0.340545 -0.019070 0.646695 0.050188 0.252989 0.208735 0.736110 -1.095776 -0.562111 -0.243609 0.770488 0.131353 1.035051 0.059420 0.342583 0.364662 0.755184 -0.295723 0.500277 1.678897
mine 0.590185 -0.391533 -0.705772 0.113914 0.240206 -0.392592 -0.796650 0.393930 -1.052333 0.628283 1.280076 0.950845 -0.616010 0.395011 -1.295564 -0.434690 0.264536 0.109362 -0.494571 0.192409 -1.150960 0.256181 0.088739 -1.080265 -0.078364 0.699440 -0.780007 0.338307 0.461099 -1.745153 0.093749 0.269804 -0.469844 0.013287 0.233599 -0.042072 0.812459 0.973753 -0.642956 0.350807 1.001255 0.205766 0.174027 0.342531 -0.040914 0.896343 0.427485 -0.370420 1.612650 1.460863
take -0.291959 0.049374 0.083281 -0.105761 -0.338450 -1.132421 0.710841 -0.033804 -0.781408 -0.199032 0.098262 0.562760 -1.759517 -0.113206 -1.085852 -0.000470 0.265868 -0.087037 -0.730006 -0.109455 -1.166527 0.039125 0.089337 -0.324915 0.375288 0.526433 -0.840585 0.953148 -0.700446 -0.130478 0.094747 0.755776 0.535884 0.167984 0.161184 -0.430101 0.095168 0.474846 -0.769599 0.444933 0.086572 -0.574724 0.647236 0.506121 0.761416 -0.355214 0.416998 -0.536124 0.689881 1.098440
speak 1.442498 -0.730817 -0.512586 -0.207463 -0.172633 -0.412611 0.144605 -0.413634 -0.826112 -0.221232 -0.474354 1.310266 -0.200944 0.301402 0.170214 0.787314 -0.249928 -0.071028 -0.553497 0.061718 -1.000658 -0.126964 0.714684 0.172678 -0.014707 1.012287 -1.101731 -0.000672 -0.705445 -0.585518 0.625077 0.541487 0.689741 -0.061654 -0.078834 -0.275568 0.172643 0.827968 -0.645794 0.444642 0.487065 -0.158068 0.569413 0.121452 0.761920 0.272691 0.757159 -0.049873 0.934164 0.684095
time -0.116777 -0.870116 0.594901 0.173027 0.328866 -0.797288 0.428037 -0.074557 -1.247737 0.002927 -0.351355 0.838635 -0.683891 0.179991 -0.233286 0.593782 0.365129 -0.323547 0.008585 0.535847 -1.124520 0.407616 0.950544 0.041480 -0.269891 0.122304 -0.827981 0.307257 -0.668287 -0.330270 0.452651 0.211040 -0.229491 -0.614865 -0.823556 0.103854 -0.698753 -0.272313 0.232881 0.958524 -0.387046 -0.584786 0.597100 -0.127552 -0.203501 0.130335 0.179623 -0.504190 1.198724 1.627869
up -0.984134 0.063341 0.258311 -0.243426 0.353541 -0.384308 -0.086463 -0.324220 -1.272905 0.103159 0.249477 0.978114 -0.371631 -0.509101 -0.741742 -0.647112 0.870925 -1.082891 -1.681172 -0.213943 -1.052039 0.907946 -0.322714 0.987321 0.381556 0.458841 -1.363565 0.192582 -0.388960 -0.193016 0.811798 0.155108 1.092366 -0.833389 -0.123943 0.905051 -0.181387 0.389806 -0.705136 0.873339 0.346576 0.487564 0.657542 0.569317 -0.636096 0.394997 0.154451 -0.652992 0.711285 0.955640
most 0.100485 -0.821347 -0.233486 0.630113 -0.392147 -0.481280 0.021990 -0.507489 -0.237572 -0.908834 0.395826 0.158191 -0.899770 -0.273868 0.319313 0.740828 0.868419 -0.351751 0.491096 0.879102 -1.049898 0.059028 -0.338074 -0.479180 -0.047983 -0.304665 -0.780209 -0.724116 -1.071745 -0.689044 0.262108 1.168792 0.020926 -0.277680 -0.609575 -0.659947 0.202218 0.637667 0.127778 0.993221 0.848847 -0.653458 1.249091 0.325678 0.712778 1.348936 -0.481986 0.500374 0.988968 0.899236
heart 0.772066 -0.313210 0.176618 -0.507512 -0.025243 -0.298287 -0.318793 -0.713359 -0.633685 0.228321 0.442461 0.817489 -0.100740 -0.488684 -1.113148 -0.007743 0.434177 -0.527403 0.305058 -0.148143 -1.235912 -0.577665 -0.161812 -0.054927 -0.662751 0.645190 -0.729885 0.698289 -0.308452 -1.438303 0.380938 -0.086230 0.320927 -0.131556 0.609813 0.411319 0.283100 0.741553 0.131511 0.244982 1.183764 -0.132871 0.982247 -0.282179 0.566927 0.428437 -0.059327 -0.591417 0.966110 1.459844
father 0.198740 0.311725 0.637855 0.083554 -0.420859 -0.912771 0.103116 0.487618 -0.197353 -0.089349 0.206103 1.605109 -0.409036 0.358439 -0.435652 0.095866 0.199334 -0.671698 -0.156252 -0.293455 -1.377980 0.254540 0.016608 -0.450227 -0.397655 -0.403976 -0.979848 0.281658 -0.791622 -0.825595 -0.270629 0.396000 0.500642 0.129686 -0.257467 0.128425 0.196223 -0.120603 -0.095419 0.051184 1.110968 0.250515 1.264072 -0.318995 0.415171 -0.131400 1.164321 0.137654 1.128921 0.915581
doth 0.147739 -0.126891 -0.583669 -0.084051 -0.026188 0.274320 0.478225 -0.060797 -0.558421 -0.083944 -0.247445 0.819232 -0.533032 -0.240462 -0.925981 1.085896 0.633010 0.135066 -0.163133 1.173783 -1.127483 -0.397135 0.488743 0.516638 -0.570706 0.820557 0.133968 -0.227110 -0.864512 -0.517305 0.672002 -0.519145 0.356147 0.044751 0.409278 0.817472 0.167880 -0.323182 -0.428101 0.120433 0.494260 -0.664720 0.956876 -0.376597 -0.337847 0.169947 0.362188 -1.070787 1.098817 1.388962
much 0.097045 -0.052253 0.219605 -0.389649 -0.040724 -0.709299 0.497879 -0.078008 -0.142161 0.061739 0.033756 1.544010 -0.112614 0.469593 -0.276276 0.497083 -0.154120 -0.433313 0.199763 0.263536 -0.740395 -0.414020 0.391648 0.035279 -0.994581 0.704857 -0.243916 0.155302 -0.462413 -1.953063 0.081418 0.247338 -0.167931 -0.474811 -0.543969 -0.950671 0.246685 0.551341 0.074457 0.221943 0.416250 -0.806551 0.082866 0.031228 0.860334 1.127013 0.734327 -0.908113 1.140145 0.758701
tell 0.942133 -0.461328 -0.817855 -0.842665 0.059022 -0.230859 0.218712 -0.303620 -0.458879 -0.312101 -0.215357 1.029213 -0.392301 0.333484 0.073325 0.654890 0.026260 0.227444 -0.258720 0.155009 -0.728548 0.081094 0.827634 0.197778 -0.327685 0.318374 -1.268106 0.800610 -0.492538 -0.555019 0.212732 0.681256 0.622842 0.026451 0.079224 -0.487642 0.023460 -0.359642 0.227948 0.455413 0.373702 0.711180 0.323483 -0.244078 0.355380 0.369967 0.963052 0.279703 1.013481 1.259471
exeunt -0.276229 0.977803 -1.007792 0.395004 -0.382100 0.255297 -0.184990 0.060893 -0.798479 0.385538 -0.494580 0.448159 -0.820320 -0.143671 0.196956 0.716391 -0.298498 0.259077 0.043652 -0.987971 -0.863009 -0.495402 -0.033939 -0.925756 -0.579003 0.169476 -1.027379 0.692409 -0.451143 -0.549927 0.115123 -0.499099 1.500084 -0.150244 -0.782104 -0.462515 -0.954648 0.895828 -0.284650 1.362177 -1.367230 -1.858657 0.146344 -0.753472 0.876747 -1.086289 0.684899 0.595878 0.638020 1.980335
think 0.405934 -0.518433 -0.191069 -0.722088 0.401663 -0.635417 0.594833 0.024087 -0.747683 -0.312513 -0.067312 0.802847 -0.021922 0.043263 0.010606 0.339311 0.286179 -0.296863 0.010238 0.596291 -0.776829 -0.498249 0.582919 0.109925 -0.154730 0.677059 -0.734373 0.081534 -0.890573 -0.530162 0.009957 0.015254 0.243343 0.062194 -0.538899 -0.873036 0.523225 0.072735 -0.247787 0.269527 0.406835 -0.574911 0.424080 0.368217 0.369011 0.224222 0.962142 0.423335 1.037869 1.164685
never 1.114773 -0.363312 0.834305 -0.716657 1.334512 -0.642805 -0.082011 0.161506 -1.284253 -0.316706 0.345030 1.056833 -0.987926 -0.156851 -0.717672 0.292509 0.226400 -0.296969 -0.395962 0.741578 -0.793392 -0.747932 0.853056 0.524571 0.522238 0.402222 -0.912599 0.366888 -0.575423 -1.065624 0.036537 -0.224687 -0.173894 -0.092379 -0.717428 -0.408136 0.345026 0.148755 -0.458305 0.451743 0.125998 -0.210139 0.880467 -0.406501 -0.180224 -0.081605 0.840039 0.154049 0.791886 0.479758
men 0.218474 0.067877 0.364490 -0.417833 -0.097988 -0.318058 0.399801 0.031219 0.107342 -0.514501 0.415651 0.599012 -0.117776 -0.115549 -1.572395 0.252122 -0.120775 -0.062071 0.030009 0.870330 -0.482299 1.208129 0.332815 0.820497 -0.517516 1.087382 -0.554905 -0.190849 -0.206760 -0.573454 0.369633 0.127832 0.382177 -0.662465 -0.478343 -0.263604 0.663013 0.106972 0.059729 0.774744 -0.152678 -0.466082 0.298632 0.840690 0.647328 0.219403 0.644352 1.223329 1.346967 1.572304
exit -0.186539 -0.042566 -0.912174 -0.175914 -0.097108 0.269279 -0.186268 -0.028813 -0.955852 0.384022 -0.186188 0.315002 -0.823094 0.266441 0.129503 0.497230 -0.546705 -0.003804 -0.108711 -0.444061 -1.013240 -0.864102 -0.223181 -0.605755 -0.434440 -0.419284 -1.557841 0.970609 0.009027 -1.012724 0.459152 -0.243821 0.981184 0.358069 -0.414024 -0.884652 -0.765653 0.002809 -0.495211 0.967566 -0.766662 -0.730434 0.269694 -0.093510 0.873898 -0.600364 0.627845 0.163589 0.478342 1.970781
nor 1.008683 -0.628933 0.857282 -0.780631 0.981974 -0.274451 0.009962 0.669875 -0.578981 0.188555 0.389844 0.691611 -0.563529 -0.140994 -0.318332 0.609824 0.883690 0.009375 -0.083857 0.204502 -0.408635 -0.499225 0.459662 0.357569 0.014094 1.738888 -0.743381 -0.287998 -0.028807 -0.728181 -0.419592 0.387741 -0.276125 -0.335129 0.308464 0.201470 -0.151488 0.281654 -0.461021 0.190716 0.398302 -0.027767 0.851836 0.293894 0.202995 -0.030473 0.976712 -0.964002 0.908463 0.120095
art -0.175948 -0.528133 -0.427286 0.051015 -0.179940 0.026404 -0.792284 -0.362709 -1.226992 -0.635570 0.495780 1.113417 0.072371 0.127288 -0.659370 0.639221 0.236763 -0.094438 0.262282 0.163761 -0.256443 0.845873 -0.431058 -0.345522 -0.183315 0.701686 -0.801231 0.653132 -1.092462 -0.843800 -0.406059 1.240383 0.353208 -0.085756 -0.093670 -1.450008 0.215543 -0.487890 -0.416227 -0.761390 0.356988 0.186162 1.124299 0.240736 0.923059 0.956920 0.496882 0.399951 0.801685 1.381823
death -0.350337 0.321394 0.408375 0.291171 0.657426 0.176094 0.261641 0.780437 -0.763038 -0.362144 0.551342 1.101845 -0.732304 -0.155204 -1.119373 0.359028 0.826637 0.095225 -0.138232 -0.409430 -0.883935 0.080756 0.092076 -0.068533 -0.732167 0.498594 -0.554823 0.107173 -0.793619 -0.299225 0.521784 0.178919 -0.466527 -0.386671 -0.135376 -0.416814 0.291858 -0.639719 -0.412700 -0.267483 0.422663 -0.541569 1.447230 -0.464213 0.473529 -0.031546 0.628913 -0.439018 0.862612 1.039061
life -0.723147 -0.195095 0.826363 0.245794 -0.373966 -0.350940 -0.114823 0.178696 -0.831896 0.129435 0.589460 0.502268 -0.801122 0.219282 -1.159421 -0.131609 0.915117 -0.521976 0.074709 0.267293 -1.078804 -0.120965 0.211437 -0.569973 -0.198369 0.274398 -0.295761 0.203992 -1.061277 -0.726794 0.431129 0.249585 -0.127875 -0.210729 -0.056848 -0.297102 -0.382143 -0.251397 -0.313390 0.347719 0.458978 -0.376180 1.318823 -0.048294 0.593007 -0.087392 0.453653 -0.183934 0.907910 1.266683
great -0.308902 -0.411619 0.388076 0.407177 0.171371 -0.346014 0.994881 0.312101 -0.006265 -0.156343 -0.604890 1.564566 -0.611394 0.017271 -0.108066 0.374663 0.584162 -0.291171 0.321257 0.879649 -1.237698 0.803638 0.039518 -0.461707 -1.001356 0.596408 0.022555 -0.296779 -0.476405 -0.821959 -0.545305 0.377679 0.878228 -0.683077 -0.988544 -0.620226 -0.043627 0.637033 -0.921598 -0.314841 -0.226800 -0.387036 0.303008 0.369147 0.466471 -0.014602 0.465827 -0.174731 0.129424 0.746534
hand -0.098219 -0.006500 -0.107623 -0.094231 0.252163 -0.115849 -0.191389 -0.408749 -0.134141 0.081428 0.109187 1.045402 -0.591746 -0.890168 -0.181231 0.429801 1.064045 -0.642205 -0.543477 -0.619816 -1.898194 -0.578240 -0.131505 -0.548461 0.381035 -0.042880 -0.681811 0.300857 -0.785447 -0.255933 -0.035353 0.403060 0.733056 -0.636858 -0.185503 0.148632 0.146389 0.584394 -0.254914 0.475975 1.311973 0.787049 0.367337 -0.225149 -0.026667 0.671728 0.407640 -0.092694 0.860063 0.971397
hear 1.038730 -0.775372 -0.452435 0.002272 0.498864 -0.486551 0.327877 0.281081 -0.968153 -0.470472 -0.350985 1.413342 -0.672065 -0.117035 -0.078772 0.894836 -0.273014 0.167074 -0.603525 0.087085 -1.151460 -0.035469 0.405887 0.172929 -0.166595 0.469661 -1.082748 0.741953 -0.124153 -0.366122 0.706950 0.468508 0.146719 0.335297 -0.434462 -0.593903 -0.022839 0.463852 -0.634050 0.451729 -0.098266 -0.034878 0.325391 0.196741 0.275294 0.380139 0.445288 -0.241928 0.548720 0.830780
why 0.351088 -0.715551 -0.259877 -0.232260 -0.271021 -0.241527 0.685227 0.482507 -0.569271 -0.489403 0.239853 0.808098 0.598738 0.047675 0.223488 1.262479 -0.055031 0.076658 -0.731736 0.843864 -0.840539 0.038836 0.282196 0.831597 0.665896 0.812604 -0.118768 0.695242 -0.930725 -0.278713 -0.157254 0.324525 0.552184 0.034585 -0.282765 -0.923378 0.215519 -0.116157 -0.495985 -0.728739 0.626821 0.445676 0.428279 0.409703 0.492912 0.302661 0.555219 -0.262366 0.874812 1.728272
look 0.439095 -0.165009 -0.147080 -0.654589 0.685641 0.027222 0.018819 0.184195 -0.508598 -0.150731 0.150197 0.773362 -0.016990 -0.839270 -0.340991 1.322003 0.555289 -0.187816 -0.660250 0.339262 -0.974270 -0.441607 -0.677976 0.235315 -0.125593 1.069369 -1.373751 0.099569 0.011328 -0.277657 0.033802 0.563613 0.291575 0.522615 -0.317822 -0.337950 0.228326 -0.157054 -0.043264 0.560378 0.535420 -0.226467 0.385114 -0.193776 -0.166380 0.258553 0.216874 -0.384517 0.476264 1.822572
made -0.061332 -0.188055 0.894675 0.071707 0.356377 -0.751885 0.233374 -0.389433 -0.341950 -0.135646 0.188040 0.675852 0.025855 0.166504 -0.384566 0.653383 0.589029 -0.871619 0.341705 0.335878 -0.997707 0.761515 0.424068 0.004848 -0.345112 0.324850 -0.881832 -0.084118 -0.636961 -0.960953 -0.582061 0.050770 0.283047 -0.700724 -0.839822 -0.608701 0.199330 0.438585 -0.114965 0.214805 0.052497 0.220894 0.427044 -0.047536 0.028366 0.457611 0.441074 -0.214037 0.735406 1.056006
any 0.592639 -1.021378 0.872849 -1.071989 0.774487 -0.379538 0.149230 -0.324537 -0.473091 -0.067944 0.350648 0.065034 -1.274911 -0.183266 0.032960 0.616506 0.881467 -0.201834 -0.013494 0.662767 -0.598016 -0.592826 1.533489 -0.603289 0.635630 1.234158 -0.479281 0.140829 -0.439541 -0.475363 -0.266192 0.287211 0.263104 -0.319381 0.331054 -1.141478 -0.404301 0.421287 -1.497192 0.088581 0.168935 -0.119615 0.622274 0.161137 0.522666 0.267467 0.264713 0.106228 1.265979 0.441374
before 0.261869 0.142694 -0.122040 -0.168816 0.609798 -0.023628 0.305233 -0.128962 -0.705882 0.043972 -0.349092 0.897119 -0.278869 0.104010 -0.155169 0.178280 0.189383 -0.779966 -0.546315 -0.132610 -1.095767 -0.189760 0.709191 -0.363710 -0.273700 -0.134607 -1.310720 0.115793 -0.604188 -0.658278 -0.058262 -0.413279 0.644121 -0.374377 -0.691636 -0.158942 -0.189427 0.066049 -0.250026 0.469917 -0.163124 -0.536466 0.410213 -1.022903 -0.975509 -0.521762 0.657876 1.034229 0.633626 1.427548
lady 0.816595 -0.534516 -0.001430 0.506788 -0.450295 -0.644240 -0.213803 0.272465 0.072472 -0.134799 0.144699 0.452775 -0.120409 0.728417 0.154331 1.412612 0.523140 -0.237776 -0.610438 0.537957 -1.401689 -0.210334 -0.395771 -0.621583 0.902054 -0.353276 -1.684350 0.284298 -0.310148 -0.424805 0.117791 -0.311276 0.898098 1.044754 -0.749983 -0.464693 -0.184467 -0.092052 -0.308503 0.885240 0.492903 0.071514 0.775492 -0.495777 1.213003 0.194187 0.549733 -0.329887 0.593251 1.000151
away -0.671241 0.777579 -0.293864 0.097105 -0.290395 -0.489487 0.493118 -0.076396 -1.087294 -0.316687 -0.051261 0.666744 -0.629772 -0.341824 -1.071650 -0.073931 -0.109357 -0.531719 -1.336790 -0.402748 -1.432285 0.284308 0.021360 0.102956 0.764207 0.455789 -1.775593 1.001650 -0.803056 -0.951463 0.211674 0.533883 0.767428 0.311460 -0.026153 -0.307628 -0.028868 0.477963 0.121926 0.102108 -1.218747 -0.205889 0.622812 -0.564306 0.175579 0.088002 -0.220329 0.005142 0.078842 0.999148
god -0.811428 -0.173945 -0.111602 -0.223679 -0.373819 -0.134492 0.361144 -0.294902 -0.466865 -1.265520 0.361771 0.378914 -1.407269 0.401200 -0.427317 0.035873 0.503165 -0.632091 0.352746 0.573619 -1.200353 -0.520667 0.254757 -0.403921 -0.693238 0.035247 0.084133 -0.237245 -0.438299 -0.875950 0.322266 0.036670 1.167231 0.530839 -0.308758 -0.083093 1.151830 0.267822 -0.892747 0.434642 -0.412108 0.507491 0.985399 1.205268 1.247215 -0.242751 0.790745 0.266440 0.074930 1.428229
own -0.270639 -0.207830 -0.010917 -0.201826 0.128402 -0.629654 0.148076 0.498503 -0.419755 0.758396 0.346272 1.051258 -1.060619 -0.206613 -0.895786 -0.218046 0.190061 0.435932 -0.646466 0.907058 -1.083669 0.707834 0.478467 -1.071884 -0.133772 0.238833 0.026541 0.344574 0.271852 -0.955432 -0.450283 0.409724 -0.148190 0.613707 0.545364 0.020928 0.099550 1.367770 -0.383632 0.384756 1.503518 -0.304444 0.384824 0.336405 0.184310 0.735965 -0.000074 -0.248053 1.329586 1.210059
master 0.698209 0.119408 0.748199 -1.286387 0.130048 -0.988524 -0.107818 -0.351008 -0.629424 0.573909 -0.789641 1.131209 -0.384858 -0.449885 -0.318848 -0.007529 -0.027399 -0.479708 -0.061629 -0.151802 -0.432694 0.084654 -0.575982 0.316315 -1.220050 -0.778476 -1.452255 0.675647 0.527564 -0.817420 -0.549713 0.047905 1.416111 0.639096 -0.246314 0.268150 -0.355311 -0.850978 -0.714456 0.707621 0.781084 -0.060900 0.027564 0.647101 0.333060 0.297919 1.351900 -0.037974 0.290501 1.750682
fair 0.222090 -0.313599 -0.347412 -0.282453 -0.109203 -0.657130 -0.529513 -0.378289 0.525999 -0.729898 0.038753 0.233404 -0.661498 -0.211023 -0.298367 1.164763 1.614236 0.498246 -0.005486 0.578685 -1.275537 0.286523 0.846720 -0.167496 0.066288 -0.023383 -0.555619 0.488701 -0.844365 -0.304470 -0.213929 -0.323923 0.315802 0.863396 -1.043561 -0.012727 0.009607 0.321131 -0.002647 0.944708 0.688888 0.343231 0.895941 -0.891488 0.914613 -0.226275 0.363396 0.099931 0.855913 0.636992
again -0.004261 -0.113800 -0.426182 -0.539129 0.560997 0.000754 0.361815 -0.473419 -1.087209 -0.358307 -0.164055 0.473345 -0.407644 0.051228 -0.862631 0.231602 0.078022 -0.297291 -1.719122 0.016965 -0.763423 -0.264928 0.390252 0.335752 0.223119 0.324210 -1.329934 0.524206 -0.709188 -0.441166 0.666578 0.195253 -0.211071 0.159513 -0.441923 0.015912 0.066928 0.276123 -0.616210 0.400951 -0.162938 0.381434 0.910303 -0.325506 -0.033187 -0.407369 0.321516 -0.116618 1.125935 0.683320
scene 0.213576 0.567605 -0.838872 0.884087 0.187867 0.639293 -0.614513 0.106321 -0.902277 0.561094 -0.481665 0.101613 -1.004502 -0.058878 0.305574 0.278682 0.105904 0.220723 -0.122389 -0.403653 -0.736052 -0.470726 0.388232 -1.274495 -0.486596 0.152300 -0.881558 0.507872 -0.631909 -0.470361 -0.185507 -0.941800 1.397348 -0.596247 -0.542123 -0.813836 -1.175265 0.934433 -0.250380 0.763136 -1.048352 -1.995961 0.403749 -1.139892 -0.068787 -1.312750 0.683555 1.164413 0.669054 1.844741
eyes 1.163133 0.069177 -0.351279 -0.142902 0.634875 0.145046 -0.670954 0.144940 -0.303379 0.160396 1.057690 0.570558 0.012014 -0.756036 -1.423478 0.455550 0.822132 0.059831 -0.599974 0.604308 -0.920046 0.687536 0.144172 0.409376 0.186987 1.345585 -0.943870 0.382344 0.574438 -0.994735 0.379333 -0.192927 -0.398198 0.264051 -0.202255 0.211815 0.934783 0.719128 0.441262 0.548067 0.533279 0.369283 0.110684 -0.289769 -0.399898 0.463307 0.217001 -0.233431 0.855498 1.753966
true 0.511583 -1.054860 -0.612142 -0.440462 -0.035072 -0.607484 -0.163026 -0.551294 -0.185332 -0.663996 0.546924 0.492374 -0.491061 -0.103032 -0.860552 -0.265124 0.815875 0.328480 0.022753 0.618899 -0.743161 -0.084038 0.334662 -0.098354 -0.878044 0.231732 -0.335377 0.391302 -0.738011 -0.826316 0.221707 0.112089 0.384622 -0.036027 -0.055602 0.099847 0.267196 0.177299 -0.290340 0.109341 0.856865 0.003037 0.767516 0.618077 1.184384 0.457329 0.509064 0.450340 1.047372 0.954206
day -0.197019 -0.396886 0.104038 0.004598 0.676323 0.478400 0.424555 0.022312 -1.163443 -0.593012 0.402519 -0.537290 -0.582577 -0.163112 -0.262579 0.618113 1.220245 -0.154969 0.695671 0.168229 -1.697853 -0.424737 0.406851 -0.140825 -0.186353 -0.089275 -1.021571 -0.073182 -0.993375 -0.472155 0.281221 0.045998 -0.255023 -0.620556 -1.468429 0.264690 -0.365812 -0.377836 0.502936 1.002087 -0.564365 -0.455622 0.172662 -0.259488 0.326406 -0.069636 0.266241 -0.050926 0.826673 1.567397
very 0.929240 -1.126600 -0.378936 -0.244386 -0.795017 -0.572047 0.424622 -0.472052 -0.451467 -0.082673 -0.052254 0.494444 -0.433873 -0.519982 -0.052760 -0.552145 0.734389 -0.545037 0.727433 0.467124 -1.150342 -0.333128 -0.270406 0.491497 -0.246936 0.108159 -1.162571 -0.066741 -0.857224 -1.071282 -0.212914 0.144113 0.252400 -0.705249 -0.273789 0.135575 -0.392820 -0.148356 0.091684 0.318022 0.427668 -1.096415 0.943042 0.890794 0.079619 0.424925 -0.227706 0.361825 1.004678 0.881754
other 0.178652 -0.319999 0.947497 -0.377407 -0.070180 -1.065196 0.414182 -0.391551 0.572116 0.518655 0.778311 -0.257704 0.032845 -0.538026 0.088298 0.729877 0.862550 0.683345 -0.313288 0.162812 -1.289740 0.229351 0.584419 -0.842996 0.275830 0.982087 0.047442 0.016458 -0.523495 0.134214 0.871865 0.182744 0.710406 -0.984715 -0.308386 -0.100244 0.005408 0.095005 -0.584390 1.041778 -0.438203 -0.191456 -0.662518 -0.627399 1.039878 0.018513 0.398156 -0.519523 1.524939 2.353020
sweet 0.874466 -0.258945 -0.617146 0.278061 -0.711876 -0.379528 -0.081429 -0.037512 -0.002618 -0.745769 -0.377119 0.716602 -0.857087 -0.563400 -1.006473 0.922419 0.459087 0.085735 -0.374142 0.836917 -1.750445 0.188670 -0.531997 0.602114 0.412517 -0.028836 -0.732687 1.237113 -0.147405 -0.254253 0.168664 -0.060800 -0.002012 0.881450 -0.917778 -0.004716 -0.394404 0.045488 -0.637340 0.316476 0.644638 0.141008 0.986662 -0.309665 1.024724 -0.484148 -0.040914 -0.341034 0.289467 0.705335
thus -0.484628 0.166394 -0.115496 -0.105799 0.076524 -0.073277 0.481818 -0.247297 -0.897170 -0.071168 0.203327 1.176084 0.052323 0.082451 0.078864 0.384401 0.114104 -0.696592 -0.538767 0.572527 -0.512146 0.270054 0.219810 0.227221 0.088175 0.273028 -0.757404 0.235021 -0.640870 -1.014770 0.117486 0.110972 0.386296 -0.105609 -0.213782 0.079583 0.411823 0.578596 0.591993 -0.124548 0.641232 -0.231875 0.401626 0.018220 0.201653 0.885407 0.180303 -0.356197 1.114967 0.955700
duke 0.235680 -0.190794 -0.386624 0.354536 0.240857 -0.031089 0.506411 0.071974 -0.245570 -0.252252 0.792654 1.669525 -0.581478 0.281403 1.190702 0.469584 0.369650 0.473772 -0.033359 -0.552398 -0.434101 -0.037302 -0.297197 -1.079700 -0.642064 -0.186305 -1.310840 -0.094143 -0.447208 -0.306056 0.075409 -0.010216 1.650341 -1.535205 -0.636639 -0.052167 0.733606 -0.039208 -0.531000 0.265099 0.153088 0.032527 0.473664 -0.287603 0.498669 -1.155090 1.093610 0.279083 1.224515 0.340588
night 0.413644 -0.610099 -0.309290 -0.255357 0.348596 0.147708 0.204742 -0.370061 -0.936847 -0.822893 -0.081027 0.199873 -0.919817 -0.262339 -0.700509 0.639218 0.879145 -0.542510 0.432486 0.128113 -1.350640 -0.144276 0.034909 0.629846 -0.477741 -0.016507 -1.105604 0.733820 -0.084735 -0.652848 0.645838 -0.221064 -0.356465 -0.183491 -1.033403 0.817389 -0.597104 -1.069161 0.616708 1.257763 -0.731476 -0.341949 0.703876 -0.174231 0.010380 -0.546104 -0.164564 -0.291393 0.880422 1.183269
been -0.220392 -0.410505 1.528245 -0.011057 0.440421 -0.604513 -0.471779 0.138155 -0.971471 -0.512942 0.798138 0.991970 0.196566 0.793616 -0.071819 0.008974 0.431156 -1.110951 0.482399 0.070231 -0.624885 0.496832 0.420769 -0.195146 0.048947 -0.477928 -1.302819 -0.326747 -0.006982 -1.655501 -0.351431 0.109959 0.060795 -0.088747 -1.577766 -1.337196 0.450326 -0.030525 0.131278 0.007083 -0.092905 -0.333063 0.000653 0.210211 0.253353 0.810520 0.311115 0.215568 0.746355 1.125290
being -0.160784 0.309947 0.365602 -0.292666 0.492513 -0.544641 0.334105 -0.443229 -0.580793 -0.357284 0.294784 0.828767 0.321981 0.061420 -0.303341 0.155151 0.229684 -0.746016 0.014200 -0.050139 -0.167491 1.136948 0.378394 -0.085885 -0.467672 0.080319 -1.060003 -0.193453 -0.905158 -1.168791 -0.272340 0.340819 -0.335652 -0.259290 -0.274765 0.138217 0.506578 0.146328 0.155529 0.182171 0.451831 -0.379497 0.533980 -0.429164 0.641123 0.796200 0.523985 -0.303333 1.203806 0.566389
old 0.772238 -0.882880 0.445550 -0.472743 -0.727705 -0.397489 -0.703385 -0.305401 -0.048278 0.722583 0.262001 0.241754 -0.012610 -0.016245 -1.008274 0.747118 -0.027619 -0.004042 0.484705 -0.476240 -0.943418 0.666733 -0.239527 0.085478 0.136325 0.261834 -1.731231 0.343147 -0.514618 -0.723899 -0.632487 0.522582 0.702276 -0.570004 -0.029824 0.267737 -0.040964 -1.116458 -0.273480 0.861080 0.126940 -0.307287 0.465668 0.272775 0.213470 -0.592153 0.703667 0.783379 1.433820 1.161278
world 0.324356 -0.640302 0.036629 -0.165948 -0.144659 -0.486742 0.437685 -0.119604 -1.547771 -0.005417 0.308304 -0.499254 -0.147241 0.653229 -0.566767 0.881224 0.823765 -0.225005 0.008224 0.740067 -0.723661 0.985095 0.478320 0.105891 -0.190168 0.713255 -0.674144 0.251466 -0.265799 -1.267590 -0.107434 0.263606 0.373449 -0.172530 -0.073373 0.401213 -0.122383 0.039758 -0.003004 -0.435331 -0.337530 -0.751576 0.548715 -0.037359 0.196077 0.462799 0.411575 -0.215930 0.722234 1.164827
fear 0.167505 -0.034428 0.322927 0.208553 0.362541 -0.040715 0.427769 0.264412 -0.878901 -0.184742 0.264308 1.082612 -0.269814 -0.043647 -0.561753 0.289390 0.260808 -0.363003 -0.156269 0.616066 -0.602157 -0.127974 0.232630 0.156362 -0.512257 1.196651 -0.219128 -0.115238 -0.599735 -0.811877 0.470488 0.081536 0.057889 -0.400714 -0.104753 -0.249521 0.055426 0.287262 -0.002675 0.173286 0.182642 -0.681609 0.376349 0.465553 0.642538 0.458991 0.642952 -0.214624 0.953302 0.831604
two 0.618168 0.281720 0.448386 0.113866 -0.242777 -0.486155 -0.105769 0.324358 0.949874 -0.059943 0.535226 -0.079249 -0.228271 -0.927514 -0.313326 0.055414 -0.006234 -0.178916 -0.542285 -0.780479 -1.307171 1.280345 1.294780 0.389221 -0.126182 0.268605 -1.292286 0.225243 -0.336409 -0.528140 0.291058 -0.238983 -0.061454 -0.413752 -0.572737 -0.582261 0.327361 0.016727 -0.148396 0.748222 -0.396562 0.123093 0.053799 0.189693 0.324026 -0.907594 0.420070 1.203051 1.171932 1.570446
call 0.343508 0.295157 -0.805392 -0.209987 0.003362 -0.425795 0.173681 -0.281319 -0.235700 -0.689698 -0.105924 0.818951 -0.605902 -0.247670 0.146969 0.581461 0.141084 -0.123156 -0.586653 0.229094 -0.494345 0.674831 0.478161 0.007717 -0.116952 0.023702 -1.145476 0.636105 -0.512004 -0.329706 -0.045169 0.557369 0.577089 0.368691 -0.034650 -0.531195 -0.122929 -0.103890 -0.417924 0.376959 0.527551 0.052750 0.700822 -0.251675 0.348204 -0.032629 0.770088 0.310610 0.685374 1.260468
done -0.668188 -0.655013 0.018015 0.005818 0.087827 -0.855452 0.335562 0.447797 -1.101392 -0.156421 0.412321 0.970167 -0.157526 0.416351 0.663849 0.377962 0.267886 -0.397127 0.392228 0.157940 -1.237943 -0.005285 0.389791 -0.078379 0.188291 0.067799 -0.520162 0.044443 -0.393573 -0.823472 0.867251 0.016895 -0.211956 -0.624202 -1.035648 -0.918504 0.057874 0.385059 -0.326259 1.027942 -0.455356 -0.275926 0.394305 0.110879 0.181693 1.121153 0.888028 -0.550351 0.505272 1.284128
into -0.294858 -0.203212 0.676534 0.369557 0.186521 0.497069 0.789623 -0.810592 -0.826733 0.106901 -0.303217 0.006370 -0.441443 0.709103 -1.249979 -0.014899 1.084198 -0.742855 -2.250329 0.837812 -1.255845 0.419403 0.289949 -0.383677 0.330681 0.766625 -1.086348 0.457562 0.029916 -0.387818 -0.199973 0.360710 0.942388 -0.445146 -0.696462 0.220628 -0.182432 0.704100 0.096484 -0.972777 -0.190493 0.690694 -0.196173 -0.225568 -0.397120 0.391211 -0.136402 -0.125805 0.887676 0.720821
name -0.083224 -0.197596 -0.197011 -0.450320 -0.131042 -0.347602 -0.011412 0.233546 -0.184654 -0.028363 -0.138150 1.171533 -0.609026 0.150298 0.150043 0.234931 0.411287 0.144218 0.103214 0.397890 -1.144819 0.541109 0.659199 -0.613339 -0.186614 -0.106718 -0.152858 -0.033018 -0.783444 -0.592562 -0.133896 0.236694 0.881067 0.020746 0.237831 -0.117419 -0.108539 -0.690160 -0.805441 0.324363 0.952787 0.897095 0.954403 0.556961 0.250192 0.368909 0.614519 0.449501 0.929816 0.897661
pray 0.267298 -0.052369 -0.785843 -0.729824 -0.314385 -0.806353 0.515628 0.105272 -0.344129 -0.476631 -0.636829 0.449062 -1.227763 0.004586 0.197680 0.429054 -0.204325 -0.258622 -0.559678 0.321730 -1.085164 -0.802083 0.490151 0.156545 -0.294663 0.433772 -0.745929 0.514654 -0.159738 -0.742352 0.061452 0.783266 0.425447 0.745512 -0.259896 -0.620801 0.406929 0.414477 -0.171850 0.992436 -0.455483 0.112078 0.310355 0.362350 0.282014 -0.175619 0.675081 -0.024997 0.480519 1.209916
blood -0.421751 0.339792 0.591723 0.152553 0.511339 -0.399145 0.184533 0.143946 -0.254687 -0.465340 0.963831 0.772800 0.507966 -0.809211 -1.397061 0.792069 0.971779 -0.447866 -0.353175 0.282887 -1.047486 0.555510 -1.455604 0.220639 -0.431566 0.885918 -0.826984 -0.245926 -0.422702 -0.663823 -0.566390 0.259453 0.174943 -0.571976 -0.388310 -0.196350 -0.056126 0.565925 -0.302255 -0.452604 1.028245 -0.274399 0.983433 -0.541397 0.502583 0.239716 0.189430 -0.092626 0.943626 -0.007093
whose -0.118780 -0.313748 0.095904 -0.137620 0.245271 -0.457772 0.347595 0.169018 0.728936 0.006882 0.222120 0.791278 -0.613294 -0.468029 -0.721054 0.731936 1.248605 -0.557677 0.029357 -0.043709 -1.296416 1.070884 0.257775 -0.193155 -0.450447 0.637875 -0.358168 -0.413762 -0.137558 -0.409124 -0.540203 -0.101978 -0.048932 -0.638246 0.176231 0.150099 0.408413 0.020664 -0.565662 0.019272 1.094827 0.332826 1.162495 0.158732 0.040913 0.071618 -0.250402 0.228360 0.982812 0.340318
heaven -0.324526 0.028931 -0.536289 -0.499807 0.105035 0.167908 0.019536 -0.231626 -0.528495 -1.066826 0.291853 0.216649 -0.956193 0.114555 -0.632028 0.255935 1.391604 -0.592314 0.094090 0.670234 -1.375966 -0.529717 0.408811 -0.119874 -0.576163 1.066985 0.189438 0.051219 -0.263666 -0.597011 0.753666 -0.414372 0.658692 0.420962 -0.251842 0.081692 1.074073 0.381329 -0.195545 -0.085997 -0.262261 0.392574 1.080864 0.094186 0.213689 -0.038339 0.472802 -0.169248 0.516540 0.949084
leave -0.369512 0.060672 0.058257 0.215099 -0.529512 -0.479424 -0.086829 0.068066 -0.551993 -0.355886 -0.093515 0.843147 -1.507948 -0.108666 -0.472772 0.217874 -0.064438 -0.101510 -0.540588 -0.218717 -0.985974 -0.253103 0.529764 -0.255336 0.271855 0.241667 -0.611566 0.421102 -0.508116 -0.554270 0.477564 0.699361 0.297185 0.412742 -0.447319 0.060041 0.186405 0.319509 0.076876 0.912242 -0.207744 -0.284986 0.352953 0.180025 0.267136 -0.269287 0.497134 -0.523047 0.696520 1.394179
down -0.911752 0.843011 -0.481443 -0.437139 0.576484 -0.024312 0.137642 -0.110541 -0.739527 -0.198790 -0.161519 0.881664 -0.182549 -0.206617 -0.159856 -0.672756 0.486299 -1.635129 -1.576827 -0.704223 -0.990474 0.237104 0.272486 0.151934 0.609182 0.644959 -1.087381 0.177547 -0.497626 0.077241 0.433083 -0.316253 0.816664 -0.177710 -0.638867 0.177672 0.805075 0.147446 -0.234790 0.270189 0.175451 0.562356 0.925213 0.300323 -0.922079 0.068907 -0.479638 0.581360 0.987827 1.287889
son -0.252273 0.041393 0.421458 0.078158 -0.475129 -0.967871 0.002245 0.397189 -0.517573 -0.004911 0.829433 0.988537 -0.342891 0.419109 -0.190109 0.375697 0.387732 -0.292508 -0.421003 0.016660 -0.550589 0.477920 -0.554544 -0.616907 -0.150266 -0.344818 -1.296947 0.172732 -0.980244 -0.608072 -0.898093 0.644670 0.869177 0.012145 -0.254053 -0.228102 0.231761 -1.089707 -0.511341 -0.170619 0.868019 0.165652 1.170108 -0.253573 0.751492 -0.663283 1.515755 0.284659 1.055218 0.562799
poor 0.672017 -0.051498 0.152790 0.207633 -0.727942 -0.930132 0.180743 0.116405 0.143695 -0.277552 0.476628 0.060927 -0.550727 -0.141631 -0.862570 0.561452 0.229393 -0.129767 -0.245964 0.480076 -0.467079 0.538060 -0.113210 0.539119 -0.155486 0.327372 -1.000100 0.816539 -0.799859 -0.460112 -0.249005 0.591886 0.775941 0.215991 0.435466 -0.166038 0.341228 -0.788373 0.290063 -0.147171 0.411251 -0.726344 1.352243 0.114194 0.636797 0.061509 0.501539 0.797252 0.751963 1.461670
till -0.612210 -0.285688 0.300259 0.120297 0.643107 -0.371706 0.296368 0.162757 -1.110047 -0.115442 0.217306 0.935095 -0.748593 -0.231063 -0.906828 0.123044 0.081359 -0.050307 -0.746079 -0.121606 -0.739542 -0.461090 0.713656 0.313961 0.030479 0.118698 -0.599047 0.573641 -0.633905 0.030298 0.157035 -0.026880 -0.601678 -0.200761 -1.185931 0.215613 0.229941 -0.242291 0.024980 0.456111 -0.354064 -0.493084 0.489686 -0.190588 0.205813 -0.687851 0.570057 -0.119798 1.043529 1.010706
could 0.882940 -0.156319 1.119968 -0.935254 0.298518 -0.431972 0.099675 -0.283849 -1.080825 0.079131 -0.308813 0.693359 -0.454498 -0.018895 -1.059214 0.086840 0.369356 -0.484742 -0.514501 0.989691 -0.533379 -0.338344 0.937186 0.827197 0.138056 1.067277 -0.689410 0.111475 -0.650627 -1.042642 0.250814 0.085814 0.033279 0.293251 -0.264485 -0.255898 0.256404 0.525166 -0.297777 -0.011046 0.217439 -0.251243 0.041494 -0.029590 -0.251992 -0.223441 1.133671 -0.277985 0.717442 0.698749
both -0.247244 0.241024 0.065243 -0.494758 -0.290361 -0.993829 0.294970 -0.676741 -0.374581 -0.772390 0.407466 0.596665 -0.442984 -0.446948 -0.227702 0.262562 0.480934 -0.637234 -0.245505 -0.216550 -0.333873 0.646281 0.601029 -0.489784 -0.212017 0.489896 -0.594691 -0.148003 -0.157990 -0.746144 0.792007 -0.010657 0.072805 0.071197 -0.102624 0.086066 0.541213 0.729560 -0.218338 1.102983 0.651712 -0.180096 0.301752 0.322225 0.618918 0.024183 0.226920 0.514173 1.008879 1.126745
though 0.208149 -0.468100 0.091570 -0.112129 0.150249 -0.850798 0.172330 -0.278710 -0.369594 -0.112913 0.126232 0.840832 -0.003438 -0.026859 -0.565965 -0.086820 0.405750 -0.263642 -0.108069 0.679121 -0.386216 -0.203460 0.109059 0.447976 0.061171 0.824367 -0.498339 0.000630 -0.817526 -0.198118 0.242145 0.087348 0.053674 -0.241103 -0.464095 -0.387549 0.524708 0.312705 -0.115710 0.251028 0.310849 -0.887002 0.579280 -0.115156 0.440452 0.622615 0.789950 0.115609 0.992085 0.739551
still -0.287391 -0.625123 0.382486 -0.170838 0.504596 0.055342 0.287875 -0.323710 -0.860464 -0.057553 0.089700 0.624517 -0.123649 -0.407480 -0.165900 1.216468 0.118339 -0.224526 -0.567760 0.425809 -0.695649 -0.621911 0.317584 0.075056 -0.620383 0.512420 0.532332 0.642952 0.013910 -0.339019 0.032987 0.216134 -0.275164 0.371618 -0.713698 -0.013028 0.558354 0.011245 0.212399 -0.064190 0.400688 -0.713913 0.114203 0.097927 0.336298 0.773287 -0.458628 -0.631206 1.073348 2.256149
comes 0.478079 -0.470677 -0.030154 -0.061912 0.666061 -0.351867 0.485095 -0.142127 -0.459886 0.243224 -0.451394 0.606747 -0.274902 -0.193998 0.329985 0.708141 0.715777 -0.247933 -0.971990 -0.039462 -0.997826 -0.148035 -0.031164 -0.558431 -0.607596 0.672611 -1.460922 0.114298 -0.085273 -0.393832 0.421768 -0.016579 1.048174 0.235425 -0.451388 0.134651 -0.287035 -1.081333 -0.104096 0.063985 -0.026609 -0.559497 0.180965 0.340628 0.811483 0.113724 0.295111 -0.394263 0.084908 1.268885
ever 0.831339 -0.364647 0.685262 -0.231402 0.802690 -0.471354 0.031856 -0.170236 -1.140215 -0.651570 0.411872 0.843976 -0.534607 0.028081 -0.495501 0.397381 -0.155758 -0.120614 -0.154222 0.942818 -0.755372 -0.049460 0.451011 -0.316928 0.110251 -0.452343 -0.662232 0.349203 -0.444397 -1.017433 0.112241 0.072427 -0.194752 -0.061336 -0.730667 -0.220371 0.279516 0.163108 -0.552326 0.395268 0.091865 -0.202892 0.606588 -0.738094 -0.022066 0.222308 0.333836 0.613548 1.011638 0.514935
therefore -0.369674 -0.005722 -0.201918 -0.244890 0.081417 -0.456370 0.338892 -0.248670 -0.753783 -0.145955 -0.377616 0.762969 -0.990505 0.248599 -1.026713 0.583791 -0.154756 0.255425 -0.603692 0.380138 -0.483436 -0.125812 0.098579 -0.021826 -0.403500 0.600724 -0.433780 0.258109 -0.757988 -0.526355 0.091709 1.031265 -0.034593 -0.100270 -0.399482 -0.228973 -0.056358 0.399373 0.304047 0.629856 0.092839 -0.338866 0.484891 0.083128 0.575211 0.408313 0.417323 -0.270972 1.104247 0.521818
prince 0.343811 -0.162205 -0.687079 -0.167058 -0.318311 0.082581 -0.082849 0.381143 -0.362144 -1.032755 0.471621 1.033224 -0.215869 -0.053282 0.150633 0.383351 0.169688 0.124565 -0.207660 -0.187696 -0.789190 -0.010703 -0.195604 -0.013636 -0.706706 0.126337 -0.527020 0.532114 -0.726509 -0.466177 -0.165471 0.204270 1.633361 -0.321487 -0.661135 -0.567701 0.378840 -0.797897 -0.965101 -0.284233 0.200096 0.386423 0.503356 0.674307 0.878938 -0.819273 0.454278 0.684621 0.770442 1.076893
nothing 0.353624 -0.707154 -0.083728 -0.563953 0.243222 -0.881198 0.213932 -0.163992 -0.722574 0.333415 -0.175448 0.912962 -0.162499 0.408948 0.637261 0.335374 0.055935 -0.484371 -0.293403 0.032563 -0.116853 -0.238217 1.064479 0.227026 -0.067423 1.404647 -0.226159 0.380765 -0.623281 -0.882231 0.317084 0.044503 -0.277569 -0.141547 -0.156427 -0.314893 0.273289 -0.038079 -0.359527 -0.278383 -0.069246 -0.679411 0.993140 0.537991 0.847909 0.779517 0.837852 -0.677243 1.007623 0.838938
noble 0.582810 -0.351975 0.731482 0.163353 -0.052369 -0.699506 0.446191 0.652583 -0.342464 -0.562891 0.653514 1.255964 -0.694636 -0.152465 0.052452 0.648830 0.275712 0.415069 0.098834 0.282922 -1.024639 0.464129 -0.501710 -0.470925 -0.455751 -0.203504 -0.791001 -0.306667 -0.217551 -0.616364 0.545286 0.542625 1.104828 -0.218853 -0.220477 -0.120783 -0.027121 0.264146 -0.291187 0.784100 0.704883 -0.333727 0.881275 0.282158 1.084294 -0.254915 0.720023 0.546361 0.593705 0.351137
grace -0.374697 -0.363976 0.103591 0.052491 -0.144363 -0.424799 0.506711 0.151705 -0.059064 -0.356411 -0.023412 1.417473 -0.927453 -0.036280 0.518868 0.473101 0.423083 -0.053123 -0.196122 0.474067 -1.102115 -0.483438 0.860001 -0.661352 -0.403978 0.236566 -0.126954 -0.382895 -0.302057 -0.621823 -0.179228 0.662666 0.757296 0.289028 -0.705231 -0.074602 0.489398 0.740495 -0.124778 0.564224 0.679018 0.315868 0.481856 0.263769 0.381067 0.186190 0.200901 -0.788492 0.646117 1.001068
myself 0.206419 0.233147 0.562675 0.303297 -0.303602 -0.948733 -0.309785 -0.202564 -1.041269 -0.202475 0.357159 0.716882 -0.610885 0.860723 -0.804087 -0.308250 -0.219823 -0.219456 -0.574359 0.618523 -0.208003 -0.295323 0.409926 -0.333282 -0.366394 0.340821 -0.189258 -0.038714 -0.412414 -0.443176 0.207189 0.903092 0.447666 0.069789 -0.218863 -0.604784 0.651757 0.361414 -0.526047 0.055666 0.269885 -0.294150 -0.024151 -0.324403 -0.401039 0.858988 1.338864 -0.280446 1.176033 1.408394
better 0.165665 0.250955 0.786111 -1.362046 0.027176 -0.831832 0.293157 0.106449 -0.943323 0.278042 -0.029695 0.694534 -0.484343 -0.032898 -0.228645 0.576076 -0.105091 -0.088303 0.534446 0.912135 -0.811113 -0.067570 0.140146 -0.369190 -0.049631 0.380773 -0.002651 0.105768 -0.243201 -1.358259 -0.228117 0.278336 -0.250308 0.138954 -0.417199 -0.984773 -0.502277 0.531499 -0.630034 0.673365 0.177540 -0.704948 0.457906 -0.064707 0.646857 0.413768 0.577613 0.211955 0.848541 0.855848
hast -0.472181 -0.087697 0.838314 0.116334 -0.151778 -0.071019 -0.843210 0.026872 -1.337888 -0.629585 0.667166 1.720842 0.252301 0.208266 0.298494 0.372617 0.099282 -0.746979 0.453365 -0.479109 -0.744369 0.839106 0.437512 -0.190640 0.624604 0.045212 -0.662444 0.557819 -0.333415 -1.303302 0.307559 0.422105 0.039757 -0.274675 -0.727578 -1.355246 0.232105 0.248920 0.021999 -0.244321 0.427462 0.904792 0.498982 -0.048993 0.230862 1.395854 0.611416 0.156806 0.647637 0.867787
brother -0.258615 0.508488 0.399312 -0.194378 -0.141350 -0.815712 0.337242 0.470480 -0.370300 -0.322672 0.345384 1.161967 0.183266 0.353980 -0.309557 0.342719 0.464256 -0.375343 -0.258016 -0.324238 -0.847209 -0.064011 -0.465064 -0.648566 -0.479833 -0.064374 -0.899631 0.074669 -0.735561 -0.292409 -0.304718 0.391410 0.780002 0.451071 -0.460377 -0.117928 0.026532 -0.064654 -0.002145 0.103190 0.925250 -0.031664 0.937222 -0.400465 1.147369 -0.481761 1.709258 0.247224 0.735713 0.719776
queen 0.191415 0.036671 -0.765861 0.490984 -0.228329 -0.716275 0.176780 -0.129414 0.260378 -0.521146 0.378864 0.538237 0.084073 0.210603 0.464085 1.159522 0.565319 0.407965 -0.953186 0.411494 -0.641047 0.310665 -0.405310 -0.505945 -0.206945 -0.239217 -1.060231 0.365271 -0.365851 -0.302655 -0.069255 -0.094362 0.727413 0.414734 -1.224609 0.019957 0.013246 0.083097 -0.241556 0.395345 -0.090174 -0.108951 1.124335 -1.396549 0.986211 -0.818512 0.323685 -0.625617 0.930691 0.787002
against 0.019399 -0.021241 0.364978 -0.221141 0.113603 -0.372346 0.607368 0.201082 -0.902078 -0.034849 0.410680 0.639544 -0.117708 0.074776 -0.375886 0.203204 0.280508 -0.625619 -0.420705 0.038548 -0.823785 0.469481 0.391220 -0.199359 -0.120493 0.833283 -0.272842 -0.500045 -0.123757 -0.240766 -0.108992 0.282931 0.609796 -1.103377 0.486514 0.436344 0.418681 0.916186 -1.112369 0.026482 0.737712 0.278384 -0.174124 0.457648 -0.534813 0.201387 0.746978 -0.094823 1.091418 0.787350
even -0.314836 -0.188692 -0.240090 0.070418 -0.208189 -0.402568 0.605358 -0.533343 -0.395565 -0.381059 0.237489 0.712196 -0.468078 -0.345431 -0.481514 0.141463 0.670182 -0.775922 -0.598380 0.161712 -0.911350 0.427930 0.268826 -0.014148 -0.335631 0.252516 -0.798265 0.270048 -0.024296 -0.844210 0.074474 0.120576 -0.191469 -0.120381 -0.469240 0.448911 0.120485 -0.055291 -0.135147 -0.033012 0.317725 -0.311733 0.691765 -0.076363 0.087572 0.225076 -0.091793 -0.145137 0.801290 1.391466
way -0.289333 0.577023 -0.036741 -0.769165 0.244957 -0.528679 0.788266 -0.547972 -0.654970 -0.135887 -0.104617 0.078625 -0.630915 -0.420350 -0.231863 0.243114 0.691339 -0.524776 -0.211838 0.384512 -0.386177 0.248694 0.506434 -0.426018 -0.322116 0.578112 -0.942156 0.209705 -0.538114 -0.506642 0.532279 0.001222 0.472352 -0.158650 0.352263 -0.267459 -0.371858 -0.400923 -0.496985 0.749416 -0.281471 -0.803976 -0.058093 0.059251 0.249283 0.373957 0.514817 -0.234649 0.661327 1.519247
every 0.337867 -0.050286 0.253400 -0.434387 0.317843 -0.203028 0.287834 -0.348907 -0.186415 0.203676 -0.008294 -0.868511 -0.886314 -0.408315 -0.710057 0.528724 1.067770 0.476554 -0.030543 0.777564 -0.548269 0.228647 1.138934 -0.348223 0.345194 0.629915 -0.981769 -0.318547 -1.068405 -0.231403 -0.077521 0.188247 0.508128 -0.571965 0.360265 -0.098835 -0.296147 -0.613866 -0.620398 0.573637 -0.074656 -0.386040 1.081683 -0.102663 0.157536 0.499681 -0.933782 -0.121542 0.793074 1.598205
many 0.256923 -0.228863 1.125666 0.142076 -0.099159 -0.084108 0.049578 0.420565 0.687576 -0.321779 0.663803 0.667020 0.131199 -0.113907 -0.830673 0.184738 -0.157826 0.084394 0.131021 -0.089092 -0.921955 1.149524 1.099785 1.135396 0.001377 -0.373663 -0.837502 -0.034649 -0.519293 -0.725986 0.067629 0.044727 0.121547 -0.311770 -0.977001 -0.229446 0.665968 0.340490 0.887608 0.835094 0.131515 -0.262238 -0.173503 0.037358 0.081409 0.141964 0.172758 0.619314 1.265270 1.660470
dead 0.364843 0.770850 -0.026549 0.065963 0.454615 -0.085942 0.128233 0.215678 -0.556130 -0.400107 0.414390 0.416747 0.612508 -0.037200 -0.482206 0.253012 0.349662 -0.339647 -0.679653 -0.288739 -0.786918 0.674533 -0.208114 0.124153 -0.322466 0.435825 -1.054654 0.108117 -1.289161 -0.300693 0.409235 -0.058676 -0.085737 0.001066 -0.338010 -0.200389 0.392677 -1.027631 -0.023827 -0.562937 0.220049 -0.597223 1.262193 -0.640603 0.885592 0.222221 0.533036 0.427289 0.937362 1.352064
those -0.271845 0.185641 0.360642 -0.185903 0.152586 -0.798761 -0.002656 -0.410278 0.588329 -0.168389 0.419850 0.606059 0.007970 -0.750949 -0.875348 -0.127232 0.660191 -0.344536 -0.130142 0.588717 -0.825812 0.858282 0.660647 0.413385 -0.204597 1.084720 -0.238672 0.230355 0.072487 -0.403607 0.913901 -0.224884 -0.329248 -0.332637 -0.247467 0.008566 0.776048 0.830031 0.458360 0.808929 0.256170 0.391506 0.493889 -0.237379 -0.076608 0.132816 0.973673 0.699707 0.926660 1.175817
head -0.592092 -0.299719 0.924236 -0.629003 -0.067760 -0.067649 0.256414 -0.321511 -0.427001 0.465376 0.540580 0.632824 0.837834 -0.608563 0.139387 0.786470 0.200977 -0.141487 -0.594776 -0.561292 -1.308442 0.165117 -0.271391 -0.660342 0.680607 0.441287 -0.179438 0.002596 -1.293251 0.295050 -0.507938 0.531785 1.151980 -0.541861 -0.151095 0.231331 0.053512 0.526865 -0.812159 0.092462 0.315899 -0.007088 -0.229275 -1.010691 -0.193170 -0.073760 -0.033593 -0.738347 1.514564 1.758519
bear 0.021336 0.232286 0.508514 -0.141283 -0.090547 -0.530392 0.479848 -0.312647 -0.441553 0.079798 -0.448283 0.453726 -0.581569 -0.297077 -0.955305 0.454150 0.044370 -0.427894 -0.149499 0.311515 -1.106386 0.274004 0.377573 0.404111 -0.422752 0.652934 -1.127187 0.236611 -0.427854 -0.718975 0.147387 0.272096 0.710396 0.040714 0.413131 -0.425143 0.285606 0.607900 -0.148621 -0.045636 -0.203177 -0.708998 0.433737 -0.248955 -0.264763 -0.279564 0.876984 0.045189 0.498263 0.615784
live -0.732784 -0.456146 0.320697 0.075400 0.532224 -0.176878 -0.664057 0.303867 -0.836884 -0.401177 0.634997 0.737780 -0.633322 -0.129407 -1.052817 0.579761 0.429790 0.454880 -0.460521 0.215129 -0.298219 -0.301468 0.419134 0.320826 -0.128092 0.321691 -0.198720 0.300261 -0.638277 -0.015098 0.039794 0.211953 -0.152500 0.335252 -0.986391 -0.072302 0.531049 -0.314809 -0.248875 0.625586 0.265791 -0.835644 0.744494 0.068381 0.745985 -0.148591 1.020785 0.355001 1.009803 1.023514
find 0.039382 0.013429 0.270386 -0.683815 0.902834 -0.010839 -0.075063 0.023277 -0.670787 -0.247814 -0.550801 0.621089 -1.014391 -0.298563 -0.496871 0.219711 0.698526 -0.078610 -0.532862 0.622281 -0.026872 -0.149852 0.561967 -0.071213 -0.283346 0.750396 -0.296257 0.659483 -0.580120 -0.476363 0.151964 0.163721 0.177520 0.030201 -0.402558 -0.601508 -0.238725 0.073499 -0.056205 0.063319 0.165176 -0.736952 0.069130 0.397772 0.201179 0.519582 0.621229 0.108421 0.919375 1.085567
might -0.191241 -0.066763 0.835784 -0.637032 0.351766 -0.485121 0.636225 -0.216791 -1.298481 -0.222648 0.093999 0.883456 -0.321913 -0.191510 -0.715058 0.062433 0.594048 -0.286012 0.030920 1.005748 -0.896510 -0.328750 1.164883 -0.090982 0.139807 0.306661 -0.577557 -0.279194 -0.302187 -0.722353 -0.196612 0.013346 -0.190734 0.343771 -0.847676 -0.210428 0.306607 0.688846 -0.489729 -0.173628 0.391491 -0.323243 -0.091875 -0.047632 -0.240430 0.110174 0.998318 -0.136160 0.717473 0.623259
stand -0.520413 -0.389660 -0.086952 -0.225766 -0.029909 -0.007505 0.031961 0.200759 -0.729780 -0.623049 0.445573 0.570673 -0.428210 -0.202898 -0.183694 0.428011 0.092791 -0.370462 -1.103985 -0.438499 -0.146553 0.230150 0.581558 0.166398 -0.263864 0.537738 -0.433241 0.207888 -0.067270 -0.239806 0.240658 0.812821 0.255707 0.378594 -0.140758 0.056804 0.384470 0.052613 -0.254794 0.085960 0.361106 -0.313396 0.267702 0.806405 0.327799 -0.080950 -0.016970 0.151102 0.737901 1.962400
house 0.480353 0.016141 -0.128437 0.141430 0.316467 -0.001300 -0.547676 0.040557 -0.159404 0.744555 -0.219745 0.277019 -1.040749 0.470693 -0.132618 -0.007766 0.593563 -0.142729 -0.800073 0.136540 -0.534960 -0.313074 0.133443 -1.338756 -0.436195 -0.443105 -1.340516 0.593409 0.020713 -0.565236 -0.128805 -0.340410 1.481343 -0.109695 0.057661 -0.382435 -0.902787 0.047982 -0.284114 0.615576 0.290314 -0.657624 0.071118 -0.250317 -0.028763 -0.076884 0.938831 0.733688 0.603918 1.208927
part 0.518593 0.971711 0.065189 0.133902 -0.099082 -0.016791 0.250978 0.225198 -1.295125 0.442561 0.188750 0.036591 -1.242587 -0.125147 -0.173056 0.181997 0.407027 0.067105 -0.001017 0.428153 -0.676630 0.366679 0.497355 -0.577502 0.257579 0.582830 -0.535502 0.020543 -0.756034 -1.081833 -0.092193 -0.279441 0.660062 -0.558245 0.179833 -0.026063 -0.171375 0.805982 -0.330586 0.520649 0.244261 -1.336428 0.496979 -0.158673 0.185710 -0.396228 0.278179 0.028650 1.048047 1.422133
thing 0.517228 -0.409838 -0.017665 -0.386261 0.063705 -0.322694 0.352031 -0.579664 -0.540361 -0.275412 0.218429 -0.138928 -0.478508 -0.211131 -0.103633 0.474411 0.213995 0.137877 0.136914 0.912194 -0.412839 -0.258491 0.821336 -0.094158 0.446233 0.534512 -0.683715 -0.243254 -1.208135 -0.715915 0.483450 0.387414 0.037816 -0.723694 -0.177473 -0.838992 0.192803 -0.383477 -0.907402 0.674786 0.046881 -0.450707 0.528423 0.280879 0.582190 0.878377 -0.500387 -0.122977 1.043017 1.176559
sec 0.091094 -0.981840 0.119511 0.185419 0.418490 -0.385140 0.605023 0.690135 -0.958790 -0.163964 0.337271 0.340981 -0.388735 0.203957 0.353066 0.068314 -0.947715 0.015828 -0.838669 0.045591 -0.675170 -0.061273 0.466539 0.165510 -0.286095 -0.356788 -1.511698 -0.264278 -0.255968 -0.421026 0.891772 0.607977 0.200957 0.079107 0.407924 -1.018040 -0.177756 -0.098258 -1.212475 0.364601 -0.416239 -0.306279 0.457842 0.866885 0.129736 0.035832 -0.235743 0.294623 0.355641 0.961106
wife 0.116110 -0.052121 0.406272 -0.440261 -0.105153 -1.077605 -0.432316 -0.329873 -0.127122 0.225732 0.344210 0.488159 -0.483545 0.190287 -0.175202 0.381627 0.300331 -0.147244 -0.480871 0.203869 -0.460147 -0.229022 -0.024907 -0.526533 0.118248 -0.386940 -1.453823 0.335141 -0.605217 -0.727685 -0.310444 0.220880 0.455274 0.751821 -0.293492 -0.292554 0.126512 -0.655235 -0.257255 0.366880 0.731910 0.255028 0.821677 -0.431639 0.979900 -0.017478 0.753541 -0.421407 0.917080 0.781658
word 0.570831 -0.252509 -0.004120 -0.549392 -0.211029 -0.229144 0.567597 -0.469308 -0.258736 -0.133611 -0.452477 0.148210 -0.606493 0.022056 -0.307642 0.474081 -0.126260 0.103335 -0.186602 -0.117806 -1.340986 -0.341061 1.117470 -0.124382 -0.064088 0.385436 -0.990998 0.067181 -0.803566 -0.700213 0.596734 0.393642 0.309238 0.058584 0.159634 -0.052450 0.200786 -0.211125 -0.905477 0.667851 -0.216832 0.619331 0.375229 0.165528 0.817151 0.028556 0.554228 -0.418849 0.362094 0.895144
off 0.013331 0.449798 0.718907 -0.963127 0.456615 -0.137402 1.137415 0.070020 -0.635767 0.033911 -0.137691 1.311648 0.129677 -0.810445 -0.362399 0.124210 -0.017341 -0.415570 -1.151022 -1.074803 -1.245124 0.422933 0.233231 -0.217230 1.118848 0.756590 -1.398356 0.512088 -0.719570 -0.555609 0.335056 1.047875 0.719475 -0.355093 0.233359 -0.311137 -0.300949 1.312232 0.238969 -0.439296 -0.198852 -0.378771 -0.458445 -0.622802 -0.241838 0.587434 -0.762030 -0.486363 0.962203 0.537263
little 0.359832 0.007050 0.202984 -0.633399 0.150009 -1.042259 0.361923 -0.202991 -0.187892 -0.187125 -0.524411 0.609932 -0.456097 -0.280879 -0.324755 0.364030 0.173994 -0.528895 0.341587 0.421228 -0.415244 -0.153534 0.021731 0.237984 -0.367733 0.721665 -0.282854 0.434030 -0.551177 -0.873338 -0.542072 -0.085187 0.357761 0.152975 -0.200547 -0.905557 -0.406817 0.662273 -0.721422 0.045136 -0.134624 -1.080294 0.987935 -0.068502 0.758684 0.551392 -0.612868 -0.953756 0.081126 0.901024
put -0.390587 0.206787 0.342534 -0.497260 0.150795 -0.370824 0.146822 -0.007655 -0.575428 0.373214 0.019590 0.596387 -0.486672 -0.202062 -0.291884 -0.270814 0.401876 -0.878264 -0.643594 -0.058241 -1.108854 0.484761 -0.121952 -0.106925 0.543802 0.606115 -1.088086 0.180758 -0.237134 -0.561851 -0.011393 0.405466 0.436437 -0.419881 -0.078182 -0.630714 -0.157706 0.775960 -0.304552 0.286576 0.297978 0.125836 0.400081 0.603205 -0.183292 0.456669 -0.098598 0.208706 1.045118 0.966694
within 0.982838 -0.812619 -0.622215 -0.181323 0.674195 0.434622 0.315145 0.576182 -0.238203 0.168633 -0.161709 0.365757 -0.061064 -0.467955 -0.018817 0.046420 0.579749 -0.357517 -0.983474 -1.211066 -0.998576 0.488958 1.422849 0.308275 -0.098300 0.861114 -1.331656 1.282471 0.162444 0.045191 0.358219 -0.520530 0.306820 -0.057918 0.130286 -0.337086 -0.610836 -0.390671 -0.447299 -0.815414 0.457979 0.014394 0.022639 0.903764 0.395941 -0.367919 0.034585 -0.359401 0.374418 1.812559
die -0.485214 0.415055 0.161125 -0.061279 0.458629 0.053081 -0.482552 -0.035990 -0.810726 -0.484962 0.117181 0.669430 -0.390614 0.117085 -1.530710 0.523614 0.174720 0.003692 -0.279113 -0.553678 -0.400513 -0.066310 0.259672 0.268372 -0.423097 0.520576 -0.356879 0.371781 -1.033684 -0.347920 -0.114587 0.105131 -0.345600 -0.202765 -1.177202 -0.072373 0.572972 -0.580917 -0.327457 0.434964 0.130973 -0.755397 0.738118 -0.235298 0.972180 -0.269521 1.402518 0.526896 0.766870 0.804626
keep -0.258691 -0.415750 0.082586 -0.377828 0.233286 -0.338599 -0.015510 -0.121341 -0.539033 -0.221803 -0.148061 0.150978 -0.768937 -0.013207 -1.085960 0.101130 0.344990 -0.084746 -0.400972 0.183199 -0.974858 -0.164746 0.612476 -0.721755 -0.666564 0.479869 -0.213698 0.531465 0.142094 -0.143670 0.049228 0.150128 0.482696 0.441603 -0.220932 0.158060 0.037699 0.406922 -0.412689 0.272322 0.053434 0.084211 0.232596 0.504108 0.426957 -0.117152 0.259855 0.197004 0.775722 1.321689
friends -0.286390 -0.429469 0.666490 0.170140 -0.368008 -0.369480 0.340561 -0.094413 -0.281104 -0.290988 0.201543 0.870425 -0.328231 -0.214268 -0.669086 0.208993 -0.530209 -0.219171 0.158851 0.319882 -0.617873 0.255094 -0.090440 -0.306502 -0.664396 0.141274 -0.518957 0.132125 -0.178534 -0.739653 0.919354 0.553133 0.260909 -0.035984 -0.252147 -0.137624 -0.008153 0.743172 0.193678 1.329907 -0.179881 -0.175295 0.656808 0.279208 0.885641 -0.424576 0.616290 0.829666 0.703638 1.074808
eye 0.540761 -0.125205 -0.430302 -0.115945 0.572917 0.396836 -0.775902 -0.259991 -0.672798 0.600429 0.646948 0.147300 -0.482370 -0.422387 -0.639990 0.841124 1.206250 0.387896 0.039756 0.513273 -1.034943 0.151999 0.223101 -0.431735 0.219590 1.007558 -0.591844 -0.258351 -0.158155 -1.249817 -0.180120 -0.247538 0.392426 -0.024458 0.381814 0.719466 0.571094 0.286978 0.089758 0.377483 1.025180 0.065155 0.556786 -0.219145 -0.163077 0.737847 -0.630567 -0.759344 0.739000 1.570404
himself -0.391601 0.175964 0.645409 -0.507387 0.815300 -0.134930 0.594544 -0.200936 -1.047986 -0.064862 0.254666 0.811245 -0.456696 0.581979 0.020814 -0.031113 0.247891 -0.149620 -0.593280 0.719987 -0.115711 -0.044405 0.421479 -0.145522 -0.289373 0.198190 -0.409793 -0.656436 -0.992023 -0.951483 0.263571 -0.242756 1.587889 -0.392197 0.000751 0.590950 1.048295 -0.377964 -0.715384 -0.136705 -0.185762 -0.223359 0.589919 0.552029 0.644781 0.644031 0.049843 -0.558969 0.619380 0.545277
